// #### Generated By: http://www.cufonfonts.com ####
/*!
 * The following copyright notice may not be removed under any circumstances.
 * 
 * Copyright:
 * Copyright (c) 2009 Dave Crossland <dave@lab6.com>
 * 
 * Designer:
 * Dave Crossland
 * 
 * Vendor URL:
 * http://abattis.org
 */
Cufon.registerFont({"w":1464,"face":{"font-family":"Cantarell Bold Oblique","font-weight":700,"font-style":"oblique","font-stretch":"normal","units-per-em":"2048","panose-1":"2 0 8 3 0 0 0 0 0 0","ascent":"1514","descent":"-534","x-height":"20","bbox":"-307 -1944 2787 544","underline-thickness":"116","underline-position":"-233","slope":"-16","unicode-range":"U+0020-U+20AC"},"glyphs":{" ":{"w":560},"!":{"d":"253,-241r282,0r-81,282r-282,0xm618,-1462r252,0r-299,1045r-252,0","w":650},"\"":{"d":"904,-1552r267,0r-146,510r-267,0xm514,-1552r267,0r-146,510r-267,0","w":795},"#":{"d":"741,-1462r242,0r-112,391r276,0r112,-391r242,0r-112,391r316,0r-66,232r-316,0r-78,270r316,0r-66,232r-316,0r-117,408r-242,0r117,-408r-276,0r-117,408r-242,0r117,-408r-316,0r66,-232r316,0r78,-270r-318,0r66,-232r318,0xm805,-839r-78,270r276,0r78,-270r-276,0","w":1402},"$":{"d":"882,-1034v-80,32,-120,87,-27,128v132,58,324,85,423,182v118,117,9,294,-72,366v-72,64,-186,117,-310,135r-83,288r-249,0r80,-277v-108,-4,-230,-40,-331,-87r130,-191v103,45,175,80,309,79v98,0,170,-10,217,-28v64,-24,130,-101,47,-141v-141,-67,-355,-79,-452,-193v-63,-73,-38,-190,10,-259v74,-108,204,-186,366,-214r76,-265r249,0r-71,248v123,2,179,22,279,50r-123,192v-135,-42,-340,-65,-468,-13","w":1364},"%":{"d":"682,-941v80,0,152,-109,152,-217v0,-46,-24,-69,-71,-69v-64,0,-107,45,-134,133v-22,71,-25,153,53,153xm426,-957v7,-241,162,-447,389,-447v133,0,225,58,225,195v0,154,-76,278,-172,355v-73,60,-153,89,-238,89v-124,-1,-208,-62,-204,-192xm1194,-200v80,0,152,-109,152,-217v0,-46,-24,-69,-71,-69v-86,0,-149,107,-149,211v0,50,23,75,68,75xm922,-224v7,-247,174,-440,405,-440v120,0,214,59,208,189v-7,155,-76,284,-167,361v-69,59,-144,89,-225,89v-130,-1,-224,-63,-221,-199xm1597,-1421r271,0r-1511,1421r-272,0","w":1493},"&":{"d":"1132,-1481v194,0,346,114,286,306v-63,203,-246,297,-410,407r200,307r423,-352r107,152r-425,359r223,343r-315,0r-125,-184v-157,114,-321,224,-585,231v-225,6,-358,-152,-291,-370v72,-234,257,-376,444,-493v-66,-93,-119,-204,-81,-348v53,-201,299,-358,549,-358xm1161,-1143v17,-71,-37,-114,-111,-113v-123,2,-275,105,-209,234v19,38,41,62,64,96v101,-63,163,-105,188,-125v37,-31,61,-61,68,-92xm482,-327v-31,108,43,190,151,186v149,-6,247,-85,355,-159r-214,-316v-103,67,-184,116,-254,208v-19,25,-30,52,-38,81","w":1589},"'":{"d":"514,-1552r267,0r-146,510r-267,0","w":405},"(":{"d":"974,-1602r174,107v-195,213,-360,456,-462,688v-162,368,-195,761,-65,1144r-234,128v-112,-322,-144,-699,-43,-1041v123,-414,377,-742,630,-1026","w":742},")":{"d":"787,-1007v-2,551,-263,922,-503,1242v-52,69,-108,133,-163,194r-32,36r-162,-128r31,-34v232,-264,439,-564,535,-973v66,-282,43,-568,-41,-825r234,-107v64,185,102,397,101,595","w":742},"*":{"d":"889,-1462r256,0r-95,281r278,-154r64,223r-286,125r214,127r-192,223r-190,-154r-65,280r-256,0r95,-280r-278,154r-64,-223r287,-127r-215,-125r192,-223r190,154","w":1196},"+":{"d":"950,-1274r230,0r-145,506r501,0r-63,220r-501,0r-145,506r-230,0r145,-506r-501,0r63,-220r501,0","w":1400},",":{"d":"233,-211r269,0r-327,472r-269,0","w":570},"-":{"d":"355,-769r942,0r-64,221r-942,0","w":1210},".":{"d":"211,-251r292,0r-84,292r-292,0","w":570},"\/":{"d":"925,-1462r257,0r-980,1593r-257,0","w":726},"0":{"d":"1341,-919v0,-214,-155,-330,-363,-272v-214,59,-343,239,-407,463v-23,80,-35,153,-35,220v0,216,148,344,358,282v221,-65,347,-261,415,-495v21,-75,32,-141,32,-198xm545,-1157v164,-178,401,-331,729,-269v200,38,330,182,330,430v0,454,-247,799,-580,952v-156,71,-397,90,-548,2v-124,-73,-203,-198,-203,-393v0,-281,128,-567,272,-722"},"1":{"d":"1072,-1421r288,0r-341,1190r344,0r-66,231r-992,0r66,-231r359,0r270,-942r-348,108r-37,-207"},"2":{"d":"1316,-1039v0,-108,-140,-163,-271,-163v-112,0,-301,40,-462,93r-18,-206v175,-72,385,-116,582,-116v143,0,253,27,331,81v101,70,143,170,104,300v-69,233,-312,339,-506,457v-149,91,-342,224,-449,361r747,0r-67,232r-1071,0r38,-131v201,-330,537,-525,870,-717v81,-47,172,-88,172,-191"},"3":{"d":"1247,-1052v23,-115,-108,-150,-231,-150v-117,0,-281,41,-409,97r-26,-210v160,-74,354,-123,527,-123v131,0,234,26,310,76v76,50,114,117,114,200v0,186,-129,303,-256,381v127,61,166,182,125,331v-81,295,-407,495,-788,495v-161,0,-306,-35,-423,-95r134,-211v238,73,449,103,652,3v102,-50,166,-96,166,-203v0,-82,-59,-117,-124,-143v-83,-33,-215,-42,-342,-39r66,-228v200,5,379,-25,469,-122v18,-19,32,-39,36,-59"},"4":{"d":"1162,-1421r341,0r-254,886r248,0r-66,232r-248,0r-87,303r-246,0r87,-303r-730,0r45,-158xm972,-535r165,-574r-547,574r382,0","w":1546},"5":{"d":"650,-1421r1020,0r-66,232r-765,0r-75,260v312,-26,614,1,686,232v40,127,-7,264,-58,351v-136,232,-406,367,-786,366v-153,0,-296,-15,-426,-44r115,-232v239,61,645,59,795,-76v63,-57,127,-143,79,-242v-48,-99,-187,-129,-348,-129v-84,0,-250,14,-385,29"},"6":{"d":"708,25v-252,0,-410,-108,-412,-362v0,-73,13,-156,40,-247v181,-614,590,-903,1268,-837r-84,230r-41,-4v-354,-31,-634,72,-760,297v103,-50,213,-75,330,-75v246,0,407,119,407,338v0,238,-144,397,-290,511v-108,85,-274,149,-458,149xm1184,-484v45,-166,-87,-267,-244,-267v-175,0,-342,115,-380,256v-44,166,70,298,233,298v171,0,353,-147,391,-287"},"7":{"d":"538,-1421r1202,0r-42,149r-1126,1272r-290,0r1062,-1179r-875,0"},"8":{"d":"1277,-1047v33,-121,-87,-170,-205,-168v-131,2,-275,73,-283,191v17,114,137,134,236,168v84,-41,145,-75,182,-102v37,-27,61,-56,70,-89xm535,-446v-68,248,343,289,516,168v84,-58,139,-111,139,-219v0,-111,-91,-155,-173,-191v-32,-13,-69,-25,-111,-36v-163,39,-333,140,-371,278xm994,-18v-333,105,-836,-1,-727,-389v47,-165,199,-304,352,-381v-83,-70,-114,-169,-80,-289v60,-213,310,-363,598,-363v141,0,247,23,317,68v70,45,105,108,105,191v0,201,-121,297,-262,387v133,88,189,202,139,369v-62,205,-228,339,-442,407"},"9":{"d":"832,-483v-280,0,-476,-179,-392,-456v88,-287,357,-502,723,-502v250,0,408,109,408,361v0,707,-494,1160,-1307,1085r85,-230v257,28,524,-15,660,-137v70,-63,107,-112,151,-195v-105,49,-215,74,-328,74xm1315,-944v38,-155,-89,-275,-240,-275v-158,0,-352,140,-384,264v-40,156,101,250,248,250v163,0,344,-112,376,-239"},":":{"d":"211,-251r292,0r-84,292r-292,0xm435,-1034r292,0r-83,292r-292,0","w":570},";":{"d":"233,-211r269,0r-327,472r-269,0xm435,-1034r292,0r-83,292r-292,0","w":570},"<":{"d":"1356,-1194r-70,246r-741,326r558,311r-73,256r-826,-452r63,-217","w":1073},"=":{"d":"334,-542r1042,0r-66,232r-1042,0xm464,-995r1042,0r-66,232r-1042,0","w":1400},">":{"d":"401,-1194r821,470r-63,217r-1084,452r73,-256r736,-311r-553,-326","w":1073},"?":{"d":"339,-241r282,0r-81,282r-282,0xm445,-1389v242,-124,805,-165,805,178v0,220,-130,366,-268,463r-102,72v-114,74,-211,168,-242,325r-252,0v52,-236,201,-376,374,-487v103,-66,224,-126,224,-278v0,-200,-377,-139,-512,-77","w":1046},"@":{"d":"1012,61v-223,0,-348,-134,-348,-344v0,-246,132,-424,266,-555v130,-127,404,-223,621,-121r32,-50r183,0r-217,757v-17,59,-26,103,-26,130v-2,69,67,73,117,41v129,-82,208,-248,260,-429v32,-110,48,-207,48,-290v-2,-295,-199,-401,-505,-397v-484,7,-724,285,-879,623v-45,99,-84,250,-84,368v0,280,195,450,467,450v111,0,235,-35,333,-80r46,190v-274,152,-719,150,-936,-30v-109,-91,-183,-222,-183,-419v0,-375,177,-696,367,-917v213,-248,521,-428,981,-428v442,0,663,178,663,533v0,319,-149,697,-319,867v-102,102,-221,191,-399,196v-116,3,-198,-61,-221,-155v-92,40,-181,60,-267,60xm911,-354v-3,131,84,204,214,204v54,0,110,-12,168,-36r167,-581v-298,-116,-541,119,-549,413","w":2100},"A":{"d":"1100,-1421r276,0r155,1421r-259,0r-52,-372r-580,0r-266,372r-244,0xm1198,-603r-51,-527r-354,527r405,0","w":1547},"B":{"d":"1122,-1209r-233,0r-113,394v146,-3,250,-10,311,-21v155,-27,249,-91,276,-194v34,-130,-53,-179,-241,-179xm979,-655v-5,0,-89,4,-252,11r-118,412r293,0v213,-10,440,-44,440,-247v0,-55,-32,-98,-96,-129v-64,-31,-153,-47,-267,-47xm1446,-803v118,49,198,198,145,357v-101,302,-390,446,-798,446r-503,0r407,-1421r542,0v231,4,424,56,424,273v0,165,-116,269,-217,345","w":1588},"C":{"d":"1066,20v-368,0,-621,-177,-621,-512v0,-340,185,-574,393,-732v159,-121,390,-207,657,-207v163,-1,314,33,435,94r-141,216v-195,-78,-403,-109,-607,-37v-217,76,-385,229,-450,448v-91,305,140,492,451,492v120,0,264,-29,385,-71r25,200v-161,66,-354,109,-527,109","w":1615},"D":{"d":"1396,-1150v-123,-57,-329,-33,-505,-39r-274,957v197,-2,401,10,553,-50v226,-90,415,-285,415,-582v0,-152,-84,-238,-189,-286xm705,-1421v405,9,878,-54,1069,191v92,118,105,301,52,478v-144,485,-500,778,-1160,752r-368,0","w":1770},"E":{"d":"290,0r407,-1421r997,0r-66,232r-744,0r-98,341r689,0r-66,232r-689,0r-110,384r744,0r-67,232r-997,0","w":1447},"F":{"d":"884,-1189r-98,341r674,0r-66,232r-674,0r-177,616r-253,0r407,-1421r987,0r-66,232r-734,0","w":1412},"G":{"d":"674,-719v-93,307,137,506,444,506v123,0,231,-28,325,-83r78,-273r-445,0r64,-222r692,0r-168,585v-229,193,-551,279,-894,198v-235,-55,-383,-207,-383,-487v0,-389,228,-628,482,-789v138,-88,335,-148,552,-148v203,0,373,52,502,146r-162,198v-92,-61,-241,-115,-397,-112v-345,6,-606,205,-690,481","w":1755},"H":{"d":"1709,-1421r252,0r-407,1421r-252,0r177,-617r-760,0r-177,617r-252,0r407,-1421r252,0r-164,572r760,0","w":1764},"I":{"d":"727,-1421r252,0r-407,1421r-252,0","w":812},"J":{"d":"1069,-1421r252,0r-260,910v-89,321,-299,528,-712,528v-86,1,-166,-13,-234,-35r106,-222v152,50,370,16,459,-65v62,-57,103,-120,129,-208","w":1117},"K":{"d":"763,-770r834,-651r323,0r-878,680r507,741r-327,0r-483,-688r-197,688r-252,0r407,-1421r252,0","w":1581},"L":{"d":"697,-1421r252,0r-341,1190r720,0r-66,231r-972,0","w":1297},"M":{"d":"697,-1421r306,0r238,816r713,-816r291,0r-407,1421r-252,0r305,-1063r-592,656r-238,0r-214,-656r-305,1063r-252,0","w":2048},"N":{"d":"697,-1421r278,0r480,1092r313,-1092r252,0r-407,1421r-281,0r-476,-1094r-314,1094r-252,0","w":1823},"O":{"d":"1378,-1436v335,0,585,170,579,489v-5,255,-108,450,-239,607v-168,200,-428,355,-764,355v-337,0,-571,-156,-571,-492v0,-432,269,-725,581,-871v130,-61,268,-88,414,-88xm1685,-869v4,-290,-294,-392,-566,-307v-259,80,-450,286,-463,612v-9,218,158,356,379,348v337,-12,540,-214,625,-493v18,-58,25,-111,25,-160","w":1850},"P":{"d":"1207,-1421v256,1,502,26,502,273v0,491,-456,633,-1009,596r-158,552r-252,0r407,-1421r510,0xm767,-784v308,13,665,21,665,-264v0,-146,-186,-141,-342,-141r-207,0","w":1503},"Q":{"d":"964,15v-336,0,-583,-169,-582,-492v0,-72,13,-147,35,-228v108,-404,481,-731,961,-731v354,0,575,159,575,500v0,274,-148,539,-304,688r135,173r-190,148r-148,-182v-151,83,-311,124,-482,124xm1679,-871v7,-293,-288,-389,-560,-306v-260,79,-450,290,-464,616v-9,223,172,347,397,345v87,0,171,-18,251,-53r-257,-269r222,-155r244,271v90,-100,163,-272,167,-449","w":1870},"R":{"d":"1704,-1155v0,168,-73,296,-170,399v-72,76,-167,129,-284,162r259,594r-328,0r-240,-551r-241,0r-158,551r-252,0r407,-1421r605,0v268,0,402,89,402,266xm999,-783v231,3,422,-54,422,-266v0,-94,-86,-141,-259,-141r-279,0r-116,407r232,0","w":1601},"S":{"d":"833,-1312v238,-144,637,-156,919,-51r-149,232v-199,-66,-429,-92,-615,-13v-89,38,-144,71,-144,150v0,68,74,99,136,124v182,70,405,102,510,248v72,100,25,248,-32,332v-132,195,-374,309,-707,310v-210,1,-333,-48,-484,-113r154,-242v233,100,466,151,689,58v86,-36,129,-74,136,-157v-18,-120,-161,-139,-271,-176v-142,-48,-301,-85,-380,-193v-41,-57,-48,-130,-25,-207v35,-120,124,-218,263,-302","w":1525},"T":{"d":"492,-1421r1284,0r-66,232r-516,0r-341,1189r-252,0r341,-1189r-516,0","w":1374},"U":{"d":"969,-209v251,-1,399,-116,455,-311r258,-901r250,0r-258,910v-90,338,-336,532,-771,531v-338,0,-507,-104,-507,-312v0,-78,19,-144,37,-206r264,-923r252,0r-258,901v-26,95,-36,155,11,218v47,63,137,93,267,93","w":1737},"V":{"d":"547,-1421r289,0r89,1150r746,-1150r274,0r-957,1421r-299,0","w":1565},"W":{"d":"547,-1421r266,0r14,1092r724,-1092r232,0r25,1092r713,-1092r266,0r-952,1421r-241,0r-30,-1087r-714,1087r-241,0","w":2411},"X":{"d":"1632,-1421r295,0r-694,677r342,744r-319,0r-256,-566r-580,566r-310,0r775,-741r-306,-680r304,0r238,502","w":1532},"Y":{"d":"507,-1421r298,0r222,551r546,-551r288,0r-762,757r-190,664r-283,0r190,-664","w":1427},"Z":{"d":"592,-1421r1250,0r-43,153r-1215,1036r945,0r-67,232r-1307,0r44,-155r1194,-1034r-867,0","w":1522},"[":{"d":"654,-1552r540,0r-66,231r-294,0r-442,1541r294,0r-66,231r-540,0","w":788},"\\":{"d":"382,-1462r257,0r66,1593r-257,0","w":726},"]":{"d":"484,-1552r540,0r-574,2003r-540,0r66,-231r294,0r442,-1541r-294,0","w":778},"^":{"d":"1185,-1601r212,348r-193,145r-119,-194r-233,193r-111,-135","w":1479},"_":{"d":"164,-191r942,0r-67,232r-942,0","w":1160},"`":{"d":"802,-1643r473,353r-155,178r-487,-336","w":1122},"a":{"d":"523,20v-198,0,-374,-95,-327,-286v49,-197,273,-260,499,-287v76,-9,163,-14,260,-15v7,-26,21,-70,20,-94v0,-68,-66,-102,-199,-102v-74,0,-231,24,-347,55r6,-197v135,-46,294,-77,436,-76v305,2,418,114,350,350r-182,632r-184,0r-9,-65v-103,57,-211,85,-323,85xm461,-284v-4,69,96,93,176,93v79,0,154,-20,227,-60r38,-131v-130,-1,-256,6,-324,22v-68,16,-107,41,-117,76","w":1222},"b":{"d":"1368,-662v-17,407,-304,682,-718,682v-99,0,-186,-17,-260,-52r-23,32r-182,0r434,-1511r246,0r-164,572v288,-93,680,-53,667,277xm1108,-569v0,-220,-279,-221,-466,-165r-148,515v63,19,125,28,188,28v254,-4,426,-135,426,-378","w":1333},"c":{"d":"233,-296v15,-371,239,-602,569,-669v176,-36,375,-13,497,61r-119,193v-67,-28,-147,-48,-237,-47v-275,1,-449,115,-449,363v0,132,103,198,310,198v75,0,160,-21,229,-42r12,187v-287,113,-827,135,-812,-244","w":1147},"d":{"d":"956,-46v-281,120,-733,98,-722,-254v7,-248,128,-435,284,-548v174,-127,418,-173,653,-101r161,-562r246,0r-433,1511r-182,0xm494,-393v0,221,280,223,471,162r147,-513v-64,-19,-128,-28,-191,-28v-255,4,-427,137,-427,379","w":1338},"e":{"d":"1077,-49v-303,104,-859,139,-845,-247v13,-350,234,-567,518,-654v71,-22,143,-32,216,-32v215,0,322,87,322,261v0,81,-46,259,-76,356r-724,0v1,47,28,87,82,121v119,76,363,56,513,6xm862,-758v-149,-2,-269,84,-313,187r487,0v28,-125,-29,-185,-174,-187","w":1240},"f":{"d":"567,-963r35,-119v64,-218,223,-347,511,-347v92,0,195,22,279,52r-99,204v-52,-16,-135,-37,-175,-37v-156,0,-251,58,-284,173r-21,74r385,0r-61,211r-385,0r-260,908v-65,258,-211,369,-521,375v-92,1,-195,-20,-278,-51r96,-196v52,15,132,32,176,32v157,0,250,-51,279,-153r262,-915r-159,0r61,-211r159,0","w":960},"g":{"d":"905,-25v-293,100,-682,43,-669,-288v15,-369,252,-584,570,-655v153,-34,269,-15,401,48r28,-43r185,0r-285,992v-92,307,-309,508,-708,512v-138,0,-269,-29,-370,-83r131,-194v78,35,181,58,276,58v242,0,384,-126,441,-347xm507,-401v0,137,100,204,252,204v63,0,131,-12,205,-35r143,-500v-297,-107,-600,35,-600,331","w":1326},"h":{"d":"901,-753v-77,0,-166,18,-269,53r-201,700r-246,0r434,-1511r246,0r-172,599v131,-46,248,-69,349,-69v196,0,294,79,294,238v0,51,-12,116,-35,195r-157,548r-244,0r160,-559v38,-118,-13,-194,-159,-194","w":1328},"i":{"d":"572,-1421r276,0r-77,271r-276,0xm463,-988r246,0r-283,988r-246,0","w":606},"j":{"d":"582,-1421r276,0r-78,271r-276,0xm473,-988r246,0r-311,1084v-58,239,-217,380,-452,448r-39,-194v118,-43,207,-121,240,-237","w":601},"k":{"d":"591,-591r582,-417r297,0r-635,452r361,556r-302,0r-331,-492r-141,492r-246,0r433,-1511r246,0","w":1225},"l":{"d":"633,-1511r246,0r-433,1511r-246,0","w":646},"m":{"d":"1666,-981v190,-1,297,63,297,230v0,48,-10,108,-30,179r-163,572r-246,0r161,-564v34,-115,-9,-187,-150,-185v-61,0,-145,17,-250,52v-3,33,-13,78,-30,136r-160,561r-246,0r162,-568v34,-113,-10,-182,-146,-181v-58,0,-139,17,-244,52r-199,697r-246,0r276,-963r183,0r9,65v132,-56,254,-84,367,-84v113,0,192,33,236,99v140,-65,280,-98,419,-98","w":1958},"n":{"d":"452,-963r172,0r14,68v153,-59,287,-88,402,-88v190,0,285,76,285,227v0,50,-11,112,-32,187r-163,569r-246,0r161,-562v38,-122,-6,-191,-154,-191v-75,0,-164,18,-269,53r-200,700r-246,0","w":1314},"o":{"d":"658,20v-244,1,-420,-109,-420,-336v0,-244,122,-411,280,-528v125,-93,275,-138,446,-138v244,0,426,104,428,333v0,48,-9,98,-23,150v-80,297,-350,517,-711,519xm1132,-554v5,-131,-117,-210,-247,-206v-201,6,-386,133,-386,347v0,132,103,215,244,211v208,-6,381,-139,389,-352","w":1359},"p":{"d":"1362,-662v-13,405,-302,682,-711,682v-77,0,-148,-11,-215,-34r-157,545r-256,0r429,-1494r182,0r9,47v289,-119,730,-99,719,254xm1102,-570v0,-219,-276,-220,-461,-161r-146,511v65,19,127,29,187,29v248,0,420,-137,420,-379","w":1327},"q":{"d":"895,-26v-287,97,-673,54,-661,-275v13,-343,217,-566,494,-651v169,-52,318,-41,476,32r31,-43r175,0r-429,1494r-246,0xm492,-393v0,219,274,222,462,161r143,-500v-302,-109,-605,39,-605,339","w":1316},"r":{"d":"630,-910v181,-76,409,-109,564,-13r-134,203v-123,-62,-294,-45,-434,5r-204,715r-246,0r276,-963r164,0","w":933},"s":{"d":"604,-191v167,-3,258,-29,274,-106v-9,-46,-83,-61,-138,-76v-126,-33,-274,-65,-352,-149v-61,-66,-39,-172,5,-238v125,-188,473,-261,784,-201r104,33r-126,201v-157,-51,-423,-81,-525,27v-32,34,-15,59,39,81v132,53,321,78,423,167v75,65,57,172,12,248v-144,243,-671,289,-956,131r129,-196v100,45,229,81,327,78","w":1169},"t":{"d":"557,-328v-22,93,37,142,139,138v10,2,130,-15,188,-26r-16,188v-95,25,-226,48,-293,48v-183,0,-294,-41,-294,-189v0,-37,8,-83,24,-138r128,-445r-149,0r60,-211r150,0r88,-308r246,0r-88,308r354,0r-61,211r-354,0","w":924},"u":{"d":"1174,-963r246,0r-276,963r-183,0r-10,-67v-148,58,-283,87,-405,87v-193,0,-289,-76,-289,-229v0,-52,10,-114,31,-185r164,-569r246,0r-162,563v-37,119,10,191,161,191v77,0,169,-18,276,-53","w":1328},"v":{"d":"1388,-963r-662,963r-259,0r-127,-963r284,0r52,709r454,-709r258,0","w":1144},"w":{"d":"335,-963r256,0r26,714r505,-714r215,0r23,716r517,-716r264,0r-744,963r-218,0r-29,-692r-503,692r-218,0","w":1891},"x":{"d":"340,-963r290,0r191,352r382,-352r277,0r-546,490r250,473r-291,0r-183,-332r-359,332r-276,0r525,-474","w":1205},"y":{"d":"325,-963r282,0r109,746r502,-746r259,0r-1061,1494r-300,0r392,-514","w":1214},"z":{"d":"422,-963r895,0r-37,127r-730,625r575,0r-60,211r-919,0r37,-127r722,-625r-543,0","w":1218},"{":{"d":"316,262v-61,-165,29,-345,33,-515v3,-115,-64,-184,-172,-192r59,-208v338,-31,330,-416,484,-628v92,-127,197,-211,349,-257v41,-13,77,-14,121,-17r-12,208v-366,27,-337,452,-516,670v-39,48,-82,92,-134,128v46,51,69,119,69,204v0,75,-59,340,-59,409v0,118,71,177,183,184r-108,208v-152,-9,-251,-70,-297,-194","w":828},"|":{"d":"790,-1642r246,0r-571,1991r-246,0","w":884},"}":{"d":"546,-749v0,-118,93,-378,48,-491v-26,-64,-87,-103,-172,-107r108,-208v201,10,314,119,317,332v2,133,-50,243,-52,378v-1,122,59,183,171,192r-59,208v-344,30,-327,424,-488,635v-94,123,-200,206,-351,250v-40,12,-73,13,-115,16r12,-208v366,-26,336,-450,514,-668v39,-48,82,-93,135,-129v-45,-51,-68,-118,-68,-200","w":828},"~":{"d":"1214,-1463v22,29,54,94,96,41v37,-46,60,-111,89,-170r182,30r-79,161v-59,102,-123,203,-276,203v-126,0,-177,-96,-236,-165v-50,-59,-89,40,-106,75r-44,93r-183,-26r80,-161v59,-102,122,-202,275,-202v99,0,159,63,202,121","w":1400},"\u1e02":{"d":"1122,-1209r-233,0r-113,394v146,-3,250,-10,311,-21v155,-27,249,-91,276,-194v34,-130,-53,-179,-241,-179xm979,-655v-5,0,-89,4,-252,11r-118,412r293,0v213,-10,440,-44,440,-247v0,-55,-32,-98,-96,-129v-64,-31,-153,-47,-267,-47xm1446,-803v118,49,198,198,145,357v-101,302,-390,446,-798,446r-503,0r407,-1421r542,0v231,4,424,56,424,273v0,165,-116,269,-217,345xm1224,-1898r330,0r-83,292r-330,0","w":1588},"\u1e03":{"d":"1377,-662v-16,409,-308,682,-724,682v-100,0,-188,-17,-263,-52r-23,32r-182,0r432,-1507r246,0r-162,568v290,-93,689,-55,676,277xm1116,-568v0,-222,-285,-222,-474,-166r-148,515v63,19,126,28,191,28v255,0,431,-133,431,-377xm1080,-1898r345,0r-84,292r-345,0","w":1342},"\u1e0a":{"d":"1286,-1898r334,0r-83,292r-334,0xm1444,-1118v-130,-90,-350,-67,-561,-71r-274,957v195,-1,395,8,546,-50v230,-88,428,-276,428,-576v0,-128,-61,-206,-139,-260xm697,-1421v470,5,1021,-64,1141,319v57,182,-14,391,-78,527v-128,272,-358,474,-697,544v-179,37,-526,30,-773,31","w":1770},"\u1e0b":{"d":"926,-772v-256,3,-432,135,-432,378v0,223,288,223,480,163r147,-513v-64,-19,-129,-28,-195,-28xm940,-1606r84,-292r344,0r-84,292r-344,0xm965,-46v-285,121,-741,98,-731,-256v7,-248,129,-433,286,-546v176,-127,421,-173,660,-101r160,-558r246,0r-432,1507r-182,0","w":1346},"\u1e1e":{"d":"884,-1189r-98,341r674,0r-66,232r-674,0r-177,616r-253,0r407,-1421r987,0r-66,232r-734,0xm1140,-1898r350,0r-83,292r-350,0","w":1412},"\u1e1f":{"d":"567,-963r33,-117v63,-218,228,-341,515,-341v93,0,197,21,281,52r-98,203v-53,-16,-135,-36,-178,-36v-153,0,-253,57,-287,168r-20,71r391,0r-60,211r-392,0r-215,752r-246,0r215,-752r-159,0r61,-211r159,0xm950,-1829r363,0r-84,292r-363,0","w":974},"\u1e40":{"d":"697,-1421r306,0r238,816r713,-816r291,0r-407,1421r-252,0r305,-1063r-592,656r-238,0r-214,-656r-305,1063r-252,0xm1437,-1898r319,0r-83,292r-319,0","w":2048},"\u1e41":{"d":"865,-749v-58,0,-139,17,-244,52r-199,697r-246,0r276,-963r183,0r9,65v132,-56,254,-84,367,-84v113,0,192,33,236,99v141,-65,281,-98,420,-98v199,0,298,77,298,231v0,49,-10,108,-30,178r-164,572r-247,0r162,-565v34,-116,-10,-185,-151,-184v-61,0,-144,17,-249,52v-3,32,-14,81,-33,148r-157,549r-247,0r163,-568v35,-113,-10,-182,-147,-181xm1242,-1421r303,0r-83,291r-303,0","w":1955},"\u1e56":{"d":"1207,-1421v256,1,502,26,502,273v0,491,-456,633,-1009,596r-158,552r-252,0r407,-1421r510,0xm767,-784v308,13,665,21,665,-264v0,-146,-186,-141,-342,-141r-207,0xm1151,-1898r322,0r-83,292r-322,0","w":1503},"\u1e57":{"d":"880,-1130r84,-291r338,0r-84,291r-338,0xm685,-191v250,0,426,-135,426,-378v0,-222,-283,-220,-470,-162r-146,511v65,19,128,29,190,29xm1371,-661v-13,407,-306,681,-718,681v-75,0,-148,-11,-217,-34r-157,545r-256,0r429,-1494r182,0r9,47v291,-119,739,-101,728,255","w":1336},"\u1e60":{"d":"1226,-1898r333,0r-83,292r-333,0xm833,-1312v238,-144,637,-156,919,-51r-149,232v-199,-66,-429,-92,-615,-13v-89,38,-144,71,-144,150v0,68,74,99,136,124v182,70,405,102,510,248v72,100,25,248,-32,332v-132,195,-374,309,-707,310v-210,1,-333,-48,-484,-113r154,-242v233,100,466,151,689,58v86,-36,129,-74,136,-157v-18,-120,-161,-139,-271,-176v-142,-48,-301,-85,-380,-193v-41,-57,-48,-130,-25,-207v35,-120,124,-218,263,-302","w":1525},"\u1e61":{"d":"772,-1130r84,-291r357,0r-84,291r-357,0xm609,-191v169,-3,261,-29,277,-106v0,-19,-19,-35,-56,-49v-133,-52,-325,-73,-426,-162v-74,-66,-61,-177,-11,-252v127,-188,479,-261,792,-201r104,33r-125,201v-164,-52,-441,-84,-540,34v-28,33,-4,53,46,74v134,54,331,75,430,169v50,46,71,95,48,166v-71,223,-308,300,-608,304v-139,2,-279,-35,-392,-93r129,-196v102,45,232,81,332,78","w":1178},"\u1e6a":{"d":"492,-1421r1284,0r-66,232r-516,0r-341,1189r-252,0r341,-1189r-516,0xm1107,-1898r326,0r-83,292r-326,0","w":1374},"\u1e6b":{"d":"559,-328v-24,94,38,141,139,138v10,2,131,-15,189,-26r-16,188v-95,25,-226,49,-294,48v-183,-2,-294,-40,-294,-188v0,-37,8,-83,24,-139r127,-445r-150,0r60,-211r151,0r87,-304r246,0r-87,304r355,0r-60,211r-356,0xm636,-1621r353,0r-83,292r-353,0","w":907},"\u1e80":{"d":"547,-1421r268,0r14,1092r724,-1092r232,0r26,1092r712,-1092r254,0r-940,1421r-241,0r-30,-1087r-714,1087r-241,0xm1639,-1944r516,353r-166,177r-530,-335","w":2401},"\u1e81":{"d":"342,-988r256,0r21,733r510,-733r215,0r17,735r523,-735r264,0r-751,988r-218,0r-24,-710r-508,710r-218,0xm1264,-1567r341,378r-196,163r-361,-368","w":1891},"\u1e82":{"d":"547,-1421r268,0r14,1092r724,-1092r232,0r26,1092r712,-1092r254,0r-940,1421r-241,0r-30,-1087r-714,1087r-241,0xm2041,-1944r70,195r-723,335r-65,-177","w":2401},"\u1e83":{"d":"342,-988r256,0r21,733r510,-733r215,0r17,735r523,-735r264,0r-751,988r-218,0r-24,-710r-508,710r-218,0xm1581,-1567r117,173r-571,368r-103,-163","w":1891},"\u1e84":{"d":"547,-1421r268,0r14,1092r724,-1092r232,0r26,1092r712,-1092r254,0r-940,1421r-241,0r-30,-1087r-714,1087r-241,0xm1410,-1898r298,0r-76,267r-298,0xm1891,-1898r296,0r-76,267r-296,0","w":2401},"\u1e85":{"d":"342,-988r256,0r21,733r517,-733r216,0r24,735r524,-735r264,0r-751,988r-223,0r-27,-710r-513,710r-221,0xm968,-1421r311,0r-76,266r-311,0xm1458,-1421r310,0r-77,266r-310,0","w":1906},"\u1ef2":{"d":"507,-1421r298,0r222,551r546,-551r288,0r-762,757r-190,664r-283,0r190,-664xm1091,-1944r541,353r-165,177r-556,-335","w":1427},"\u1ef3":{"d":"332,-988r259,0r109,759r515,-759r259,0r-1078,1519r-296,0r399,-534xm897,-1567r370,378r-193,163r-390,-368","w":1204},"\u20ac":{"d":"863,61v-313,0,-500,-204,-490,-524r-231,0r61,-212r202,0v5,-29,19,-73,41,-132r-142,0r61,-212r187,0v150,-241,412,-446,760,-453v132,-2,264,37,372,94r-135,218v-176,-82,-360,-117,-535,-21v-74,41,-140,93,-199,162r426,0r-61,212r-497,0v-22,51,-36,95,-43,132r439,0r-61,212r-390,0v25,170,143,286,341,286v93,0,230,-33,334,-72r17,200v-143,64,-318,110,-457,110","w":1335},"\u00a0":{"w":560}}});
/*!
 * The following copyright notice may not be removed under any circumstances.
 * 
 * Copyright:
 * Copyright (c) 2009 Dave Crossland <dave@lab6.com>
 * 
 * Designer:
 * Dave Crossland
 * 
 * Vendor URL:
 * http://abattis.org
 */
Cufon.registerFont({"w":1464,"face":{"font-family":"Cantarell Bold","font-weight":700,"font-stretch":"normal","units-per-em":"2048","panose-1":"2 0 8 3 0 0 0 0 0 0","ascent":"1514","descent":"-534","x-height":"20","bbox":"-37 -1944 2380 544","underline-thickness":"116","underline-position":"-233","unicode-range":"U+0020-U+20AC"},"glyphs":{" ":{"w":560},"!":{"d":"184,-241r282,0r0,282r-282,0r0,-282xm199,-1462r252,0r0,1045r-252,0r0,-1045","w":650},"\"":{"d":"459,-1552r267,0r0,510r-267,0r0,-510xm69,-1552r267,0r0,510r-267,0r0,-510","w":795},"#":{"d":"322,-1462r242,0r0,391r276,0r0,-391r242,0r0,391r316,0r0,232r-316,0r0,270r316,0r0,232r-316,0r0,408r-242,0r0,-408r-276,0r0,408r-242,0r0,-408r-316,0r0,-232r316,0r0,-270r-318,0r0,-232r318,0r0,-391xm564,-839r0,270r276,0r0,-270r-276,0","w":1402},"$":{"d":"262,-948v0,-184,150,-262,321,-298r0,-265r249,0r0,248v127,2,187,22,293,50r-68,192v-140,-40,-348,-68,-472,-13v-66,29,-91,80,-27,112v183,92,463,99,574,262v24,35,36,74,36,117v0,201,-150,286,-336,320r0,288r-249,0r0,-277v-110,-4,-244,-41,-356,-87r75,-191r39,15v109,42,164,64,293,64v98,0,167,-10,208,-28v61,-26,92,-101,24,-132v-185,-85,-463,-89,-569,-254v-23,-36,-35,-77,-35,-123","w":1364},"%":{"d":"411,-1227v-64,0,-96,44,-96,133v0,102,32,153,97,153v65,0,98,-49,98,-148v0,-92,-33,-138,-99,-138xm135,-1093v-3,-181,113,-311,277,-311v193,0,292,114,296,312v4,186,-121,330,-297,327v-190,-3,-273,-128,-276,-328xm1136,-486v-65,0,-98,44,-98,133v0,102,33,153,99,153v65,0,97,-49,97,-148v0,-92,-33,-138,-98,-138xm841,-352v-3,-183,128,-312,296,-312v189,0,273,120,277,313v4,184,-107,326,-278,326v-196,0,-291,-122,-295,-327xm1190,-1421r271,0r-1104,1421r-272,0","w":1493},"&":{"d":"707,-1481v231,0,428,154,363,390v-41,149,-174,236,-282,323r288,307r322,-352r150,152r-322,359r322,343r-315,0r-178,-184v-128,120,-273,227,-519,231v-232,4,-402,-150,-397,-370v5,-250,158,-379,303,-493v-94,-105,-177,-179,-181,-348v-5,-219,217,-358,446,-358xm833,-1143v-1,-66,-66,-113,-143,-113v-118,0,-233,115,-153,220v27,37,66,74,102,110v79,-60,127,-99,145,-118v33,-33,49,-66,49,-99xm400,-395v-51,136,59,258,193,254v139,-4,222,-82,309,-159r-305,-316v-82,67,-158,117,-197,221","w":1589},"'":{"d":"69,-1552r267,0r0,510r-267,0r0,-510","w":405},"(":{"d":"515,-1602r204,107v-147,241,-283,551,-283,921v0,363,136,678,282,911r-198,128r-22,-36v-193,-322,-394,-774,-290,-1293v58,-290,177,-524,307,-738","w":742},")":{"d":"227,-1602v208,341,413,777,306,1320v-58,294,-179,532,-311,747r-198,-128v147,-234,281,-546,282,-911v0,-368,-138,-682,-283,-921","w":742},"*":{"d":"470,-1462r256,0r-15,281r234,-154r128,223r-250,125r250,127r-128,223r-234,-154r15,280r-256,0r15,-280r-234,154r-128,-223r251,-127r-251,-125r128,-223r234,154","w":1196},"+":{"d":"585,-1274r230,0r0,506r501,0r0,220r-501,0r0,506r-230,0r0,-506r-501,0r0,-220r501,0r0,-506","w":1400},",":{"d":"172,-211r269,0r-191,472r-269,0","w":570},"-":{"d":"134,-769r942,0r0,221r-942,0r0,-221","w":1210},".":{"d":"139,-251r292,0r0,292r-292,0r0,-292","w":570},"\/":{"d":"506,-1462r257,0r-523,1593r-257,0","w":726},"0":{"d":"1014,-1054v-77,-101,-208,-188,-378,-137v-179,53,-274,221,-274,463v0,257,88,443,276,502v171,54,302,-39,377,-144v108,-151,114,-533,-1,-684xm111,-727v0,-502,306,-797,787,-693v292,63,455,318,455,695v-1,387,-155,655,-453,723v-489,112,-789,-212,-789,-725"},"1":{"d":"665,-1421r288,0r0,1190r344,0r0,231r-992,0r0,-231r359,0r0,-942r-317,108r-97,-207"},"2":{"d":"1022,-1007v0,-121,-175,-195,-322,-195v-114,0,-288,40,-435,93r-77,-206v259,-127,715,-177,946,-7v132,97,188,245,118,405v-61,140,-201,219,-320,307v-142,104,-287,217,-372,378r747,0r0,232r-1071,0r0,-131v97,-289,311,-479,539,-631v78,-53,160,-102,214,-166v22,-26,33,-53,33,-79"},"3":{"d":"934,-1005v61,-134,-118,-197,-263,-197v-117,0,-265,40,-381,97r-86,-210v125,-66,300,-124,492,-123v153,0,277,33,372,100v95,67,142,153,142,258v-1,136,-70,241,-158,299v133,56,220,163,220,331v0,322,-295,495,-646,495v-160,0,-319,-36,-450,-95r73,-211v244,67,461,107,653,3v94,-51,144,-122,103,-219v-63,-148,-284,-168,-513,-166r0,-228v194,1,385,-10,442,-134"},"4":{"d":"755,-1421r341,0r0,886r248,0r0,232r-248,0r0,303r-246,0r0,-303r-730,0r0,-158xm819,-535r0,-574r-382,574r382,0","w":1546},"5":{"d":"243,-1421r1020,0r0,232r-765,0r0,260v218,-20,439,-3,576,71v154,83,274,240,228,474v-58,293,-329,401,-690,404v-153,0,-303,-16,-439,-44r49,-232v264,58,731,89,815,-140v44,-119,-34,-206,-117,-248v-174,-89,-419,-60,-677,-30r0,-747"},"6":{"d":"169,-584v-9,-628,385,-906,1028,-837r-19,230r-42,-4v-325,-27,-601,47,-674,297v89,-50,192,-75,308,-75v298,0,527,186,521,472v-5,252,-141,409,-335,484v-73,28,-153,42,-241,42v-375,0,-541,-227,-546,-609xm1045,-484v0,-162,-157,-267,-320,-267v-161,0,-307,102,-307,256v0,155,153,298,319,298v158,0,308,-132,308,-287"},"7":{"d":"131,-1421r1202,0r0,149r-761,1272r-290,0r724,-1179r-875,0r0,-242"},"8":{"d":"977,-1047v0,-116,-127,-168,-253,-168v-134,0,-290,99,-213,222v51,82,163,106,269,137v72,-41,122,-75,152,-102v30,-27,45,-56,45,-89xm747,-212v204,0,383,-151,281,-332v-60,-106,-193,-143,-330,-180v-90,25,-161,64,-213,116v-52,52,-78,105,-78,162v0,145,167,234,340,234xm230,-1077v0,-233,227,-363,494,-363v301,0,510,103,510,367v0,137,-75,207,-165,279v140,75,245,186,245,369v0,134,-65,233,-144,305v-93,85,-252,140,-432,140v-302,0,-588,-153,-588,-427v0,-174,118,-308,243,-381v-100,-64,-163,-158,-163,-289"},"9":{"d":"694,-483v-289,0,-529,-182,-523,-456v6,-244,150,-387,341,-461v171,-66,423,-45,549,38v151,99,232,278,232,534v0,626,-386,898,-1028,833r19,-230r42,4v233,17,471,-15,578,-141v52,-60,76,-109,96,-195v-91,49,-193,74,-306,74xm1044,-944v0,-138,-167,-275,-319,-275v-146,0,-308,128,-308,264v0,144,167,250,320,250v152,0,307,-100,307,-239"},":":{"d":"139,-251r292,0r0,292r-292,0r0,-292xm139,-1034r292,0r0,292r-292,0r0,-292","w":570},";":{"d":"172,-211r269,0r-191,472r-269,0xm139,-1034r292,0r0,292r-292,0r0,-292","w":570},"<":{"d":"1014,-1194r0,246r-647,326r647,311r0,256r-955,-452r0,-217","w":1073},"=":{"d":"179,-542r1042,0r0,232r-1042,0r0,-232xm179,-995r1042,0r0,232r-1042,0r0,-232","w":1400},">":{"d":"59,-1194r955,470r0,217r-955,452r0,-256r647,-311r-647,-326r0,-246","w":1073},"?":{"d":"270,-241r282,0r0,282r-282,0r0,-282xm423,-1478v283,0,490,114,494,381v4,272,-176,356,-305,492v-52,55,-82,141,-75,254r-252,0v-13,-249,98,-381,233,-487v72,-56,152,-111,152,-231v0,-238,-382,-203,-540,-124r-83,-196v102,-55,229,-89,376,-89","w":1046},"@":{"d":"560,-452v0,-308,194,-555,494,-551v75,0,149,15,222,44r18,-50r183,0r0,757v5,112,-3,183,88,191v72,-9,108,-69,137,-131v35,-74,52,-198,52,-318v0,-449,-203,-690,-654,-687v-433,3,-648,247,-701,623v-57,406,122,694,430,791v172,54,363,23,498,-53r101,190v-194,115,-477,148,-725,70v-349,-109,-563,-370,-563,-828v0,-446,164,-750,456,-914v136,-77,331,-122,546,-122v592,0,866,321,862,910v-3,353,-103,611,-384,678v-157,38,-289,-42,-341,-147v-81,40,-164,60,-250,60v-279,2,-469,-220,-469,-513xm794,-475v0,192,110,324,288,325v53,0,106,-12,158,-36r0,-581v-57,-21,-112,-32,-163,-32v-178,0,-283,133,-283,324","w":2100},"A":{"d":"693,-1421r276,0r562,1421r-259,0r-159,-372r-580,0r-159,372r-244,0xm1025,-603r-202,-527r-203,527r405,0","w":1547},"B":{"d":"1067,-1008v17,-242,-287,-197,-525,-201r0,394v145,-3,246,-10,303,-20v139,-25,216,-83,222,-173xm791,-655v-5,0,-88,4,-249,11r0,412r292,0v177,-10,377,-27,377,-202v0,-69,-37,-123,-113,-162v-76,-39,-178,-59,-307,-59xm1216,-803v171,60,311,287,215,504v-94,212,-327,299,-638,299r-503,0r0,-1421r542,0v270,3,463,83,509,303v29,137,-51,250,-125,315","w":1588},"C":{"d":"743,-1376v248,-89,579,-63,804,39r-79,216v-207,-72,-417,-114,-618,-37v-184,71,-322,213,-322,448v0,242,151,383,345,452v193,69,430,41,612,-31r82,200v-236,114,-572,150,-835,52v-195,-72,-328,-205,-404,-388v-72,-173,-71,-399,2,-570v77,-183,216,-310,413,-381","w":1615},"D":{"d":"1062,-1153v-131,-53,-332,-31,-512,-36r0,957v192,-3,395,10,540,-50v154,-64,269,-221,267,-437v-3,-236,-127,-365,-295,-434xm298,-1421v332,6,708,-30,946,78v221,101,366,278,366,591v0,504,-299,742,-806,751r-506,1r0,-1421","w":1770},"E":{"d":"290,0r0,-1421r997,0r0,232r-744,0r0,341r689,0r0,232r-689,0r0,384r744,0r0,232r-997,0","w":1447},"F":{"d":"543,-1189r0,341r674,0r0,232r-674,0r0,616r-253,0r0,-1421r987,0r0,232r-734,0","w":1412},"G":{"d":"1605,-206v-138,151,-335,226,-592,226v-418,0,-676,-196,-770,-518v-68,-230,-6,-484,99,-626v136,-184,351,-306,668,-308v203,-2,393,54,544,146r-105,198v-148,-85,-423,-153,-634,-79v-190,67,-347,203,-347,448v0,324,255,506,589,506v123,0,223,-28,301,-83r0,-273r-445,0r0,-222r692,0r0,585","w":1755},"H":{"d":"1302,-1421r252,0r0,1421r-252,0r0,-617r-760,0r0,617r-252,0r0,-1421r252,0r0,572r760,0r0,-572","w":1764},"I":{"d":"320,-1421r252,0r0,1421r-252,0r0,-1421","w":812},"J":{"d":"326,-215v211,-2,336,-88,336,-298r0,-908r252,0r0,910v5,365,-194,529,-560,528v-85,1,-171,-14,-244,-35r42,-222v52,13,112,26,174,25","w":1117},"K":{"d":"542,-770r648,-651r323,0r-683,680r719,741r-327,0r-680,-688r0,688r-252,0r0,-1421r252,0r0,651","w":1581},"L":{"d":"290,-1421r252,0r0,1190r720,0r0,231r-972,0r0,-1421","w":1297},"M":{"d":"290,-1421r306,0r472,816r479,-816r291,0r0,1421r-252,0r0,-1063r-404,656r-238,0r-402,-656r0,1063r-252,0r0,-1421","w":2048},"N":{"d":"290,-1421r278,0r793,1092r0,-1092r252,0r0,1421r-281,0r-790,-1094r0,1094r-252,0r0,-1421","w":1823},"O":{"d":"577,-1348v218,-114,555,-115,775,-3v210,106,363,323,363,625v-1,309,-151,534,-362,648v-185,100,-454,124,-674,48v-272,-94,-462,-314,-464,-677v-1,-307,152,-530,362,-641xm1146,-245v184,-61,311,-216,311,-464v0,-270,-146,-428,-359,-479v-288,-69,-525,59,-597,284v-140,437,228,798,645,659","w":1850},"P":{"d":"1396,-1021v3,441,-408,489,-854,469r0,552r-252,0r0,-1421r510,0v335,-4,594,72,596,400xm542,-1189r0,405v200,8,408,11,531,-67v76,-48,86,-216,9,-271v-117,-83,-342,-62,-540,-67","w":1503},"Q":{"d":"966,-1436v444,0,749,287,749,727v0,182,-46,336,-137,461r184,173r-147,148r-200,-182v-194,132,-498,162,-745,75v-271,-96,-452,-312,-455,-671v-2,-309,149,-534,361,-643v114,-58,243,-88,390,-88xm1334,-1048v-105,-118,-303,-196,-518,-140v-204,53,-343,204,-343,465v0,253,131,407,320,474v139,50,310,44,433,-20r-334,-269r177,-155r322,271v73,-115,81,-335,29,-477v-22,-62,-52,-112,-86,-149","w":1870},"R":{"d":"895,-1421v300,-2,496,107,496,407v0,233,-124,363,-311,420r429,594r-328,0r-398,-551r-241,0r0,551r-252,0r0,-1421r605,0xm542,-783v257,-7,586,50,586,-208v0,-133,-102,-199,-307,-199r-279,0r0,407","w":1601},"S":{"d":"456,-1312v211,-153,626,-149,905,-51r-82,232v-204,-62,-437,-92,-619,-13v-107,47,-144,140,-58,209v114,91,312,112,463,171v164,64,331,141,331,355v0,166,-98,263,-210,333v-147,92,-457,121,-676,70v-83,-19,-182,-53,-270,-87r85,-242v249,93,485,153,705,58v93,-40,133,-131,67,-201v-131,-140,-417,-140,-597,-234v-114,-60,-220,-133,-220,-298v0,-120,60,-218,176,-302","w":1525},"T":{"d":"85,-1421r1284,0r0,232r-516,0r0,1189r-252,0r0,-1189r-516,0r0,-232","w":1374},"U":{"d":"1527,-511v7,386,-233,531,-618,531v-377,0,-582,-132,-614,-396v-4,-31,-5,-77,-5,-122r0,-923r252,0r0,901v1,107,16,163,73,218v65,62,163,93,294,93v221,0,366,-78,366,-311r0,-901r250,0","w":1737},"V":{"d":"140,-1421r289,0r418,1150r417,-1150r274,0r-550,1421r-299,0","w":1565},"W":{"d":"140,-1421r266,0r327,1092r411,-1092r232,0r338,1092r400,-1092r266,0r-545,1421r-241,0r-342,-1087r-402,1087r-241,0","w":2411},"X":{"d":"1225,-1421r295,0r-500,677r555,744r-319,0r-418,-566r-418,566r-310,0r563,-741r-501,-680r304,0r381,502","w":1532},"Y":{"d":"100,-1421r298,0r380,551r388,-551r288,0r-545,757r0,664r-283,0r0,-664","w":1427},"Z":{"d":"185,-1421r1250,0r0,153r-918,1036r945,0r0,232r-1307,0r0,-155r897,-1034r-867,0r0,-232","w":1522},"[":{"d":"209,-1552r540,0r0,231r-294,0r0,1541r294,0r0,231r-540,0r0,-2003","w":788},"\\":{"d":"-37,-1462r257,0r523,1593r-257,0","w":726},"]":{"d":"39,-1552r540,0r0,2003r-540,0r0,-231r294,0r0,-1541r-294,0r0,-231","w":778},"^":{"d":"726,-1601r312,348r-152,145r-174,-194r-178,193r-150,-135","w":1479},"_":{"d":"109,-191r942,0r0,232r-942,0r0,-232","w":1160},"`":{"d":"331,-1643r574,353r-104,178r-583,-336","w":1122},"a":{"d":"806,-582v14,-165,-80,-207,-240,-207v-77,0,-226,24,-337,55r-51,-197v126,-47,275,-77,419,-76v275,2,457,89,456,359r0,648r-184,0r-28,-65v-89,57,-190,85,-303,85v-212,0,-415,-112,-415,-293v0,-237,249,-274,473,-300v61,-7,132,-8,210,-9xm383,-291v0,63,119,100,207,100v82,0,154,-21,216,-64r0,-141v-132,-1,-259,7,-324,24v-65,17,-99,43,-99,81","w":1233},"b":{"d":"1218,-505v3,329,-221,525,-553,525v-101,0,-194,-17,-279,-52r-14,32r-182,0r0,-1511r246,0r0,547v177,-62,402,-58,549,22v143,78,231,218,233,437xm976,-479v0,-213,-133,-309,-343,-311v-66,0,-132,11,-197,33r0,537v67,19,134,29,201,29v200,0,339,-86,339,-288","w":1347},"c":{"d":"690,20v-343,-3,-560,-148,-560,-493v0,-365,222,-528,583,-533v126,-1,248,30,347,77r-65,195v-75,-28,-166,-51,-257,-49v-210,2,-367,68,-367,279v0,205,130,307,389,307v79,0,158,-20,223,-44r67,189v-105,44,-231,74,-360,72","w":1165},"d":{"d":"130,-478v-4,-336,220,-532,553,-530v78,0,156,11,233,34r0,-537r246,0r0,1511r-182,0r-20,-46v-178,85,-436,88,-600,-2v-140,-77,-228,-215,-230,-430xm372,-502v0,210,135,305,341,305v69,0,137,-12,203,-35r0,-535v-71,-20,-139,-30,-205,-30v-203,2,-339,89,-339,295","w":1352},"e":{"d":"698,20v-349,-3,-568,-145,-568,-484v0,-298,163,-461,401,-524v147,-38,345,-15,439,46v149,97,176,311,166,566r-743,0v56,178,381,225,607,149r41,-12r49,190v-116,42,-253,70,-392,69xm894,-582v-9,-141,-88,-198,-233,-201v-145,-3,-248,83,-266,201r499,0","w":1266},"f":{"d":"975,-1177v-168,-51,-425,-62,-431,123r0,66r395,0r0,211r-395,0r0,777r-246,0r0,-777r-163,0r0,-211r163,0v-4,-135,8,-261,74,-332v126,-135,440,-131,644,-57","w":984},"g":{"d":"566,322v235,0,355,-110,348,-347v-180,68,-406,56,-551,-27v-142,-81,-235,-219,-235,-439v0,-293,175,-446,410,-501v158,-37,272,-13,422,47r15,-43r185,0r0,1009v-7,353,-208,518,-569,520v-139,1,-284,-30,-399,-83r75,-194v87,35,202,58,299,58xm382,-508v1,188,131,311,332,311v67,0,133,-12,200,-36r0,-522v-87,-25,-161,-38,-223,-38v-180,-3,-310,109,-309,285","w":1340},"h":{"d":"771,-1006v279,0,390,162,390,444r0,562r-244,0r0,-577v0,-134,-74,-201,-221,-201v-77,0,-163,18,-260,55r0,723r-246,0r0,-1511r246,0r0,574v120,-46,232,-69,335,-69","w":1341},"i":{"d":"165,-1421r276,0r0,271r-276,0r0,-271xm180,-988r246,0r0,988r-246,0r0,-988","w":606},"j":{"d":"179,-1421r276,0r0,271r-276,0r0,-271xm194,-988r246,0r-1,1143v-11,222,-143,332,-324,389r-97,-194v102,-39,176,-118,176,-237r0,-1101","w":606},"k":{"d":"426,-591r474,-417r297,0r-510,452r525,556r-302,0r-484,-492r0,492r-246,0r0,-1511r246,0r0,920","w":1237},"l":{"d":"200,-1511r246,0r0,1511r-246,0r0,-1511","w":646},"m":{"d":"1550,-583v-2,-132,-69,-192,-209,-191v-62,0,-142,18,-240,54v20,214,4,488,9,720r-246,0r0,-587v0,-125,-68,-187,-204,-187v-57,0,-135,18,-234,54r0,720r-246,0r0,-988r183,0r28,65v203,-99,469,-131,618,15v124,-65,256,-98,397,-98v274,-2,390,147,390,420r0,586r-246,0r0,-583","w":1980},"n":{"d":"900,-580v4,-139,-75,-198,-214,-198v-78,0,-165,18,-260,55r0,723r-246,0r0,-988r172,0r34,68v192,-79,362,-121,549,-62v158,50,211,193,211,399r0,583r-246,0r0,-580","w":1326},"o":{"d":"130,-484v0,-326,229,-523,564,-523v319,0,551,179,551,495v0,331,-233,532,-570,532v-320,0,-545,-188,-545,-504xm1003,-483v-5,-194,-135,-302,-325,-302v-175,0,-302,102,-306,276v-4,175,142,307,324,307v169,0,312,-112,307,-281","w":1375},"p":{"d":"1212,-504v4,326,-219,527,-547,524v-78,0,-154,-11,-229,-34r0,545r-256,0r0,-1519r182,0r23,47v185,-84,429,-90,597,1v142,77,228,218,230,436xm970,-479v-4,-211,-128,-308,-336,-310v-66,0,-132,12,-198,35r0,533v249,74,539,17,534,-258","w":1341},"q":{"d":"642,20v-326,0,-514,-176,-514,-508v0,-262,137,-423,336,-488v171,-56,319,-38,493,31r18,-43r175,0r0,1519r-246,0r0,-557v-87,31,-175,46,-262,46xm370,-503v3,208,131,302,336,305v66,0,132,-12,198,-35r0,-522v-88,-25,-163,-38,-224,-38v-183,-2,-312,109,-310,290","w":1330},"r":{"d":"373,-935v172,-82,412,-102,574,-13r-78,205v-126,-61,-306,-51,-443,5r0,738r-246,0r0,-988r164,0","w":947},"s":{"d":"747,-216v62,-21,87,-94,21,-123v-182,-80,-461,-85,-568,-243v-60,-88,-28,-209,32,-278v141,-161,557,-182,796,-93r-68,202v-143,-43,-333,-69,-472,-17v-47,18,-96,83,-26,114v186,82,461,93,574,249v61,84,33,211,-26,278v-92,104,-256,145,-460,147v-139,1,-293,-37,-420,-93r74,-200v167,72,379,114,543,57","w":1180},"t":{"d":"469,-334v5,99,75,144,183,144v12,0,128,-16,185,-27r39,189v-225,70,-530,80,-616,-96v-29,-60,-36,-108,-37,-193r0,-460r-153,0r0,-211r153,0r0,-283r246,0r0,283r363,0r0,211r-363,0r0,443","w":939},"u":{"d":"426,-406v-3,139,81,196,221,197v80,0,169,-18,268,-55r0,-724r246,0r0,988r-183,0r-29,-67v-186,78,-367,119,-555,61v-159,-49,-215,-192,-214,-398r0,-584r246,0r0,582","w":1341},"v":{"d":"1126,-988r-389,988r-265,0r-407,-988r284,0r262,728r257,-728r258,0","w":1157},"w":{"d":"60,-988r263,0r237,733r307,-733r221,0r234,735r320,-735r264,0r-473,988r-224,0r-233,-710r-312,710r-224,0","w":1931},"x":{"d":"65,-988r291,0r299,361r288,-361r277,0r-408,503r388,485r-291,0r-285,-340r-271,340r-276,0r392,-486","w":1220},"y":{"d":"50,-988r282,0r325,759r296,-759r259,0r-642,1519r-300,0r244,-523","w":1224},"z":{"d":"150,-988r917,0r0,127r-565,650r590,0r0,211r-942,0r0,-127r557,-650r-557,0r0,-211","w":1242},"{":{"d":"49,-653v180,-18,244,-154,251,-359v10,-282,115,-458,328,-526v38,-12,74,-14,116,-17r48,208v-144,11,-221,90,-246,225v-28,152,-13,321,-77,445v-25,48,-56,92,-98,128v110,88,153,244,159,428v8,200,63,362,262,369r-48,208v-135,-4,-234,-58,-307,-134v-82,-86,-133,-234,-137,-408v-4,-200,-66,-340,-251,-359r0,-208","w":828},"|":{"d":"319,-1642r246,0r0,1991r-246,0r0,-1991","w":884},"}":{"d":"84,-1555v304,24,430,223,444,543v9,207,70,340,251,359r0,208v-183,17,-246,163,-251,359v-8,284,-119,460,-334,526v-38,12,-70,13,-110,16r-48,-208v143,-11,221,-89,245,-224v28,-153,13,-321,77,-444v25,-49,57,-93,99,-129v-110,-88,-150,-243,-157,-427v-8,-200,-64,-364,-264,-371","w":828},"~":{"d":"830,-1428v36,35,61,41,80,-8v13,-34,24,-107,33,-156r190,30v-39,167,-48,364,-251,364v-127,0,-208,-90,-272,-156v-40,-41,-70,-30,-84,18v-13,44,-20,91,-29,141r-190,-26r34,-161v29,-111,80,-202,217,-202v126,0,206,91,272,156","w":1400},"\u1e02":{"d":"1067,-1008v17,-242,-287,-197,-525,-201r0,394v145,-3,246,-10,303,-20v139,-25,216,-83,222,-173xm791,-655v-5,0,-88,4,-249,11r0,412r292,0v177,-10,377,-27,377,-202v0,-69,-37,-123,-113,-162v-76,-39,-178,-59,-307,-59xm1216,-803v171,60,311,287,215,504v-94,212,-327,299,-638,299r-503,0r0,-1421r542,0v270,3,463,83,509,303v29,137,-51,250,-125,315xm680,-1898r330,0r0,292r-330,0r0,-292","w":1588},"\u1e03":{"d":"1218,-505v3,329,-221,525,-553,525v-101,0,-194,-17,-279,-52r-14,32r-182,0r0,-1511r246,0r0,547v177,-63,402,-57,549,22v143,77,231,218,233,437xm976,-479v0,-213,-133,-309,-343,-311v-67,0,-133,11,-197,33r0,537v67,19,134,29,201,29v200,0,339,-86,339,-288xm543,-1898r345,0r0,292r-345,0r0,-292","w":1347},"\u1e0a":{"d":"742,-1898r334,0r0,292r-334,0r0,-292xm708,-232v383,14,648,-129,648,-487v0,-239,-137,-366,-310,-434v-127,-50,-325,-32,-504,-36r0,957r166,0xm290,-1421v331,5,703,-23,943,77v261,109,422,362,366,740v-47,317,-239,505,-545,573v-171,38,-522,30,-764,31r0,-1421","w":1770},"\u1e0b":{"d":"711,-797v-203,2,-339,89,-339,295v0,210,135,305,341,305v69,0,137,-12,203,-35r0,-535v-71,-20,-139,-30,-205,-30xm486,-1606r0,-292r344,0r0,292r-344,0xm130,-478v-4,-336,220,-532,553,-530v77,0,154,11,233,34r0,-537r246,0r0,1511r-182,0r-20,-46v-178,85,-436,88,-600,-2v-140,-77,-228,-215,-230,-430","w":1352},"\u1e1e":{"d":"543,-1189r0,341r674,0r0,232r-674,0r0,616r-253,0r0,-1421r987,0r0,232r-734,0xm596,-1898r350,0r0,292r-350,0r0,-292","w":1412},"\u1e1f":{"d":"975,-1177v-168,-51,-425,-62,-431,123r0,66r395,0r0,211r-395,0r0,777r-246,0r0,-777r-163,0r0,-211r163,0v-4,-135,8,-261,74,-332v126,-135,440,-131,644,-57xm433,-1829r363,0r0,292r-363,0r0,-292","w":984},"\u1e40":{"d":"290,-1421r306,0r472,816r479,-816r291,0r0,1421r-252,0r0,-1063r-404,656r-238,0r-402,-656r0,1063r-252,0r0,-1421xm893,-1898r319,0r0,292r-319,0r0,-292","w":2048},"\u1e41":{"d":"1549,-584v-2,-132,-68,-191,-208,-190v-62,0,-142,18,-240,54v7,37,10,88,10,153r0,567r-247,0r0,-587v0,-125,-68,-187,-204,-187v-57,0,-135,18,-234,54r0,720r-246,0r0,-988r183,0r28,65v203,-99,469,-131,618,15v124,-65,256,-98,397,-98v274,-2,390,147,390,420r0,586r-247,0r0,-584xm850,-1421r303,0r0,291r-303,0r0,-291","w":1976},"\u1e56":{"d":"1396,-1021v3,441,-408,489,-854,469r0,552r-252,0r0,-1421r510,0v335,-4,594,72,596,400xm542,-1189r0,405v200,8,408,11,531,-67v76,-48,86,-216,9,-271v-117,-83,-342,-62,-540,-67xm607,-1898r322,0r0,292r-322,0r0,-292","w":1503},"\u1e57":{"d":"564,-1130r0,-291r338,0r0,291r-338,0xm436,-221v249,74,539,17,534,-258v-4,-211,-128,-308,-336,-310v-66,0,-132,12,-198,35r0,533xm1212,-504v4,326,-219,527,-547,524v-76,0,-152,-11,-229,-34r0,545r-256,0r0,-1519r182,0r23,47v185,-84,429,-90,597,1v142,77,228,218,230,436","w":1341},"\u1e60":{"d":"682,-1898r333,0r0,292r-333,0r0,-292xm456,-1312v211,-153,626,-149,905,-51r-82,232v-204,-62,-437,-92,-619,-13v-107,47,-144,140,-58,209v114,91,312,112,463,171v164,64,331,141,331,355v0,166,-98,263,-210,333v-147,92,-457,121,-676,70v-83,-19,-182,-53,-270,-87r85,-242v249,93,485,153,705,58v93,-40,133,-131,67,-201v-131,-140,-417,-140,-597,-234v-114,-60,-220,-133,-220,-298v0,-120,60,-218,176,-302","w":1525},"\u1e61":{"d":"453,-1130r0,-291r357,0r0,291r-357,0xm747,-216v62,-21,87,-94,21,-123v-182,-80,-461,-85,-568,-243v-60,-88,-28,-209,32,-278v141,-161,557,-182,796,-93r-68,202v-143,-43,-333,-69,-472,-17v-47,18,-96,83,-26,114v186,82,461,93,574,249v61,84,33,211,-26,278v-92,104,-256,145,-460,147v-139,1,-293,-37,-420,-93r74,-200v167,72,379,114,543,57","w":1180},"\u1e6a":{"d":"85,-1421r1284,0r0,232r-516,0r0,1189r-252,0r0,-1189r-516,0r0,-232xm563,-1898r326,0r0,292r-326,0r0,-292","w":1374},"\u1e6b":{"d":"469,-334v5,99,75,144,183,144v12,0,128,-16,185,-27r39,189v-225,70,-530,80,-616,-96v-29,-60,-36,-108,-37,-193r0,-460r-153,0r0,-211r153,0r0,-283r246,0r0,283r363,0r0,211r-363,0r0,443xm176,-1621r353,0r0,292r-353,0r0,-292","w":919},"\u1e80":{"d":"140,-1421r268,0r327,1092r411,-1092r232,0r339,1092r399,-1092r254,0r-533,1421r-241,0r-342,-1087r-402,1087r-241,0xm1082,-1944r617,353r-115,177r-627,-335","w":2401},"\u1e81":{"d":"60,-988r263,0r237,733r307,-733r221,0r234,735r320,-735r264,0r-473,988r-224,0r-233,-710r-312,710r-224,0xm836,-1567r460,378r-153,163r-478,-368","w":1931},"\u1e82":{"d":"140,-1421r268,0r327,1092r411,-1092r232,0r339,1092r399,-1092r254,0r-533,1421r-241,0r-342,-1087r-402,1087r-241,0xm1484,-1944r125,195r-626,335r-116,-177","w":2401},"\u1e83":{"d":"60,-988r263,0r237,733r307,-733r221,0r234,735r320,-735r264,0r-473,988r-224,0r-233,-710r-312,710r-224,0xm1161,-1567r171,173r-478,368r-153,-163","w":1931},"\u1e84":{"d":"140,-1421r268,0r327,1092r411,-1092r232,0r339,1092r399,-1092r254,0r-533,1421r-241,0r-342,-1087r-402,1087r-241,0xm866,-1898r298,0r0,267r-298,0r0,-267xm1347,-1898r296,0r0,267r-296,0r0,-267","w":2401},"\u1e85":{"d":"60,-988r263,0r237,733r307,-733r221,0r234,735r320,-735r264,0r-473,988r-224,0r-233,-710r-312,710r-224,0xm575,-1421r311,0r0,266r-311,0r0,-266xm1069,-1421r310,0r0,266r-310,0r0,-266","w":1931},"\u1ef2":{"d":"100,-1421r298,0r380,551r388,-551r288,0r-545,757r0,664r-283,0r0,-664xm534,-1944r642,353r-114,177r-653,-335","w":1427},"\u1ef3":{"d":"50,-988r259,0r329,759r305,-759r259,0r-652,1519r-296,0r245,-534xm449,-1567r488,378r-150,163r-501,-368","w":1214},"\u20ac":{"d":"880,61v-340,-3,-570,-235,-640,-524r-231,0r0,-212r202,0v-2,-41,0,-85,4,-132r-142,0r0,-212r187,0v87,-256,307,-450,630,-453v132,-1,278,38,399,94r-73,218v-184,-75,-376,-125,-540,-21v-63,39,-114,93,-153,162r426,0r0,212r-497,0v-6,37,-9,90,-6,132r439,0r0,212r-390,0v68,157,209,284,423,286v95,1,219,-32,314,-72r74,200v-127,66,-286,111,-426,110","w":1335},"\u00a0":{"w":560}}});
/*!
 * The following copyright notice may not be removed under any circumstances.
 * 
 * Copyright:
 * Copyright (c) 2009 Dave Crossland <dave@lab6.com>
 * 
 * Designer:
 * Dave Crossland
 * 
 * Vendor URL:
 * http://abattis.org
 */
Cufon.registerFont({"w":1300,"face":{"font-family":"Cantarell Oblique","font-weight":500,"font-style":"oblique","font-stretch":"normal","units-per-em":"2048","panose-1":"2 0 6 3 0 0 0 0 0 0","ascent":"1514","descent":"-534","x-height":"20","bbox":"-261 -1928 2512 541","underline-thickness":"116","underline-position":"-233","slope":"-16","unicode-range":"U+0020-U+20AC"},"glyphs":{" ":{"w":560},"!":{"d":"282,-200r200,0r-57,200r-200,0xm647,-1421r170,0r-276,963r-170,0","w":650},"\"":{"d":"933,-1511r185,0r-122,428r-185,0xm543,-1511r185,0r-122,428r-185,0","w":795},"#":{"d":"770,-1421r160,0r-112,391r358,0r112,-391r160,0r-112,391r316,0r-43,150r-316,0r-101,352r316,0r-43,150r-316,0r-117,408r-160,0r117,-408r-358,0r-117,408r-160,0r117,-408r-316,0r43,-150r316,0r101,-352r-318,0r43,-150r318,0xm775,-880r-101,352r358,0r101,-352r-358,0","w":1402},"$":{"d":"654,-354v164,0,290,-42,312,-185v-11,-82,-104,-99,-177,-125v-135,-47,-321,-103,-263,-296v47,-158,196,-249,382,-280r77,-271r121,0r-74,260v111,1,168,11,253,40r-78,125v-196,-65,-459,-54,-506,109v-24,86,87,116,158,144v134,53,341,103,287,299v-48,174,-199,275,-406,302r-86,297r-121,0r84,-290v-95,0,-196,-25,-304,-75r82,-124v96,44,144,70,259,70","w":1200},"%":{"d":"494,-1000v-11,113,121,119,186,64v53,-45,103,-142,103,-237v0,-63,-31,-95,-93,-95v-136,0,-184,138,-196,268xm557,-806v-102,-1,-168,-53,-166,-162v4,-166,94,-311,209,-367v121,-59,293,-26,285,129v-7,136,-66,257,-143,324v-58,51,-119,76,-185,76xm1229,-431v3,-65,-37,-96,-94,-96v-135,0,-183,135,-195,268v-10,113,121,120,186,65v53,-45,99,-143,103,-237xm838,-227v6,-209,133,-396,326,-396v103,0,171,50,168,159v-4,136,-66,256,-143,322v-58,51,-120,76,-186,76v-102,-1,-168,-52,-165,-161xm1461,-1421r170,0r-1376,1421r-170,0","w":1329},"&":{"d":"523,47v-202,6,-322,-134,-262,-329v74,-241,269,-364,464,-488r-63,-96v-40,-63,-65,-161,-38,-257v50,-179,270,-317,496,-317v174,0,310,97,257,265v-64,204,-266,291,-428,403r242,371r424,-353r66,94r-425,359r197,301r-203,0r-136,-201v-154,116,-323,240,-591,248xm1186,-1106v55,-93,-12,-198,-124,-191v-145,9,-321,114,-270,277v18,58,67,105,93,149r171,-109v58,-40,95,-68,130,-126xm441,-327v-50,168,109,265,280,212v130,-40,231,-114,325,-184r-253,-372v-99,64,-165,109,-198,136v-82,67,-133,136,-154,208","w":1589},"'":{"d":"543,-1511r185,0r-122,428r-185,0","w":405},"(":{"d":"1086,-1479v-192,217,-338,440,-438,668v-162,371,-202,738,-79,1135r-153,84v-102,-314,-125,-663,-31,-984v114,-389,352,-704,589,-972","w":742},")":{"d":"-13,324v237,-272,452,-577,547,-997v63,-277,50,-544,-30,-806r152,-69v102,312,124,655,31,972v-115,391,-358,714,-595,984","w":742},"*":{"d":"920,-1421r170,0r-109,319r316,-175r43,148r-325,141r243,145r-128,148r-216,-175r-73,318r-170,0r109,-318r-316,175r-42,-148r326,-145r-244,-141r127,-148r216,175","w":1196},"+":{"d":"980,-1233r148,0r-146,506r501,0r-39,138r-501,0r-145,506r-148,0r145,-506r-501,0r39,-138r501,0","w":1400},",":{"d":"249,-170r180,0r-270,390r-180,0","w":570},"-":{"d":"384,-728r860,0r-40,139r-860,0","w":1210},".":{"d":"240,-210r210,0r-60,210r-210,0","w":570},"\/":{"d":"943,-1421r170,0r-929,1511r-170,0","w":726},"0":{"d":"1269,-977v0,-219,-138,-363,-351,-294v-229,74,-358,291,-430,541v-31,107,-46,201,-46,282v0,221,134,375,348,301v236,-81,361,-313,438,-575v27,-95,41,-180,41,-255xm588,-1219v138,-134,325,-265,580,-209v175,38,280,183,276,406v-6,321,-157,642,-322,812v-134,138,-322,276,-581,218v-175,-39,-275,-191,-272,-416v5,-318,150,-646,319,-811"},"1":{"d":"1001,-1421r196,0r-364,1272r330,0r-43,149r-828,0r43,-149r334,0r317,-1108r-347,123r-22,-147"},"2":{"d":"1226,-1035v48,-153,-97,-249,-248,-249v-95,0,-227,27,-396,82r-11,-132v171,-65,332,-97,481,-97v238,0,426,133,359,366v-68,235,-292,338,-474,466v-176,123,-346,263,-462,449r700,0r-43,150r-907,0r27,-93v166,-281,415,-485,677,-660v118,-79,253,-144,297,-282"},"3":{"d":"1172,-1074v42,-135,-76,-210,-218,-210v-98,0,-215,28,-350,83r-16,-135v157,-68,301,-102,431,-102v214,0,392,121,333,337v-41,148,-169,275,-311,323v170,47,228,168,182,342v-71,269,-360,483,-689,481v-123,0,-240,-26,-349,-77r88,-138v248,75,406,90,597,-23v110,-65,179,-136,179,-274v0,-184,-184,-211,-381,-217r42,-146v232,-3,409,-72,462,-244"},"4":{"d":"1101,-1421r238,0r-265,927r248,0r-43,150r-248,0r-99,344r-164,0r99,-344r-648,0r32,-112xm1129,-1259r-671,765r452,0"},"5":{"d":"1085,-437v53,-214,-112,-307,-327,-307v-70,0,-176,8,-317,24r201,-701r856,0r-43,150r-693,0r-111,388v308,-38,647,-6,636,301v-10,280,-181,440,-390,536v-183,84,-490,81,-720,31r76,-151v195,46,492,47,637,-40v90,-54,169,-125,195,-231"},"6":{"d":"628,25v-217,0,-337,-113,-337,-336v0,-347,182,-676,363,-859v176,-178,431,-291,785,-255r-55,148v-342,-34,-582,93,-711,305v-41,67,-61,107,-90,178v88,-75,216,-136,367,-138v201,-2,343,115,336,309v-8,231,-112,372,-262,500v-118,101,-252,148,-396,148xm1096,-464v52,-182,-51,-331,-225,-328v-188,3,-355,155,-399,316v-50,181,38,363,215,361v186,-2,363,-188,409,-349"},"7":{"d":"538,-1421r1038,0r-30,107r-1040,1314r-198,0r1014,-1261r-829,0"},"8":{"d":"1218,-1088v63,-215,-246,-263,-394,-149v-71,54,-119,95,-119,188v0,129,136,159,237,197v85,-45,149,-84,192,-118v43,-34,71,-73,84,-118xm440,-405v-48,170,87,275,260,275v185,0,350,-123,389,-267v54,-202,-104,-284,-261,-329v-174,44,-345,168,-388,321xm850,-11v-297,99,-686,-39,-588,-379v51,-176,226,-332,399,-401v-109,-64,-152,-171,-116,-307v49,-189,266,-342,511,-342v200,0,344,62,344,237v0,225,-140,309,-304,411v171,86,234,246,156,432v-70,168,-218,288,-402,349"},"9":{"d":"767,-524v-243,8,-395,-191,-321,-435v55,-182,197,-336,361,-416v89,-43,179,-66,272,-66v216,2,333,114,333,335v0,348,-180,676,-362,859v-177,178,-430,290,-785,256r55,-148v224,20,431,-31,555,-133v120,-99,190,-232,251,-383v-89,76,-215,127,-359,131xm1238,-963v46,-173,-56,-338,-221,-338v-171,0,-363,181,-402,326v-47,173,65,311,229,311v176,0,355,-152,394,-299"},":":{"d":"240,-210r210,0r-60,210r-210,0xm465,-993r210,0r-60,210r-210,0","w":570},";":{"d":"249,-170r180,0r-270,390r-180,0xm465,-993r210,0r-60,210r-210,0","w":570},"<":{"d":"1296,-1128r-44,155r-800,352r603,336r-48,165r-754,-413r47,-165","w":1073},"=":{"d":"364,-501r960,0r-43,150r-960,0xm494,-954r960,0r-43,150r-960,0","w":1400},">":{"d":"423,-1128r750,430r-47,165r-992,413r48,-165r795,-336r-598,-352","w":1073},"?":{"d":"368,-200r200,0r-57,200r-200,0xm1027,-1128v0,-220,-357,-177,-517,-119r-17,-122v105,-45,219,-68,342,-68v206,0,372,57,372,238v0,267,-191,392,-363,505v-107,71,-197,161,-236,302r-170,0v56,-207,198,-326,356,-428v109,-71,233,-143,233,-308","w":1046},"@":{"d":"1023,20v-193,2,-325,-114,-318,-306v8,-234,117,-412,257,-534v164,-144,396,-191,597,-83r42,-65r113,0r-206,716v-18,65,-27,111,-27,139v0,100,101,112,173,67v143,-89,231,-269,287,-464v33,-115,49,-216,49,-301v0,-285,-178,-427,-535,-427v-509,0,-766,299,-929,656v-75,164,-129,411,-50,596v73,170,227,271,459,271v103,0,206,-22,311,-67r29,119v-267,134,-657,111,-849,-45v-106,-86,-176,-211,-176,-400v0,-355,170,-667,350,-878v204,-240,499,-413,943,-413v422,0,633,168,633,503v0,439,-198,886,-563,998v-147,45,-294,-18,-298,-158v-101,51,-199,76,-292,76xm868,-343v-5,149,98,235,245,234v69,0,140,-17,214,-52r182,-633v-154,-77,-326,-55,-452,50v-102,84,-183,226,-189,401","w":2100},"A":{"d":"1042,-1421r193,0r98,1421r-172,0r-26,-413r-586,0r-262,413r-157,0xm1084,-1255r-441,693r483,0","w":1383},"B":{"d":"1325,-1071v41,-147,-54,-220,-221,-220r-274,0r-137,477r214,-6v210,-14,369,-77,418,-251xm1260,-491v0,-149,-141,-206,-310,-205v-13,0,-111,5,-294,14r-153,532r265,0v276,4,492,-87,492,-341xm1226,-794v155,23,255,186,197,363v-89,268,-314,431,-671,431r-462,0r407,-1421r501,0v184,1,307,67,307,244v0,127,-45,187,-123,271v-55,59,-107,95,-156,112","w":1424},"C":{"d":"649,-710v-98,318,82,574,408,574v103,0,215,-20,338,-60r16,126v-233,87,-457,130,-679,50v-184,-66,-290,-221,-290,-461v0,-380,214,-625,449,-797v204,-150,596,-211,870,-77r-93,141v-202,-75,-365,-97,-556,-20v-227,92,-388,283,-463,524","w":1451},"D":{"d":"824,-1271r-321,1121r282,-1v401,-15,594,-250,696,-569v52,-162,34,-354,-57,-442v-80,-77,-159,-109,-324,-109r-276,0xm1137,-1421v332,3,561,114,561,437v0,320,-159,571,-334,744v-168,165,-418,255,-766,240r-308,0r407,-1421r440,0","w":1606},"E":{"d":"290,0r407,-1421r833,0r-43,150r-663,0r-133,464r608,0r-43,150r-608,0r-145,507r663,0r-43,150r-833,0","w":1283},"F":{"d":"824,-1271r-133,464r593,0r-43,150r-593,0r-188,657r-170,0r407,-1421r823,0r-43,150r-653,0","w":1248},"G":{"d":"564,-540v-2,251,178,409,436,409v129,0,244,-39,347,-116r104,-363r-404,0r40,-140r569,0r-160,558v-136,113,-325,212,-580,212v-336,0,-533,-172,-533,-499v0,-380,211,-630,449,-799v124,-88,298,-153,498,-154v159,0,300,40,422,121r-103,127v-133,-85,-377,-133,-567,-59v-235,91,-417,272,-491,523v-19,64,-27,124,-27,180","w":1591},"H":{"d":"1627,-1421r170,0r-407,1421r-170,0r189,-658r-760,0r-189,658r-170,0r407,-1421r170,0r-175,613r760,0","w":1600},"I":{"d":"727,-1421r170,0r-407,1421r-170,0","w":730},"J":{"d":"980,-1421r170,0r-285,995v-43,148,-86,234,-190,320v-140,115,-355,152,-563,99r68,-142v146,37,323,4,401,-72v55,-54,88,-115,112,-196","w":953},"K":{"d":"697,-1421r170,0r-407,1421r-170,0xm1493,-1421r213,0r-795,678r426,743r-219,0r-425,-729","w":1417},"L":{"d":"697,-1421r170,0r-364,1272r638,0r-43,149r-808,0","w":1133},"M":{"d":"697,-1421r240,0r209,862r710,-862r225,0r-407,1421r-170,0r337,-1177r-657,770r-170,0r-217,-770r-337,1177r-170,0","w":1884},"N":{"d":"697,-1421r215,0r434,1189r340,-1189r170,0r-407,1421r-215,0r-432,-1191r-342,1191r-170,0","w":1659},"O":{"d":"873,15v-305,0,-493,-165,-493,-473v0,-77,13,-160,38,-249v63,-220,176,-396,340,-529v164,-133,343,-200,538,-200v299,0,503,175,500,470v0,75,-12,154,-37,239v-63,220,-178,399,-343,536v-165,137,-346,206,-543,206xm566,-514v-6,229,138,383,362,380v195,-3,330,-94,438,-199v128,-126,246,-346,246,-585v0,-236,-136,-369,-368,-369v-149,0,-269,59,-368,133v-167,125,-303,360,-310,640","w":1686},"P":{"d":"1166,-1421v211,-3,386,40,386,244v0,409,-300,588,-759,588v-45,0,-99,-2,-162,-7r-171,596r-170,0r407,-1421r469,0xm1365,-1104v0,-226,-317,-154,-541,-167r-150,525v63,5,123,8,180,8v302,0,511,-96,511,-366","w":1339},"Q":{"d":"884,15v-300,0,-515,-174,-505,-474v14,-425,253,-738,549,-889v118,-60,242,-88,370,-88v318,2,495,167,495,478v0,290,-160,587,-329,738r130,179r-120,97r-136,-177v-141,91,-292,136,-454,136xm1609,-920v0,-238,-136,-367,-368,-367v-147,0,-264,58,-363,131v-168,125,-305,363,-313,644v-7,235,153,379,381,378v109,0,212,-31,310,-93r-229,-298r136,-108r219,301v123,-127,227,-353,227,-588","w":1706},"R":{"d":"1219,-1421v188,-2,329,55,329,241v0,306,-191,505,-463,569r226,611r-190,0r-215,-592r-275,0r-170,592r-171,0r407,-1421r522,0xm919,-742v267,5,443,-114,443,-358v0,-115,-83,-172,-250,-172r-286,0r-152,530r245,0","w":1438},"S":{"d":"735,-148v207,0,416,-84,416,-277v0,-128,-133,-160,-237,-202v-124,-50,-264,-83,-332,-187v-39,-57,-41,-132,-20,-208v64,-230,361,-412,670,-412v109,0,222,19,337,57r-100,155v-109,-35,-208,-52,-297,-52v-197,0,-424,87,-424,270v0,124,136,153,237,194v124,51,264,92,332,198v65,101,20,246,-33,328v-117,180,-320,304,-618,304v-177,0,-269,-39,-404,-96r105,-165v149,62,272,93,368,93","w":1361},"T":{"d":"492,-1421r1120,0r-43,150r-475,0r-364,1271r-170,0r364,-1271r-475,0","w":1210},"U":{"d":"825,20v-248,-3,-435,-69,-432,-320v1,-45,14,-108,37,-187r267,-934r170,0r-264,921v-18,63,-27,113,-27,150v0,159,118,223,291,223v263,0,414,-149,478,-373r264,-921r168,0r-291,1017v-93,260,-300,428,-661,424","w":1582},"V":{"d":"547,-1421r202,0r51,1241r761,-1241r187,0r-902,1421r-211,0","w":1401},"W":{"d":"547,-1421r180,0r15,1194r702,-1194r171,0r28,1194r689,-1194r180,0r-845,1421r-181,0r-33,-1187r-689,1187r-181,0","w":2165},"X":{"d":"1494,-1421r196,0r-643,675r291,746r-220,0r-227,-599r-571,599r-210,0r726,-742r-259,-679r206,0r209,535","w":1368},"Y":{"d":"507,-1421r201,0r194,587r538,-587r190,0r-698,748r-193,673r-170,0r193,-673","w":1263},"Z":{"d":"592,-1421r1086,0r-31,109r-1223,1162r917,0r-43,150r-1143,0r32,-111r1205,-1160r-843,0","w":1358},"[":{"d":"683,-1511r458,0r-42,149r-294,0r-466,1623r294,0r-43,149r-458,0","w":758},"\\":{"d":"427,-1421r170,0r63,1511r-170,0","w":726},"]":{"d":"483,-1511r458,0r-551,1921r-458,0r43,-149r294,0r466,-1623r-294,0","w":758},"^":{"d":"1167,-1541r174,286r-118,88r-120,-196r-237,196r-66,-79","w":1479},"_":{"d":"193,-150r860,0r-43,150r-860,0","w":1160},"`":{"d":"800,-1586r415,310r-94,108r-427,-295","w":1122},"a":{"d":"442,20v-162,0,-297,-112,-249,-276v72,-246,353,-291,674,-292v13,-48,39,-117,38,-168v0,-87,-63,-130,-190,-130v-64,0,-154,14,-271,43r3,-118v119,-41,231,-61,334,-61v185,-1,300,50,300,207v0,37,-7,80,-21,131r-185,644r-116,0r-12,-90v-100,73,-202,110,-305,110xm359,-264v-28,96,70,155,165,155v84,0,166,-32,245,-97r63,-218v-205,0,-427,0,-473,160","w":1058},"b":{"d":"890,-983v194,0,317,101,317,302v0,244,-121,443,-265,563v-170,142,-411,188,-610,72r-33,46r-114,0r434,-1511r164,0r-171,595v97,-45,189,-67,278,-67xm1034,-622v0,-152,-92,-225,-239,-225v-71,0,-143,17,-217,51r-185,642v119,59,266,57,378,0v154,-78,263,-250,263,-468","w":1169},"c":{"d":"867,-35v-268,102,-654,83,-638,-241v18,-355,205,-613,509,-689v140,-35,281,-15,394,43r-73,118v-147,-57,-332,-41,-445,32v-118,76,-205,248,-212,431v-9,236,257,260,458,194","w":986},"d":{"d":"550,20v-195,0,-319,-102,-319,-303v0,-300,177,-539,386,-643v145,-72,324,-80,467,-4r166,-581r164,0r-433,1511r-114,0r-9,-62v-107,55,-209,82,-308,82xm403,-342v-12,247,276,270,463,173r183,-639v-114,-60,-271,-59,-382,-2v-152,78,-254,255,-264,468","w":1174},"e":{"d":"585,20v-217,-1,-356,-83,-356,-295v0,-342,204,-579,468,-675v60,-22,120,-32,179,-32v178,0,267,79,267,236v0,68,-40,242,-71,341r-666,0v-46,182,91,294,278,294v66,0,143,-12,230,-35r-2,111v-116,37,-225,55,-327,55xm801,-840v-180,-1,-316,163,-356,311r503,0v17,-58,25,-107,25,-148v0,-109,-57,-163,-172,-163","w":1088},"f":{"d":"1167,-1266v-153,-56,-314,-12,-376,90v-40,67,-52,134,-78,213r323,0r-37,129r-323,0r-295,1030v-45,159,-108,241,-237,298v-125,56,-268,44,-405,-1r59,-120v149,48,313,17,373,-81v22,-36,31,-51,42,-89r297,-1037r-139,0r37,-129r139,0v31,-111,76,-248,129,-315v108,-137,340,-193,551,-112","w":799},"g":{"d":"554,20v-198,0,-322,-106,-322,-311v0,-352,213,-602,511,-677v145,-37,234,-9,360,64r37,-59r115,0r-296,1033v-83,270,-262,471,-613,471v-99,0,-193,-21,-282,-64r80,-119v71,31,145,46,220,46v225,0,373,-126,444,-379r21,-73v-97,45,-188,68,-275,68xm405,-352v0,146,82,237,234,237v71,0,146,-18,225,-55r179,-626v-175,-82,-324,-74,-459,43v-101,88,-179,225,-179,401","w":1162},"h":{"d":"846,-835v-77,0,-170,25,-279,74r-218,761r-164,0r434,-1511r164,0r-179,623v133,-62,249,-93,349,-93v159,0,239,72,239,215v0,52,-13,123,-39,213r-159,553r-168,0r166,-580v44,-138,12,-255,-146,-255","w":1178},"i":{"d":"572,-1421r194,0r-54,189r-194,0xm463,-988r164,0r-283,988r-164,0","w":524},"j":{"d":"568,-1421r194,0r-54,189r-194,0xm459,-988r164,0r-322,1125v-51,204,-179,332,-376,397r-25,-124v121,-52,199,-137,232,-256","w":520},"k":{"d":"609,-1511r164,0r-433,1511r-164,0xm1069,-1008r181,0r-551,445r288,563r-197,0r-278,-546","w":1061},"l":{"d":"633,-1511r164,0r-433,1511r-164,0","w":564},"m":{"d":"803,-831v-55,0,-137,25,-246,74r-217,757r-164,0r276,-963r115,0r11,82v137,-67,248,-101,333,-101v99,0,166,37,201,110v149,-73,274,-109,376,-109v157,0,235,69,235,206v0,53,-11,118,-34,197r-165,578r-164,0r168,-587v41,-130,12,-244,-136,-244v-61,0,-148,25,-259,75v-1,37,-14,100,-39,187r-163,569r-164,0r169,-590v40,-124,10,-241,-133,-241","w":1712},"n":{"d":"452,-963r115,0r12,84v145,-69,268,-104,371,-104v153,0,230,68,230,203v0,54,-12,122,-36,205r-165,575r-164,0r167,-583v46,-139,14,-252,-146,-252v-76,0,-169,25,-278,74r-218,761r-164,0","w":1163},"o":{"d":"578,20v-206,0,-348,-117,-342,-320v8,-243,118,-425,263,-544v113,-93,241,-138,382,-138v207,0,357,112,350,317v-8,243,-122,424,-268,544v-116,95,-244,141,-385,141xm1056,-600v4,-144,-94,-242,-228,-242v-212,0,-342,165,-398,344v-59,187,14,387,206,378v238,-11,411,-222,420,-480","w":1195},"p":{"d":"884,-982v197,0,317,102,317,303v0,295,-173,535,-381,639v-146,74,-326,83,-471,7r-162,564r-164,0r429,-1494r114,0r9,63v107,-55,210,-82,309,-82xm1028,-621v0,-152,-92,-225,-239,-225v-72,0,-146,18,-222,53r-183,638v114,60,269,58,381,1v153,-78,263,-250,263,-467","w":1163},"q":{"d":"547,20v-195,0,-316,-102,-316,-304v0,-334,196,-576,454,-668v158,-57,277,-38,418,48r37,-59r115,0r-428,1494r-164,0r166,-580v-99,46,-193,69,-282,69xm403,-343v0,152,92,227,239,227v72,0,146,-18,222,-53r179,-627v-175,-82,-325,-73,-459,43v-100,85,-181,236,-181,410","w":1162},"r":{"d":"577,-889v146,-93,314,-127,469,-54r-86,130v-136,-53,-269,-30,-398,38r-222,775r-164,0r276,-963r115,0","w":789},"s":{"d":"495,-109v168,0,268,-49,286,-174v-7,-68,-91,-94,-156,-115v-137,-44,-328,-99,-276,-294v67,-249,452,-353,749,-250r-78,124v-200,-65,-447,-50,-498,112v-21,69,59,100,114,122v104,42,232,76,300,156v55,65,27,166,-8,230v-119,215,-515,286,-785,143r80,-122v102,40,158,68,272,68","w":1005},"t":{"d":"696,-17v-103,25,-180,37,-232,37v-137,0,-205,-59,-205,-176v0,-39,8,-88,25,-146r153,-532r-130,0r37,-129r130,0r88,-308r164,0r-88,308r294,0r-37,129r-294,0r-151,528v-34,107,-19,199,101,198v19,0,70,-7,155,-20","w":763},"u":{"d":"1092,-963r164,0r-276,963r-115,0r-11,-83v-143,69,-267,103,-372,103v-154,0,-231,-68,-231,-204v0,-53,12,-121,36,-204r165,-575r164,0r-168,584v-44,132,-11,252,147,252v75,0,168,-25,279,-75","w":1164},"v":{"d":"1190,-963r-619,963r-166,0r-65,-963r180,0r19,804r481,-804r170,0","w":980},"w":{"d":"335,-963r175,0r29,808r480,-808r157,0r26,807r492,-807r175,0r-632,963r-161,0r-33,-781r-477,781r-161,0","w":1654},"x":{"d":"340,-963r189,0r163,382r372,-382r175,0r-501,491r206,472r-190,0r-155,-362r-349,362r-175,0r477,-473","w":1034},"y":{"d":"325,-963r180,0r76,824r523,-824r170,0r-988,1494r-175,0r333,-474","w":1049},"z":{"d":"422,-963r735,0r-25,87r-741,747r551,0r-37,129r-759,0r25,-87r739,-747r-525,0","w":1058},"{":{"d":"392,-265v1,-117,-62,-197,-164,-215r39,-138v237,-45,314,-254,390,-462v75,-205,204,-362,415,-420v25,-7,50,-9,73,-11r-7,129v-173,21,-299,191,-351,354v-64,198,-149,389,-328,479v63,50,95,122,95,216v0,74,-59,338,-59,408v0,120,64,191,166,208r-67,129v-161,-17,-255,-119,-257,-300v-1,-124,54,-248,55,-377","w":798},"|":{"d":"819,-1601r164,0r-547,1909r-164,0","w":884},"}":{"d":"618,-1172v0,-121,-63,-193,-166,-210r67,-129v162,16,254,118,256,299v1,131,-52,242,-53,374v-2,127,61,201,163,220r-39,138v-243,44,-316,262,-393,474v-73,201,-209,350,-417,408v-24,6,-47,9,-68,10r7,-129v134,-17,249,-127,306,-251v74,-161,107,-333,221,-460v42,-47,92,-88,151,-121v-63,-49,-94,-121,-94,-214v0,-74,59,-337,59,-409","w":798},"~":{"d":"1139,-1479v45,50,88,155,173,103v56,-34,75,-108,107,-169r103,17r-56,115v-51,89,-99,174,-229,174v-123,0,-159,-103,-222,-163v-108,-64,-157,79,-195,161r-104,-15r56,-114v51,-88,99,-168,228,-173v61,-2,109,31,139,64","w":1400},"\u1e02":{"d":"1325,-1071v41,-147,-54,-220,-221,-220r-274,0r-137,477r214,-6v210,-14,369,-77,418,-251xm1260,-491v0,-149,-141,-206,-310,-205v-13,0,-111,5,-294,14r-153,532r265,0v276,4,492,-87,492,-341xm1226,-794v155,23,255,186,197,363v-89,268,-314,431,-671,431r-462,0r407,-1421r501,0v184,1,307,67,307,244v0,127,-45,187,-123,271v-55,59,-107,95,-156,112xm1224,-1898r210,0r-60,210r-210,0","w":1424},"\u1e03":{"d":"892,-983v196,0,320,99,320,302v0,245,-121,443,-266,563v-172,142,-412,188,-614,72r-33,46r-114,0r432,-1505r164,0r-169,589v98,-45,191,-67,280,-67xm1039,-620v11,-246,-274,-269,-461,-176r-185,642v119,59,269,56,382,0v154,-76,254,-253,264,-466xm1062,-1898r210,0r-60,210r-210,0","w":1174},"\u1e0a":{"d":"1286,-1898r210,0r-60,210r-210,0xm824,-1271r-321,1121r282,-1v401,-15,594,-250,696,-569v52,-162,34,-354,-57,-442v-80,-77,-159,-109,-324,-109r-276,0xm1137,-1421v332,3,561,114,561,437v0,320,-159,571,-334,744v-168,165,-418,255,-766,240r-308,0r407,-1421r440,0","w":1606},"\u1e0b":{"d":"1006,-1898r210,0r-61,210r-210,0xm404,-343v0,153,92,228,242,228v71,0,146,-18,225,-54r183,-639v-115,-60,-274,-59,-386,-2v-153,78,-264,251,-264,467xm553,20v-199,0,-322,-102,-322,-304v0,-244,125,-449,268,-564v168,-135,385,-181,590,-82r165,-575r164,0r-432,1505r-114,0r-9,-62v-107,55,-211,82,-310,82","w":1179},"\u1e1e":{"d":"824,-1271r-133,464r593,0r-43,150r-593,0r-188,657r-170,0r407,-1421r823,0r-43,150r-653,0xm1130,-1898r210,0r-60,210r-210,0","w":1248},"\u1e1f":{"d":"1169,-1257v-158,-54,-314,-13,-379,87v-41,63,-52,130,-77,207r328,0r-37,129r-328,0r-239,834r-166,0r239,-834r-139,0r37,-129r139,0v34,-112,61,-227,127,-309v109,-137,343,-190,555,-108xm940,-1829r210,0r-61,210r-210,0","w":811},"\u1e40":{"d":"697,-1421r240,0r209,862r710,-862r225,0r-407,1421r-170,0r337,-1177r-657,770r-170,0r-217,-770r-337,1177r-170,0xm1411,-1898r210,0r-60,210r-210,0","w":1884},"\u1e41":{"d":"1489,-981v156,-1,233,63,236,207v0,52,-11,117,-34,196r-166,578r-165,0r168,-588v43,-126,14,-243,-135,-243v-61,0,-147,25,-260,75v-1,40,-14,102,-38,187r-163,569r-165,0r169,-590v40,-124,10,-241,-133,-241v-55,0,-137,25,-246,74r-217,757r-164,0r276,-963r115,0r11,82v137,-67,248,-101,333,-101v99,0,166,37,201,110v149,-73,274,-109,377,-109xm1163,-1421r210,0r-60,209r-210,0","w":1709},"\u1e56":{"d":"1166,-1421v211,-3,386,40,386,244v0,409,-300,588,-759,588v-45,0,-99,-2,-162,-7r-171,596r-170,0r407,-1421r469,0xm1365,-1104v0,-226,-317,-154,-541,-167r-150,525v63,5,123,8,180,8v302,0,511,-96,511,-366xm1151,-1898r210,0r-60,210r-210,0","w":1339},"\u1e57":{"d":"886,-982v196,0,319,101,319,303v0,300,-172,533,-381,639v-147,75,-328,83,-475,7r-162,564r-164,0r429,-1494r114,0r9,63v109,-55,212,-82,311,-82xm1034,-620v11,-248,-279,-268,-467,-173r-183,638v115,60,273,58,386,1v154,-77,254,-251,264,-466xm935,-1421r210,0r-60,209r-210,0","w":1168},"\u1e60":{"d":"1191,-1898r210,0r-60,210r-210,0xm735,-148v207,0,416,-84,416,-277v0,-128,-133,-160,-237,-202v-124,-50,-264,-83,-332,-187v-39,-57,-41,-132,-20,-208v64,-230,361,-412,670,-412v109,0,222,19,337,57r-100,155v-109,-35,-208,-52,-297,-52v-197,0,-424,87,-424,270v0,124,136,153,237,194v124,51,264,92,332,198v65,101,20,246,-33,328v-117,180,-320,304,-618,304v-177,0,-269,-39,-404,-96r105,-165v149,62,272,93,368,93","w":1361},"\u1e61":{"d":"498,-109v170,0,270,-49,288,-174v-11,-80,-104,-96,-176,-121v-133,-46,-311,-97,-261,-288v66,-251,455,-352,754,-250r-78,124v-201,-65,-459,-52,-503,112v-25,94,100,113,176,145v116,49,277,77,277,228v0,143,-97,225,-199,284v-75,44,-197,70,-321,69v-101,0,-205,-25,-312,-75r80,-122v103,39,160,68,275,68xm829,-1421r210,0r-60,209r-210,0","w":1010},"\u1e6a":{"d":"492,-1421r1120,0r-43,150r-475,0r-364,1271r-170,0r364,-1271r-475,0xm1100,-1898r210,0r-60,210r-210,0","w":1210},"\u1e6b":{"d":"698,-17v-103,25,-181,37,-234,37v-136,0,-204,-58,-204,-174v0,-40,8,-89,25,-148r152,-532r-130,0r37,-129r130,0r86,-300r164,0r-86,300r295,0r-37,129r-295,0r-151,528v-35,107,-18,200,102,198v18,0,70,-7,155,-20xm656,-1621r210,0r-60,210r-210,0","w":744},"\u1e80":{"d":"547,-1421r182,0r15,1194r702,-1194r171,0r28,1194r689,-1194r168,0r-833,1421r-181,0r-33,-1187r-689,1187r-181,0xm1519,-1928r415,310r-93,107r-427,-294","w":2155},"\u1e81":{"d":"342,-988r175,0r23,829r486,-829r157,0r20,828r498,-828r175,0r-639,988r-161,0r-27,-801r-483,801r-161,0xm1136,-1549r262,324r-107,100r-276,-315","w":1654},"\u1e82":{"d":"547,-1421r182,0r15,1194r702,-1194r171,0r28,1194r689,-1194r168,0r-833,1421r-181,0r-33,-1187r-689,1187r-181,0xm1873,-1928r35,123r-597,294r-31,-107","w":2155},"\u1e83":{"d":"342,-988r175,0r23,829r486,-829r157,0r20,828r498,-828r175,0r-639,988r-161,0r-27,-801r-483,801r-161,0xm1429,-1549r59,109r-457,315r-49,-100","w":1654},"\u1e84":{"d":"547,-1421r182,0r15,1194r702,-1194r171,0r28,1194r689,-1194r168,0r-833,1421r-181,0r-33,-1187r-689,1187r-181,0xm1344,-1898r185,0r-53,185r-185,0xm1794,-1898r185,0r-53,185r-185,0","w":2155},"\u1e85":{"d":"342,-988r175,0r23,829r490,-829r157,0r25,828r499,-828r175,0r-640,988r-162,0r-30,-801r-487,801r-162,0xm919,-1421r185,0r-53,184r-185,0xm1362,-1421r185,0r-53,184r-185,0","w":1663},"\u1ef2":{"d":"507,-1421r201,0r194,587r538,-587r190,0r-698,748r-193,673r-170,0r193,-673xm1013,-1928r415,310r-93,107r-427,-294","w":1263},"\u1ef3":{"d":"332,-988r170,0r72,838r527,-838r170,0r-995,1519r-175,0r343,-493xm817,-1549r263,324r-106,100r-280,-315","w":1039},"\u20ac":{"d":"874,20v-304,0,-480,-207,-457,-524r-222,0r37,-130r204,0v16,-75,37,-149,68,-214r-147,0r37,-130r176,0v141,-240,391,-453,730,-453v115,0,224,25,327,76r-88,141v-209,-90,-383,-94,-567,16v-91,54,-170,128,-235,220r451,0r-37,130r-491,0v-34,68,-57,139,-70,214r436,0r-37,130r-408,0v8,218,143,368,376,368v92,0,194,-20,307,-60r11,126v-141,60,-275,90,-401,90","w":1335},"\u00a0":{"w":560}}});
/*!
 * The following copyright notice may not be removed under any circumstances.
 * 
 * Copyright:
 * Copyright (c) 2009 Dave Crossland <dave@lab6.com>
 * 
 * Designer:
 * Dave Crossland
 * 
 * Vendor URL:
 * http://abattis.org
 */
Cufon.registerFont({"w":1300,"face":{"font-family":"Cantarell Regular","font-weight":500,"font-stretch":"normal","units-per-em":"2048","panose-1":"2 0 6 3 0 0 0 0 0 0","ascent":"1514","descent":"-534","x-height":"20","bbox":"18 -1928 2105 541","underline-thickness":"116","underline-position":"-233","unicode-range":"U+0020-U+20AC"},"glyphs":{" ":{"w":560},"!":{"d":"225,-200r200,0r0,200r-200,0r0,-200xm240,-1421r170,0r0,963r-170,0r0,-963","w":650},"\"":{"d":"500,-1511r185,0r0,428r-185,0r0,-428xm110,-1511r185,0r0,428r-185,0r0,-428","w":795},"#":{"d":"363,-1421r160,0r0,391r358,0r0,-391r160,0r0,391r316,0r0,150r-316,0r0,352r316,0r0,150r-316,0r0,408r-160,0r0,-408r-358,0r0,408r-160,0r0,-408r-316,0r0,-150r316,0r0,-352r-318,0r0,-150r318,0r0,-391xm523,-880r0,352r358,0r0,-352r-358,0","w":1402},"$":{"d":"251,-960v0,-173,137,-250,301,-280r0,-271r121,0r0,260v128,1,160,11,265,40r-42,125v-89,-25,-168,-37,-236,-37v-127,0,-239,32,-239,146v0,70,84,102,149,125v135,48,299,86,380,191v28,37,43,79,43,127v0,190,-137,277,-320,302r0,297r-121,0r0,-290v-95,0,-203,-25,-325,-75r46,-124v107,43,159,68,279,70v144,2,262,-28,262,-161v0,-92,-101,-109,-178,-137v-169,-61,-385,-89,-385,-308","w":1200},"%":{"d":"457,-1089v-2,-104,-35,-179,-131,-179v-88,0,-132,66,-130,174v2,109,31,194,131,194v91,0,132,-73,130,-189xm98,-1093v0,-156,92,-270,229,-270v158,0,224,106,227,271v3,160,-84,286,-228,286v-151,0,-228,-109,-228,-287xm1115,-348v-2,-104,-35,-179,-131,-179v-88,0,-132,66,-130,174v2,109,31,194,131,194v91,0,132,-73,130,-189xm757,-352v0,-156,91,-271,228,-271v155,0,228,104,228,272v0,159,-85,285,-229,285v-151,0,-227,-108,-227,-286xm1054,-1421r170,0r-969,1421r-170,0","w":1329},"&":{"d":"302,-1123v-2,-196,198,-317,405,-317v202,0,377,127,324,329v-44,167,-184,238,-303,339r348,371r323,-353r93,94r-322,359r283,301r-203,0r-194,-201v-128,128,-270,240,-520,248v-261,8,-421,-216,-332,-471v55,-156,178,-254,300,-346v-62,-64,-103,-110,-124,-138v-52,-71,-78,-142,-78,-215xm836,-1042v94,-108,-6,-255,-146,-255v-125,0,-260,101,-214,234v28,82,102,129,159,192r139,-109v31,-25,40,-37,62,-62xm365,-424v-81,198,107,378,323,309v118,-38,194,-109,272,-184r-359,-372v-85,71,-191,137,-236,247","w":1589},"'":{"d":"110,-1511r185,0r0,428r-185,0r0,-428","w":405},"(":{"d":"533,408v-188,-315,-387,-758,-284,-1266v55,-269,163,-490,281,-690r132,69v-139,236,-267,548,-267,905v0,353,128,667,267,898","w":742},")":{"d":"347,-574v0,-355,-130,-670,-267,-905r132,-69v187,313,383,754,280,1258v-56,271,-163,497,-283,698r-129,-84v139,-232,267,-544,267,-898","w":742},"*":{"d":"513,-1421r170,0r-18,319r266,-175r85,148r-284,141r284,145r-85,148r-266,-175r18,318r-170,0r18,-318r-266,175r-85,-148r285,-145r-285,-141r85,-148r266,175","w":1196},"+":{"d":"626,-1233r148,0r0,506r501,0r0,138r-501,0r0,506r-148,0r0,-506r-501,0r0,-138r501,0r0,-506","w":1400},",":{"d":"200,-170r180,0r-158,390r-180,0","w":570},"-":{"d":"175,-728r860,0r0,139r-860,0r0,-139","w":1210},".":{"d":"180,-210r210,0r0,210r-210,0r0,-210","w":570},"\/":{"d":"536,-1421r170,0r-496,1511r-170,0","w":726},"0":{"d":"934,-1110v-74,-114,-203,-222,-381,-161v-190,65,-274,272,-274,541v1,285,77,510,275,582v198,72,338,-69,404,-216v86,-192,82,-583,-24,-746xm180,-1112v98,-217,309,-392,608,-308v267,75,401,334,401,694v-1,372,-125,645,-398,726v-302,90,-517,-100,-611,-324v-85,-201,-91,-587,0,-788"},"1":{"d":"594,-1421r196,0r0,1272r330,0r0,149r-828,0r0,-149r334,0r0,-1108r-312,123r-64,-147"},"2":{"d":"900,-939v107,-182,-102,-345,-290,-345v-95,0,-220,27,-373,82r-49,-132v153,-65,304,-97,454,-97v297,0,554,215,436,503v-60,146,-199,231,-313,329v-138,119,-268,256,-333,449r700,0r0,150r-907,0r0,-93v90,-291,281,-493,488,-660v71,-58,144,-112,187,-186"},"3":{"d":"854,-1011v57,-165,-101,-273,-268,-273v-97,0,-206,28,-326,83r-55,-135v137,-68,271,-102,402,-102v224,0,429,130,429,337v0,157,-97,279,-218,323v172,44,280,151,280,342v0,310,-234,481,-551,481v-124,0,-248,-26,-371,-77r48,-138v139,38,247,57,325,57v210,2,429,-133,367,-355v-45,-161,-224,-216,-444,-216r0,-146v187,-1,336,-49,382,-181"},"4":{"d":"694,-1421r238,0r0,927r248,0r0,150r-248,0r0,344r-164,0r0,-344r-648,0r0,-112xm768,-1259r-452,765r452,0r0,-765"},"5":{"d":"235,-1421r856,0r0,150r-693,0r0,388v236,-32,479,0,604,111v110,97,174,299,107,480v-78,211,-277,311,-570,312v-123,0,-245,-12,-366,-35r32,-151v180,38,445,52,591,-20v109,-54,198,-172,152,-329v-45,-153,-194,-230,-403,-229v-70,0,-173,8,-310,24r0,-701"},"6":{"d":"169,-577v-3,-573,269,-905,861,-848r-12,148v-214,-22,-406,23,-513,129v-88,88,-131,203,-150,354v69,-79,185,-138,328,-138v256,0,450,193,444,450v-8,321,-228,549,-573,501v-275,-38,-383,-270,-385,-596xm963,-464v0,-185,-144,-328,-319,-328v-172,0,-308,140,-308,316v0,178,142,361,318,361v171,0,309,-172,309,-349"},"7":{"d":"131,-1421r1038,0r0,107r-663,1314r-198,0r652,-1261r-829,0r0,-160"},"8":{"d":"892,-1020v70,-159,-88,-277,-249,-277v-142,0,-290,113,-235,259v42,113,173,147,290,186v82,-53,157,-84,194,-168xm663,-130v208,0,374,-170,291,-372v-54,-131,-190,-181,-334,-224v-153,41,-296,158,-296,321v0,161,159,275,339,275xm230,-1098v0,-206,186,-342,413,-342v257,0,427,110,427,347v0,154,-92,217,-201,301v203,78,349,292,248,540v-67,164,-229,272,-462,272v-193,0,-354,-80,-437,-198v-45,-63,-68,-134,-68,-212v0,-187,139,-335,284,-401v-114,-58,-204,-150,-204,-307"},"9":{"d":"171,-959v0,-317,329,-578,667,-451v206,77,290,285,291,575v2,571,-270,898,-861,844r12,-148v173,16,356,-10,458,-82v128,-90,182,-238,200,-434v-71,79,-185,129,-321,131v-247,5,-446,-189,-446,-435xm654,-664v163,0,314,-138,308,-299v-7,-182,-136,-329,-318,-338v-157,-7,-309,167,-309,326v0,167,153,311,319,311"},":":{"d":"180,-210r210,0r0,210r-210,0r0,-210xm180,-993r210,0r0,210r-210,0r0,-210","w":570},";":{"d":"200,-170r180,0r-158,390r-180,0xm180,-993r210,0r0,210r-210,0r0,-210","w":570},"<":{"d":"973,-1128r0,155r-699,352r699,336r0,165r-873,-413r0,-165","w":1073},"=":{"d":"220,-501r960,0r0,150r-960,0r0,-150xm220,-954r960,0r0,150r-960,0r0,-150","w":1400},">":{"d":"100,-1128r873,430r0,165r-873,413r0,-165r699,-336r-699,-352r0,-155","w":1073},"?":{"d":"311,-200r200,0r0,200r-200,0r0,-200xm396,-1294v-77,0,-190,22,-244,47r-52,-122v93,-45,200,-68,323,-68v262,-1,449,96,453,340v4,265,-182,338,-304,477v-45,51,-77,131,-76,228r-170,0v-5,-272,171,-366,309,-494v43,-40,79,-103,76,-183v-5,-167,-137,-222,-315,-225","w":1046},"@":{"d":"601,-452v0,-286,176,-513,453,-510v84,0,166,20,246,59r23,-65r113,0r0,716v0,121,10,232,129,232v70,0,112,-50,149,-106v55,-84,81,-232,81,-384v0,-475,-219,-731,-695,-728v-456,3,-685,260,-741,656v-61,430,131,737,458,838v168,52,345,35,492,-38r63,119v-233,133,-593,105,-807,-11v-234,-127,-389,-363,-384,-730v8,-633,319,-990,961,-995v566,-4,826,304,821,869v-2,318,-90,557,-321,632v-158,52,-306,-35,-343,-158v-87,51,-177,76,-270,76v-258,1,-428,-201,-428,-472xm753,-475v0,215,130,365,329,366v69,0,135,-17,199,-52r0,-633v-69,-31,-137,-46,-204,-46v-200,0,-324,151,-324,365","w":2100},"A":{"d":"635,-1421r193,0r505,1421r-172,0r-144,-413r-586,0r-144,413r-157,0xm724,-1255r-242,693r483,0","w":1383},"B":{"d":"1018,-1071v0,-160,-117,-220,-284,-220r-274,0r0,477r212,-6v185,-16,346,-57,346,-251xm1130,-413v0,-193,-171,-286,-380,-283v-13,0,-109,5,-290,14r0,532v308,-2,670,45,670,-263xm998,-794v205,29,366,268,274,505v-74,191,-253,289,-520,289r-462,0r0,-1421r501,0v239,5,379,113,391,342v6,112,-102,258,-184,285","w":1424},"C":{"d":"609,-1336v215,-127,514,-120,763,-19r-52,141v-214,-71,-377,-103,-562,-20v-188,84,-313,266,-313,524v0,267,137,445,335,528v176,74,371,53,559,-14r52,126v-212,90,-433,124,-656,53v-221,-71,-365,-235,-429,-461v-58,-203,-34,-434,54,-599v58,-108,140,-195,249,-259","w":1451},"D":{"d":"667,-150v402,15,608,-188,608,-570v0,-306,-154,-494,-406,-543v-105,-20,-283,-5,-409,-8r0,1121r207,0xm290,-1421v320,5,679,-29,880,105v170,114,276,290,276,562v0,476,-240,746,-721,753r-435,1r0,-1421","w":1606},"E":{"d":"290,0r0,-1421r833,0r0,150r-663,0r0,464r608,0r0,150r-608,0r0,507r663,0r0,150r-833,0","w":1283},"F":{"d":"460,-1271r0,464r593,0r0,150r-593,0r0,657r-170,0r0,-1421r823,0r0,150r-653,0","w":1248},"G":{"d":"1441,-192v-109,121,-281,214,-519,212v-384,-4,-599,-215,-681,-519v-62,-228,-7,-479,90,-625v118,-177,300,-308,588,-308v160,0,312,40,457,121r-67,127v-144,-77,-394,-139,-583,-59v-196,82,-341,252,-341,523v0,240,121,422,282,514v184,105,469,104,609,-41r0,-363r-404,0r0,-140r569,0r0,558","w":1591},"H":{"d":"1220,-1421r170,0r0,1421r-170,0r0,-658r-760,0r0,658r-170,0r0,-1421r170,0r0,613r760,0r0,-613","w":1600},"I":{"d":"320,-1421r170,0r0,1421r-170,0r0,-1421","w":730},"J":{"d":"278,-133v193,-1,295,-88,295,-284r0,-1004r170,0r0,995v11,302,-157,443,-437,443v-67,0,-132,-8,-196,-24r27,-142v45,11,92,16,141,16","w":953},"K":{"d":"290,-1421r170,0r0,1421r-170,0r0,-1421xm1086,-1421r213,0r-601,678r639,743r-219,0r-634,-729","w":1417},"L":{"d":"290,-1421r170,0r0,1272r638,0r0,149r-808,0r0,-1421","w":1133},"M":{"d":"290,-1421r240,0r456,862r463,-862r225,0r0,1421r-170,0r0,-1177r-437,770r-170,0r-437,-770r0,1177r-170,0r0,-1421","w":1884},"N":{"d":"290,-1421r215,0r774,1189r0,-1189r170,0r0,1421r-215,0r-774,-1191r0,1191r-170,0r0,-1421","w":1659},"O":{"d":"618,-1384v159,-68,369,-68,530,-2v245,100,400,321,403,659v2,301,-134,533,-327,649v-165,99,-396,124,-592,48v-251,-98,-417,-327,-417,-677v0,-343,157,-573,403,-677xm1152,-1200v-108,-78,-297,-116,-452,-53v-188,77,-312,256,-310,525v2,271,117,463,304,552v152,72,356,38,467,-46v130,-99,215,-258,215,-487v0,-232,-88,-393,-224,-491","w":1686},"P":{"d":"759,-1421v287,-6,468,95,473,378v7,417,-350,483,-772,447r0,596r-170,0r0,-1421r469,0xm1060,-1015v0,-205,-146,-256,-352,-256r-248,0r0,525v290,21,600,30,600,-269","w":1339},"Q":{"d":"886,-1436v406,-4,665,306,665,725v0,199,-50,363,-150,491r181,179r-92,97r-187,-177v-169,141,-448,178,-678,87v-250,-99,-410,-325,-410,-671v0,-345,156,-575,403,-679v82,-34,172,-52,268,-52xm1258,-1101v-107,-136,-334,-240,-557,-153v-191,75,-312,258,-311,530v2,279,123,470,321,552v162,67,357,45,480,-55r-315,-298r105,-108r306,301v135,-188,99,-607,-29,-769","w":1706},"R":{"d":"812,-1421v269,-4,418,121,416,390v-2,235,-120,373,-318,420r401,611r-190,0r-385,-592r-275,0r0,592r-171,0r0,-1421r522,0xm1058,-1012v0,-188,-125,-260,-311,-260r-286,0r0,530r245,0v208,4,352,-64,352,-270","w":1438},"S":{"d":"693,-148v175,0,343,-70,343,-224v0,-167,-167,-205,-302,-254v-208,-75,-465,-123,-465,-396v0,-209,148,-323,324,-378v191,-60,379,-37,581,23r-55,155v-120,-35,-224,-52,-312,-52v-169,0,-353,75,-353,224v0,140,131,178,243,222v227,90,524,128,524,431v0,155,-84,253,-182,323v-124,89,-388,120,-581,70v-65,-16,-137,-40,-218,-72r58,-165v167,62,298,93,395,93","w":1361},"T":{"d":"85,-1421r1120,0r0,150r-475,0r0,1271r-170,0r0,-1271r-475,0r0,-150","w":1210},"U":{"d":"1372,-485v9,354,-189,509,-541,505v-349,-4,-541,-140,-541,-507r0,-934r170,0r0,921v-10,252,136,373,371,373v237,0,371,-118,371,-373r0,-921r168,0","w":1582},"V":{"d":"140,-1421r202,0r406,1241r406,-1241r187,0r-495,1421r-211,0","w":1401},"W":{"d":"140,-1421r180,0r357,1194r360,-1194r171,0r370,1194r347,-1194r180,0r-438,1421r-181,0r-373,-1187r-349,1187r-181,0","w":2165},"X":{"d":"1087,-1421r196,0r-450,675r505,746r-220,0r-399,-599r-399,599r-210,0r513,-742r-453,-679r206,0r362,535","w":1368},"Y":{"d":"100,-1421r201,0r362,587r370,-587r190,0r-484,748r0,673r-170,0r0,-673","w":1263},"Z":{"d":"185,-1421r1086,0r0,109r-890,1162r917,0r0,150r-1143,0r0,-111r873,-1160r-843,0r0,-150","w":1358},"[":{"d":"250,-1511r458,0r0,149r-294,0r0,1623r294,0r0,149r-458,0r0,-1921","w":758},"\\":{"d":"20,-1421r170,0r496,1511r-170,0","w":726},"]":{"d":"50,-1511r458,0r0,1921r-458,0r0,-149r294,0r0,-1623r-294,0r0,-149","w":758},"^":{"d":"725,-1541r256,286r-93,88r-176,-196r-181,196r-88,-79","w":1479},"_":{"d":"150,-150r860,0r0,150r-860,0r0,-150","w":1160},"`":{"d":"345,-1586r504,310r-63,108r-512,-295","w":1122},"a":{"d":"724,-639v6,-162,-83,-232,-243,-232v-68,0,-156,15,-264,45r-31,-120v109,-41,216,-61,321,-61v250,0,383,104,382,347r0,660r-116,0r-38,-90v-81,73,-173,110,-278,110v-206,0,-409,-183,-312,-390v80,-172,325,-188,579,-191r0,-78xm312,-348v-86,118,58,239,189,239v86,0,160,-34,223,-101r0,-227v-161,2,-341,-8,-412,89","w":1069},"b":{"d":"1054,-506v4,305,-178,526,-465,526v-90,0,-178,-22,-265,-66r-20,46r-114,0r0,-1511r164,0r0,570v154,-85,358,-89,498,-1v128,81,199,226,202,436xm894,-477v0,-240,-102,-395,-332,-395v-71,0,-141,18,-208,53r0,664v71,31,142,46,211,46v219,0,329,-141,329,-368","w":1183},"c":{"d":"590,20v-303,0,-460,-178,-460,-491v0,-283,121,-462,341,-519v146,-38,285,-13,415,43r-40,120v-74,-25,-146,-38,-217,-38v-227,2,-340,128,-340,359v0,249,115,389,358,391v63,0,125,-11,188,-33r40,113v-95,37,-190,55,-285,55","w":1001},"d":{"d":"228,-140v-95,-111,-128,-388,-62,-567v66,-180,200,-301,429,-301v79,0,158,18,239,53r0,-556r164,0r0,1511r-114,0r-27,-62v-157,98,-378,113,-528,15v-39,-25,-70,-57,-101,-93xm290,-503v0,235,106,388,331,388v73,0,144,-19,213,-56r0,-660v-71,-32,-143,-48,-215,-48v-223,0,-329,144,-329,376","w":1188},"e":{"d":"602,20v-314,-3,-472,-174,-472,-482v0,-281,123,-462,336,-526v171,-52,360,1,430,114v69,112,77,274,76,457r-679,0v14,273,321,363,596,270r29,112v-107,37,-213,55,-316,55xm570,-865v-178,0,-270,143,-273,324r516,0v0,-216,-81,-324,-243,-324","w":1102},"f":{"d":"278,-1088v-5,-237,115,-341,330,-341v71,0,150,13,237,39r-25,122v-182,-55,-381,-21,-376,173r0,107r331,0r0,129r-331,0r0,859r-166,0r0,-859r-143,0r0,-129r143,0r0,-100","w":820},"g":{"d":"996,62v-4,310,-168,477,-486,479v-102,0,-204,-21,-306,-64r46,-119v82,31,162,46,239,46v254,0,360,-164,343,-452v-158,89,-367,89,-506,-4v-125,-84,-198,-230,-198,-439v0,-276,134,-447,347,-503v150,-40,236,-5,385,65r21,-59r115,0r0,1050xm288,-510v3,227,107,395,329,395v73,0,144,-19,215,-57r0,-647v-91,-37,-170,-56,-235,-56v-194,-1,-312,161,-309,365","w":1176},"h":{"d":"682,-1006v255,1,329,181,329,439r0,567r-168,0r0,-597v0,-175,-75,-263,-225,-263v-78,0,-166,26,-264,77r0,783r-164,0r0,-1511r164,0r0,598v117,-62,226,-93,328,-93","w":1191},"i":{"d":"165,-1421r194,0r0,189r-194,0r0,-189xm180,-988r164,0r0,988r-164,0r0,-988","w":524},"j":{"d":"165,-1421r194,0r0,189r-194,0r0,-189xm180,-988r164,0r-1,1178v-8,191,-114,290,-263,344r-62,-124v108,-51,162,-137,162,-256r0,-1142","w":524},"k":{"d":"180,-1511r164,0r0,1511r-164,0r0,-1511xm796,-1008r181,0r-430,445r456,563r-197,0r-446,-546","w":1073},"l":{"d":"200,-1511r164,0r0,1511r-164,0r0,-1511","w":564},"m":{"d":"782,-608v0,-146,-60,-246,-207,-248v-57,0,-134,25,-231,76r0,780r-164,0r0,-988r115,0r35,82v119,-67,223,-101,310,-101v101,0,180,37,237,110v131,-73,248,-109,351,-109v246,0,322,165,322,413r0,593r-164,0r0,-604v0,-151,-59,-251,-211,-252v-61,0,-142,26,-243,78v9,39,14,103,14,192r0,586r-164,0r0,-608","w":1734},"n":{"d":"180,-988r115,0r36,84v127,-69,243,-104,348,-104v245,0,317,170,317,419r0,589r-164,0r0,-600v0,-173,-75,-260,-224,-260v-77,0,-165,26,-264,77r0,783r-164,0r0,-988","w":1176},"o":{"d":"130,-483v0,-304,187,-524,481,-524v279,0,470,200,470,493v0,309,-191,534,-486,534v-280,0,-465,-210,-465,-503xm613,-120v184,0,312,-164,308,-361v-3,-181,-81,-308,-207,-361v-227,-95,-424,92,-424,331v0,205,126,391,323,391","w":1211},"p":{"d":"1048,-505v5,304,-179,525,-465,525v-79,0,-158,-18,-239,-53r0,564r-164,0r0,-1519r114,0r27,63v157,-97,375,-112,527,-17v127,80,197,228,200,437xm888,-477v0,-239,-103,-394,-332,-394v-73,0,-143,18,-212,55r0,659v71,32,143,48,215,48v219,0,329,-141,329,-368","w":1177},"q":{"d":"421,-976v160,-62,276,-33,439,47r21,-59r115,0r0,1519r-164,0r0,-580v-156,87,-365,93,-506,1v-127,-82,-198,-230,-198,-440v0,-250,115,-419,293,-488xm288,-504v4,236,106,388,332,388v73,0,143,-18,212,-55r0,-648v-91,-37,-170,-56,-235,-56v-197,0,-312,161,-309,371","w":1176},"r":{"d":"326,-914v128,-100,308,-122,465,-54r-50,131v-138,-52,-281,-35,-397,39r0,798r-164,0r0,-988r115,0","w":801},"s":{"d":"176,-179v114,40,175,70,297,70v163,0,244,-52,244,-155v0,-92,-102,-108,-179,-136v-169,-61,-384,-90,-384,-309v0,-108,63,-176,133,-225v117,-84,399,-94,554,-33r-42,125v-89,-25,-168,-37,-236,-37v-129,0,-239,37,-239,153v0,70,83,102,148,125v135,48,301,86,382,191v28,37,42,79,42,127v0,227,-189,303,-430,303v-102,0,-214,-25,-336,-75","w":1016},"t":{"d":"479,20v-204,1,-276,-130,-276,-331r0,-548r-133,0r0,-129r133,0r0,-283r164,0r0,283r301,0r0,129r-301,0r0,546v0,137,54,205,162,205v19,0,70,-7,153,-21r23,112v-97,25,-172,37,-226,37","w":775},"u":{"d":"833,-988r164,0r0,988r-115,0r-35,-83v-126,69,-242,103,-349,103v-244,0,-318,-169,-318,-418r0,-590r164,0r0,602v0,173,75,259,225,259v77,0,165,-26,264,-77r0,-784","w":1177},"v":{"d":"928,-988r-347,988r-170,0r-346,-988r180,0r256,825r257,-825r170,0","w":993},"w":{"d":"60,-988r175,0r268,829r254,-829r161,0r264,828r268,-828r175,0r-361,988r-165,0r-263,-801r-260,801r-165,0","w":1685},"x":{"d":"65,-988r190,0r279,392r269,-392r175,0r-364,504r345,484r-190,0r-265,-371r-252,371r-175,0r346,-485","w":1048},"y":{"d":"50,-988r180,0r316,838r294,-838r170,0r-570,1519r-175,0r198,-482","w":1060},"z":{"d":"150,-988r753,0r0,87r-540,772r565,0r0,129r-778,0r0,-87r538,-772r-538,0r0,-129","w":1078},"{":{"d":"90,-618v168,-32,245,-181,252,-390v10,-279,114,-473,370,-503r30,129v-165,27,-240,169,-250,354v-8,144,-19,286,-86,380v-27,38,-61,72,-104,99v130,79,177,232,186,425v5,102,23,222,68,287v39,58,105,110,186,120r-30,129v-246,-29,-361,-216,-370,-488v-7,-212,-71,-369,-252,-404r0,-138","w":798},"|":{"d":"360,-1601r164,0r0,1909r-164,0r0,-1909","w":884},"}":{"d":"86,-1511v253,28,361,225,370,503v7,213,83,355,252,390r0,138v-180,35,-246,192,-252,404v-7,255,-108,420,-305,478v-22,7,-44,9,-65,10r-30,-129v132,-24,209,-115,234,-251v30,-162,13,-337,90,-460v29,-47,66,-88,116,-121v-145,-83,-182,-265,-190,-479v-8,-185,-84,-328,-250,-354","w":798},"~":{"d":"876,-1361v85,0,83,-108,100,-184r108,17v-30,135,-40,289,-202,289v-133,0,-186,-109,-268,-163v-101,-66,-141,61,-150,161r-108,-15v30,-134,40,-287,202,-287v133,0,188,106,268,163v18,12,35,19,50,19","w":1400},"\u1e02":{"d":"1018,-1071v0,-160,-117,-220,-284,-220r-274,0r0,477r212,-6v185,-16,346,-57,346,-251xm1130,-413v0,-193,-171,-286,-380,-283v-13,0,-109,5,-290,14r0,532v308,-2,670,45,670,-263xm998,-794v205,29,366,268,274,505v-74,191,-253,289,-520,289r-462,0r0,-1421r501,0v239,5,379,113,391,342v6,112,-102,258,-184,285xm680,-1898r210,0r0,210r-210,0r0,-210","w":1424},"\u1e03":{"d":"1054,-506v4,305,-178,526,-465,526v-90,0,-178,-22,-265,-66r-20,46r-114,0r0,-1511r164,0r0,570v154,-85,358,-90,498,-2v128,80,199,227,202,437xm894,-477v0,-240,-102,-395,-332,-395v-71,0,-141,18,-208,53r0,664v71,31,142,46,211,46v219,0,329,-141,329,-368xm527,-1898r210,0r0,210r-210,0r0,-210","w":1183},"\u1e0a":{"d":"742,-1898r210,0r0,210r-210,0r0,-210xm667,-150v402,15,608,-188,608,-570v0,-306,-154,-494,-406,-543v-105,-20,-283,-5,-409,-8r0,1121r207,0xm290,-1421v320,5,679,-29,880,105v170,114,276,290,276,562v0,476,-240,746,-721,753r-435,1r0,-1421","w":1606},"\u1e0b":{"d":"469,-1898r210,0r0,210r-210,0r0,-210xm290,-503v0,235,106,388,331,388v73,0,144,-19,213,-56r0,-660v-71,-32,-143,-48,-215,-48v-223,0,-329,144,-329,376xm228,-140v-95,-111,-128,-388,-62,-567v66,-180,200,-295,429,-301v78,-2,166,21,239,53r0,-556r164,0r0,1511r-114,0r-27,-62v-157,98,-378,113,-528,15v-39,-25,-70,-57,-101,-93","w":1188},"\u1e1e":{"d":"460,-1271r0,464r593,0r0,150r-593,0r0,657r-170,0r0,-1421r823,0r0,150r-653,0xm586,-1898r210,0r0,210r-210,0r0,-210","w":1248},"\u1e1f":{"d":"278,-1088v-5,-237,115,-341,330,-341v71,0,150,13,237,39r-25,122v-182,-55,-381,-21,-376,173r0,107r331,0r0,129r-331,0r0,859r-166,0r0,-859r-143,0r0,-129r143,0r0,-100xm422,-1829r210,0r0,210r-210,0r0,-210","w":820},"\u1e40":{"d":"290,-1421r240,0r456,862r463,-862r225,0r0,1421r-170,0r0,-1177r-437,770r-170,0r-437,-770r0,1177r-170,0r0,-1421xm867,-1898r210,0r0,210r-210,0r0,-210","w":1884},"\u1e41":{"d":"782,-608v0,-146,-60,-246,-207,-248v-57,0,-134,25,-231,76r0,780r-164,0r0,-988r115,0r35,82v119,-67,223,-101,310,-101v101,0,180,37,237,110v131,-73,248,-109,351,-109v246,0,322,165,322,413r0,593r-165,0r-1,-646v-10,-124,-71,-211,-209,-210v-61,0,-142,26,-243,78v10,42,15,106,15,192r0,586r-165,0r0,-608xm771,-1421r210,0r0,209r-210,0r0,-209","w":1730},"\u1e56":{"d":"759,-1421v287,-6,468,95,473,378v7,417,-350,483,-772,447r0,596r-170,0r0,-1421r469,0xm1060,-1015v0,-205,-146,-256,-352,-256r-248,0r0,525v290,21,600,30,600,-269xm607,-1898r210,0r0,210r-210,0r0,-210","w":1339},"\u1e57":{"d":"1048,-505v5,304,-179,525,-465,525v-78,0,-166,-21,-239,-53r0,564r-164,0r0,-1519r114,0r27,63v157,-97,375,-112,527,-17v127,80,197,228,200,437xm888,-477v0,-239,-103,-394,-332,-394v-73,0,-143,18,-212,55r0,659v71,32,143,48,215,48v219,0,329,-141,329,-368xm537,-1421r210,0r0,209r-210,0r0,-209","w":1177},"\u1e60":{"d":"647,-1898r210,0r0,210r-210,0r0,-210xm693,-148v175,0,343,-70,343,-224v0,-167,-167,-205,-302,-254v-208,-75,-465,-123,-465,-396v0,-209,148,-323,324,-378v191,-60,379,-37,581,23r-55,155v-120,-35,-224,-52,-312,-52v-169,0,-353,75,-353,224v0,140,131,178,243,222v227,90,524,128,524,431v0,155,-84,253,-182,323v-124,89,-388,120,-581,70v-65,-16,-137,-40,-218,-72r58,-165v167,62,298,93,395,93","w":1361},"\u1e61":{"d":"176,-179v114,40,175,70,297,70v163,0,244,-52,244,-155v0,-92,-102,-108,-179,-136v-169,-61,-384,-90,-384,-309v0,-108,63,-176,133,-225v117,-84,399,-94,554,-33r-42,125v-89,-25,-168,-37,-236,-37v-129,0,-239,37,-239,153v0,70,83,102,148,125v135,48,301,86,382,191v28,37,42,79,42,127v0,227,-189,303,-430,303v-102,0,-214,-25,-336,-75xm428,-1421r210,0r0,209r-210,0r0,-209","w":1016},"\u1e6a":{"d":"85,-1421r1120,0r0,150r-475,0r0,1271r-170,0r0,-1271r-475,0r0,-150xm556,-1898r210,0r0,210r-210,0r0,-210","w":1210},"\u1e6b":{"d":"479,20v-204,1,-276,-130,-276,-331r0,-548r-133,0r0,-129r133,0r0,-283r164,0r0,283r301,0r0,129r-301,0r0,546v0,137,54,205,162,205v19,0,70,-7,153,-21r23,112v-97,25,-172,37,-226,37xm196,-1621r210,0r0,210r-210,0r0,-210","w":755},"\u1e80":{"d":"140,-1421r182,0r357,1194r360,-1194r171,0r370,1194r347,-1194r168,0r-426,1421r-181,0r-373,-1187r-349,1187r-181,0xm966,-1928r504,310r-62,107r-512,-294","w":2155},"\u1e81":{"d":"60,-988r175,0r268,829r254,-829r161,0r264,828r268,-828r175,0r-361,988r-165,0r-263,-801r-260,801r-165,0xm705,-1549r364,324r-80,100r-376,-315","w":1685},"\u1e82":{"d":"140,-1421r182,0r357,1194r360,-1194r171,0r370,1194r347,-1194r168,0r-426,1421r-181,0r-373,-1187r-349,1187r-181,0xm1320,-1928r70,123r-512,294r-62,-107","w":2155},"\u1e83":{"d":"60,-988r175,0r268,829r254,-829r161,0r264,828r268,-828r175,0r-361,988r-165,0r-263,-801r-260,801r-165,0xm1006,-1549r92,109r-376,315r-80,-100","w":1685},"\u1e84":{"d":"140,-1421r182,0r357,1194r360,-1194r171,0r370,1194r347,-1194r168,0r-426,1421r-181,0r-373,-1187r-349,1187r-181,0xm800,-1898r185,0r0,185r-185,0r0,-185xm1250,-1898r185,0r0,185r-185,0r0,-185","w":2155},"\u1e85":{"d":"60,-988r175,0r268,829r254,-829r161,0r264,828r268,-828r175,0r-361,988r-165,0r-263,-801r-260,801r-165,0xm520,-1421r185,0r0,184r-185,0r0,-184xm970,-1421r185,0r0,184r-185,0r0,-184","w":1685},"\u1ef2":{"d":"100,-1421r201,0r362,587r370,-587r190,0r-484,748r0,673r-170,0r0,-673xm460,-1928r504,310r-62,107r-512,-294","w":1263},"\u1ef3":{"d":"50,-988r170,0r316,838r294,-838r170,0r-570,1519r-175,0r203,-493xm375,-1549r364,324r-80,100r-376,-315","w":1050},"\u20ac":{"d":"880,20v-329,-1,-549,-236,-608,-524r-222,0r0,-130r204,0v-4,-72,-4,-151,7,-214r-147,0r0,-130r176,0v76,-255,287,-451,600,-453v115,0,231,25,348,76r-47,141v-218,-83,-395,-102,-563,16v-76,54,-132,128,-171,220r451,0r0,130r-491,0v-13,62,-17,146,-9,214r436,0r0,130r-408,0v62,200,230,369,482,368v92,0,189,-20,290,-60r47,126v-124,60,-249,90,-375,90","w":1335},"\u00a0":{"w":560}}});
