/*!
 * The following copyright notice may not be removed under any circumstances.
 * 
 * Copyright:
 * Copyright (c) 1981, 1982, 1983, 1989 and 1993, Linotype Library GmbH or its
 * affiliated Linotype-Hell companies. All rights reserved.
 * 
 * The digitally encoded machine readable software for producing the Typefaces
 * licensed to you is now the property of Heidelberger Druckmaschinen AG and its
 * licensors, and may not be reproduced, used, displayed, modified, disclosed or
 * transferred without the express written approval of Heidelberger Druckmaschinen
 * AG.
 * 
 * Copyright (c) 1988, 1990, 1993 Adobe Systems Incorporated. All Rights Reserved.
 * 
 * Trademark:
 * "Helvetica Neue" is a trademark of Heidelberger Druckmaschinen AG, which may be
 * registered in certain jurisdictions, exclusivly licensed through Linotype
 * Library GmbH, a wholly owned subsidiary of Heidelberger Druckmaschinen AG.
 * 
 * Description:
 * Helvetica (Latin for Swiss) has the objective and functional style which was
 * associated with Swiss typography in the 1950s and 1960s. It is perfect for
 * international correspondence: no ornament, no emotion, just clear presentation
 * of information. Helvetica is still one of the best selling sans-serif fonts.
 * 
 * Vendor URL:
 * http://www.LinotypeLibrary.com/
 */
Cufon.registerFont({"w":1138,"face":{"font-family":"Helvetica Neue","font-weight":400,"font-stretch":"normal","units-per-em":"2048","panose-1":"2 0 5 3 0 0 0 2 0 4","ascent":"1638","descent":"-410","x-height":"23","bbox":"-45 -1632 1872 436","underline-thickness":"102.4","underline-position":"-153.6","unicode-range":"U+0020-U+007E"},"glyphs":{" ":{"w":569},"!":{"d":"152,-227r0,227r227,0r0,-227r-227,0xm362,-1012r0,-450r-194,0r0,450r51,637r92,0","w":530},"\"":{"d":"510,-1462r0,528r139,0r0,-528r-139,0xm223,-1462r0,528r139,0r0,-528r-139,0","w":872},"#":{"d":"473,-868r254,0r-43,307r-254,0xm268,-422r-59,422r141,0r60,-422r254,0r-60,422r141,0r60,-422r207,0r0,-139r-187,0r43,-307r201,0r0,-140r-182,0r59,-419r-141,0r-60,419r-253,0r59,-419r-141,0r-60,419r-227,0r0,140r209,0r-43,307r-219,0r0,139r198,0"},"$":{"d":"514,-129v-160,-27,-286,-133,-289,-317r-174,0v19,284,190,451,463,479r0,168r113,0r0,-168v203,-17,346,-110,414,-264v42,-96,45,-249,-2,-340v-78,-150,-232,-214,-412,-252r0,-504v126,23,202,102,229,237r174,0v-51,-226,-168,-374,-403,-405r0,-137r-113,0r0,135v-192,15,-324,114,-387,261v-22,51,-33,108,-33,169v-2,278,195,335,420,395r0,543xm627,-643v132,42,264,83,264,252v0,173,-104,249,-264,262r0,-514xm514,-854v-120,-38,-235,-76,-235,-231v0,-154,103,-233,235,-248r0,479"},"%":{"d":"514,-743v-177,0,-186,-220,-166,-397v12,-104,55,-199,172,-199v181,0,186,219,168,397v-11,106,-55,199,-174,199xm520,-1452v-244,0,-332,175,-332,416v0,238,91,405,332,405v235,0,328,-177,328,-411v0,-243,-84,-410,-328,-410xm1526,-88v-177,0,-185,-219,-166,-396v11,-106,56,-200,172,-200v149,0,174,148,174,297v0,151,-28,299,-180,299xm1532,-797v-244,0,-332,175,-332,416v0,238,91,404,332,404v236,0,328,-176,328,-410v0,-241,-83,-410,-328,-410xm1487,-1479r-1102,1522r176,0r1100,-1522r-174,0","w":2048},"&":{"d":"590,-1309v129,-6,204,125,149,241v-36,75,-111,127,-176,169r-49,-62v-39,-54,-88,-107,-92,-192v-5,-100,80,-152,168,-156xm524,23v179,0,341,-82,414,-205r156,182r227,0r-285,-330v57,-114,86,-204,99,-360r-166,0v-4,75,-20,151,-47,227r-265,-321v132,-82,275,-176,275,-379v0,-201,-151,-299,-354,-299v-160,0,-262,75,-309,187v-41,98,-16,227,29,297v35,55,74,109,112,161v-167,95,-342,189,-342,442v0,257,174,398,456,398xm842,-303v-72,118,-236,218,-415,156v-95,-33,-175,-104,-175,-230v0,-191,133,-256,254,-330","w":1290},"'":{"d":"215,-1462r0,528r139,0r0,-528r-139,0","w":569},"(":{"d":"96,-553v0,418,156,691,322,956r133,0v-173,-280,-270,-550,-270,-956v0,-398,97,-670,270,-944r-133,0v-185,241,-322,564,-322,944","w":530},")":{"d":"250,-539v0,393,-97,672,-268,942r131,0v185,-242,321,-561,321,-942v0,-419,-156,-692,-321,-958r-131,0v170,280,268,554,268,958","w":530},"*":{"d":"412,-1231r0,-231r-109,0r0,231r-217,-82r-37,99r217,77r-133,187r92,63r133,-196r142,196r84,-63r-135,-187r223,-77r-41,-99","w":720},"+":{"d":"684,-588r0,-448r-139,0r0,448r-447,0r0,139r447,0r0,449r139,0r0,-449r446,0r0,-139r-446,0","w":1228},",":{"d":"172,299v146,-40,225,-147,225,-319r0,-207r-227,0r0,227r121,0v3,101,-45,168,-119,197r0,102","w":569},"-":{"d":"102,-651r0,164r592,0r0,-164r-592,0","w":796},".":{"d":"170,-227r0,227r227,0r0,-227r-227,0","w":569},"\/":{"d":"569,-1497r-604,1530r148,0r606,-1530r-150,0","w":681},"0":{"d":"569,-1298v338,0,305,424,294,767v-5,142,-46,262,-122,341v-76,79,-266,77,-344,0v-109,-107,-128,-316,-127,-525v1,-286,18,-583,299,-583xm569,-1452v-406,0,-483,333,-483,739v0,405,76,736,483,736v409,0,484,-330,484,-736v0,-406,-77,-740,-484,-739"},"1":{"d":"596,-1452v-33,199,-189,273,-418,272r0,140r377,0r0,1040r174,0r0,-1452r-133,0"},"2":{"d":"1012,-1034v0,-276,-183,-418,-455,-418v-239,0,-386,123,-444,309v-19,63,-27,131,-23,205r174,0v-1,-153,53,-271,153,-329v99,-57,264,-25,327,40v44,45,84,105,83,191v-1,182,-98,256,-209,337v-45,33,-99,69,-161,105v-212,125,-389,275,-408,594r948,0r0,-154r-745,0v49,-208,251,-280,407,-383v170,-112,353,-221,353,-497"},"3":{"d":"799,-1065v-6,183,-154,253,-353,236r0,147v125,-17,255,6,324,65v73,63,120,213,65,325v-49,99,-147,161,-290,163v-198,3,-304,-132,-309,-320r-175,0v1,309,177,472,484,472v225,0,385,-92,460,-249v27,-55,39,-120,39,-192v-2,-186,-96,-321,-262,-352r0,-4v103,-46,202,-147,201,-289v-3,-268,-177,-389,-442,-389v-296,0,-434,183,-449,469r174,0v5,-185,88,-315,275,-315v148,0,263,80,258,233"},"4":{"d":"694,-494r-487,0r483,-710r4,0r0,710xm858,-494r0,-958r-139,0r-662,944r0,168r637,0r0,340r164,0r0,-340r197,0r0,-154r-197,0"},"5":{"d":"756,-926v-154,-58,-369,-30,-453,74r-4,-4r78,-418r586,0r0,-153r-717,0r-135,753r149,8v63,-73,143,-137,270,-137v159,0,258,81,305,198v16,40,23,84,23,132v-3,210,-107,344,-307,344v-141,0,-230,-65,-278,-159v-16,-32,-24,-66,-27,-103r-174,0v6,209,123,331,285,386v121,42,291,35,400,-12v167,-72,285,-216,285,-442v0,-246,-108,-400,-286,-467"},"6":{"d":"604,-1298v142,0,229,90,244,217r174,0v-19,-233,-163,-370,-410,-371v-215,-1,-341,103,-422,240v-109,188,-138,496,-95,776v40,262,173,462,483,459v313,-3,485,-188,485,-486v0,-218,-100,-366,-257,-435v-55,-24,-118,-36,-188,-36v-178,3,-289,69,-362,191r-4,-5v5,-206,51,-401,174,-496v46,-35,104,-54,178,-54xm586,-129v-237,4,-351,-220,-282,-452v35,-119,128,-199,282,-199v197,0,293,132,293,329v0,188,-100,319,-293,322"},"7":{"d":"1042,-1278r0,-149r-940,0r0,163r762,0v-289,316,-528,710,-573,1264r194,0v31,-402,178,-746,351,-1020v64,-100,132,-186,206,-258"},"8":{"d":"575,-842v-156,-2,-258,-77,-258,-233v0,-149,104,-221,254,-223v141,-2,244,78,244,223v0,145,-100,235,-240,233xm799,-780v147,-56,250,-247,176,-438v-58,-150,-201,-236,-416,-234v-188,2,-326,82,-391,212v-23,46,-35,99,-35,159v0,143,93,259,203,301v-150,51,-254,174,-254,362v0,298,195,441,493,441v221,0,372,-96,444,-252v25,-55,38,-118,38,-189v0,-195,-97,-314,-258,-362xm695,-151v-206,74,-439,-44,-429,-259v9,-179,126,-278,307,-278v138,0,230,72,276,167v53,108,8,256,-59,311v-28,23,-59,46,-95,59"},"9":{"d":"541,-129v-142,0,-258,-84,-267,-221r-174,0v16,243,192,373,441,373v176,0,304,-68,384,-202v80,-134,119,-328,119,-579v0,-249,-48,-427,-147,-553v-104,-132,-351,-181,-543,-106v-169,66,-284,209,-284,438v0,230,97,381,262,450v57,24,122,35,196,35v156,-1,279,-90,336,-200r4,4v-5,190,-35,331,-88,423v-53,92,-133,138,-239,138xm254,-954v4,-200,82,-344,285,-344v155,0,242,86,279,204v70,225,-48,450,-277,447v-141,-2,-224,-88,-266,-193v-15,-37,-21,-74,-21,-114"},":":{"d":"397,-831r0,-228r-227,0r0,228r227,0xm170,-227r0,227r227,0r0,-227r-227,0","w":569},";":{"d":"397,-831r0,-228r-227,0r0,228r227,0xm172,299v145,-40,225,-147,225,-319r0,-207r-227,0r0,227r121,0v3,101,-45,168,-119,197r0,102","w":569},"<":{"d":"1135,-913r0,-140r-1041,471r0,127r1041,469r0,-137r-871,-395","w":1228},"=":{"d":"98,-381r0,139r1032,0r0,-139r-1032,0xm1130,-655r0,-140r-1032,0r0,140r1032,0","w":1228},">":{"d":"94,-123r0,137r1041,-469r0,-127r-1041,-471r0,140r871,395","w":1228},"?":{"d":"446,-227r0,227r228,0r0,-227r-228,0xm113,-1006r174,0v-1,-153,54,-260,157,-311v92,-45,237,-27,302,37v63,62,98,206,55,305v-84,195,-318,248,-326,522r0,97r174,0v-35,-381,355,-363,355,-731v0,-269,-166,-410,-433,-410v-229,0,-367,123,-429,297v-21,60,-30,124,-29,194"},"@":{"d":"1366,-326v-102,134,-289,248,-508,248v-298,0,-488,-175,-583,-393v-67,-154,-68,-354,-2,-510v93,-221,275,-403,575,-403v253,0,423,130,509,309v54,112,61,256,19,385v-34,105,-87,200,-158,262v-33,29,-67,43,-98,43v-75,0,-41,-117,-26,-168r172,-582r-129,0r-47,129v-37,-105,-111,-168,-230,-168v-159,0,-271,90,-349,185v-114,138,-197,467,-51,627v47,52,118,93,212,94v111,1,198,-77,254,-138r6,0v2,82,54,134,131,134v217,0,353,-178,431,-352v66,-148,64,-354,-7,-497v-108,-221,-325,-376,-641,-376v-357,0,-584,207,-700,464v-82,181,-79,417,-1,600v79,187,221,324,407,406v207,92,502,67,672,-33v111,-65,207,-153,271,-266r-129,0xm709,-408v-106,0,-181,-91,-177,-198v6,-170,88,-311,196,-386v56,-39,130,-60,195,-26v58,30,103,88,103,174v0,166,-90,313,-192,392v-38,29,-80,44,-125,44","w":1638},"A":{"d":"412,-604r247,-682r5,0r243,682r-495,0xm557,-1462r-569,1462r198,0r164,-440r619,0r159,440r215,0r-571,-1462r-215,0","w":1327,"k":{"y":37,"w":37,"v":37,"Y":152,"W":49,"V":94,"T":188}},"B":{"d":"1055,-1067v-5,177,-112,233,-312,233r-389,0r0,-464r389,0v185,-3,317,42,312,231xm1032,-776v129,-49,216,-160,217,-328v1,-149,-80,-248,-172,-305v-90,-54,-246,-53,-387,-53r-530,0r0,1462r706,0v217,-3,354,-108,416,-264v20,-51,29,-103,29,-156v-1,-190,-111,-320,-279,-352r0,-4xm1116,-426v0,165,-105,262,-274,262r-488,0r0,-506r445,0v180,3,317,59,317,244","w":1402},"C":{"d":"778,-1333v217,2,374,117,410,311r194,0v-48,-304,-262,-475,-602,-475v-356,0,-556,197,-647,470v-60,183,-60,414,-3,599v84,274,282,458,634,461v383,3,598,-229,633,-584r-195,0v-24,250,-155,422,-422,422v-353,0,-497,-257,-497,-612v0,-259,95,-452,271,-543v62,-33,137,-49,224,-49","w":1478},"D":{"d":"682,-1298v354,-3,489,207,487,559v-2,358,-148,564,-491,575r-324,0r0,-1134r328,0xm1364,-766v0,-464,-248,-696,-702,-696r-502,0r0,1462r502,0v488,-1,702,-276,702,-766","w":1441},"E":{"d":"160,-1462r0,1462r1016,0r0,-164r-822,0r0,-506r760,0r0,-164r-760,0r0,-464r815,0r0,-164r-1009,0","w":1251},"F":{"d":"160,-1462r0,1462r194,0r0,-670r672,0r0,-164r-672,0r0,-464r766,0r0,-164r-960,0","w":1175,"k":{"A":113,".":322,",":322}},"G":{"d":"784,33v202,0,376,-80,469,-215r52,182r122,0r0,-770r-641,0r0,164r467,0v5,226,-102,371,-266,440v-121,52,-307,49,-419,-11v-175,-93,-285,-277,-285,-536v0,-266,95,-471,273,-567v63,-35,139,-53,228,-53v244,0,395,111,435,321r194,0v-54,-317,-269,-485,-629,-485v-364,0,-563,208,-652,490v-58,184,-63,401,3,581v97,261,302,459,649,459","w":1554},"H":{"d":"160,-1462r0,1462r194,0r0,-670r770,0r0,670r195,0r0,-1462r-195,0r0,628r-770,0r0,-628r-194,0","w":1478},"I":{"d":"168,-1462r0,1462r194,0r0,-1462r-194,0","w":530},"J":{"d":"471,33v276,0,432,-135,432,-398r0,-1097r-194,0r0,1069v-4,165,-59,264,-234,264v-202,0,-244,-145,-235,-352r-195,0r0,90v-1,275,153,424,426,424","w":1062},"K":{"d":"160,-1462r0,1462r194,0r0,-512r244,-227r528,739r246,0r-641,-872r617,-590r-252,0r-742,729r0,-729r-194,0","w":1366},"L":{"d":"160,-1462r0,1462r968,0r0,-164r-774,0r0,-1298r-194,0","k":{"y":76,"Y":227,"W":113,"V":188,"T":188}},"M":{"d":"164,-1462r0,1462r184,0r0,-1217r4,0r457,1217r166,0r457,-1217r4,0r0,1217r184,0r0,-1462r-266,0r-463,1229r-461,-1229r-266,0","w":1783},"N":{"d":"158,-1462r0,1462r184,0r0,-1174r4,0r764,1174r213,0r0,-1462r-184,0r0,1186r-4,0r-770,-1186r-207,0","w":1478},"O":{"d":"549,-181v-226,-114,-334,-440,-248,-768v57,-217,203,-384,477,-384v275,0,415,167,477,384v64,226,14,492,-90,630v-81,107,-202,191,-387,190v-89,0,-164,-19,-229,-52xm122,-1019v-58,182,-59,394,0,576v59,187,182,331,351,413v168,82,442,82,610,0v242,-118,396,-356,396,-701v0,-344,-154,-585,-396,-703v-168,-82,-443,-82,-610,0v-169,83,-292,227,-351,415","w":1556},"P":{"d":"1055,-1030v0,189,-113,268,-320,268r-381,0r0,-536r381,0v207,-2,320,79,320,268xm1249,-1030v0,-279,-162,-432,-448,-432r-641,0r0,1462r194,0r0,-598r447,0v286,4,448,-153,448,-432","w":1327,"k":{"A":152,".":367,",":367}},"Q":{"d":"922,-418r-103,119r162,129v-134,58,-312,50,-432,-11v-225,-114,-334,-449,-248,-768v58,-217,203,-384,477,-384v275,0,416,167,477,384v72,258,4,557,-139,687xm1257,-150v191,-174,281,-548,178,-869v-60,-188,-183,-332,-352,-415v-168,-82,-443,-82,-610,0v-242,119,-395,358,-395,703v0,344,154,584,395,701v187,90,486,82,655,-23r224,178r98,-123","w":1556},"R":{"d":"1292,-1079v2,-249,-183,-383,-444,-383r-688,0r0,1462r194,0r0,-625r475,0v286,-6,237,314,270,564v3,26,13,46,27,61r217,0v-156,-175,29,-648,-305,-705r0,-4v166,-42,252,-177,254,-370xm1098,-1049v0,200,-140,261,-338,261r-406,0r0,-510r484,0v172,-4,260,92,260,249","w":1402,"k":{"Y":76,"W":37,"V":37,"T":37}},"S":{"d":"643,-1333v211,0,346,97,363,299r184,0v-14,-316,-216,-463,-539,-463v-226,0,-400,85,-485,236v-53,94,-61,265,-5,359v132,220,504,200,749,307v81,35,147,88,147,200v0,205,-169,266,-371,266v-244,0,-419,-107,-426,-352r-184,0v8,357,250,514,604,514v236,0,423,-85,519,-235v62,-97,67,-278,12,-380v-125,-232,-491,-225,-749,-323v-79,-30,-147,-76,-147,-178v0,-187,143,-250,328,-250","w":1327},"T":{"d":"492,-1298r0,1298r194,0r0,-1298r488,0r0,-164r-1170,0r0,164r488,0","w":1175,"k":{"y":227,"w":227,"u":188,"s":227,"r":188,"o":227,"e":227,"c":227,"a":227,"A":188,";":227,":":227,".":227,"-":264,",":227}},"U":{"d":"752,33v367,0,575,-189,575,-561r0,-934r-194,0r0,934v1,256,-129,399,-381,399v-261,0,-406,-138,-406,-399r0,-934r-194,0r0,934v-5,389,222,561,600,561","w":1478},"V":{"d":"735,0r520,-1462r-202,0r-422,1267r-4,0r-418,-1267r-209,0r514,1462r221,0","w":1251,"k":{"y":37,"u":76,"r":76,"o":113,"i":37,"e":113,"a":113,"A":94,";":94,":":94,".":264,"-":113,",":264}},"W":{"d":"1481,0r391,-1462r-195,0r-297,1216r-4,0r-323,-1216r-211,0r-328,1216r-4,0r-287,-1216r-198,0r374,1462r203,0r338,-1229r4,0r334,1229r203,0","w":1896,"k":{"u":37,"r":37,"o":117,"e":117,"a":76,"A":49,";":37,":":37,".":152,",":152}},"X":{"d":"508,-752r-508,752r217,0r406,-604r393,604r237,0r-514,-752r484,-710r-217,0r-381,571r-365,-571r-233,0","w":1251},"Y":{"d":"764,-598r559,-864r-221,0r-428,696r-438,-696r-232,0r565,864r0,598r195,0r0,-598","w":1327,"k":{"v":113,"u":152,"q":188,"p":152,"o":227,"i":76,"e":227,"a":188,"A":152,";":188,":":188,".":285,"-":227,",":285}},"Z":{"d":"45,-164r0,164r1163,0r0,-164r-932,0r908,-1134r0,-164r-1069,0r0,164r839,0","w":1251},"[":{"d":"530,-1358r0,-139r-383,0r0,1900r383,0r0,-139r-219,0r0,-1622r219,0","w":530},"\\":{"d":"719,33r-606,-1530r-148,0r604,1530r150,0","w":681},"]":{"d":"0,264r0,139r383,0r0,-1900r-383,0r0,139r219,0r0,1622r-219,0","w":530},"^":{"d":"549,-1427r-447,886r146,0r364,-737r371,737r143,0r-446,-886r-131,0","w":1228},"_":{"d":"0,152r0,102r1024,0r0,-102r-1024,0","w":1024},"`":{"d":"-45,-1497r266,293r131,0r-176,-293r-221,0","w":454},"a":{"d":"797,-139v-2,107,50,162,147,162v53,0,95,-9,125,-27r0,-135v-20,7,-38,10,-53,10v-64,-3,-55,-48,-55,-119r0,-545v10,-287,-305,-325,-566,-272v-164,33,-272,141,-280,336r174,0v5,-154,113,-201,264,-201v133,0,241,38,235,176v-7,159,-219,124,-356,156v-190,44,-361,95,-358,326v2,210,143,295,350,295v169,0,289,-59,373,-162xm610,-153v-132,47,-356,36,-352,-132v7,-258,360,-158,528,-262v-5,92,14,187,-18,257v-28,64,-84,110,-158,137","w":1099},"b":{"d":"653,-1083v-155,1,-287,57,-338,168r-4,0r0,-547r-174,0r0,1462r174,0r0,-141r4,0v63,104,186,164,342,164v328,0,484,-223,484,-549v0,-249,-101,-427,-274,-512v-61,-30,-132,-45,-214,-45xm629,-930v275,0,369,269,311,543v-32,148,-119,258,-301,258v-235,0,-334,-169,-334,-401v0,-226,95,-400,324,-400","w":1214},"c":{"d":"588,-930v151,0,236,83,262,211r180,0v-29,-241,-192,-364,-457,-364v-338,0,-499,228,-499,567v0,252,101,425,281,500v170,71,421,42,535,-68v76,-74,127,-172,146,-303r-178,0v-22,159,-114,258,-291,258v-219,0,-309,-168,-309,-387v0,-239,88,-414,330,-414","w":1099},"d":{"d":"586,-129v-226,0,-328,-169,-328,-391v0,-231,85,-406,317,-410v282,-5,379,271,317,547v-33,145,-127,254,-306,254xm347,-23v180,88,487,48,552,-120r4,0r0,143r174,0r0,-1462r-174,0r0,544r-4,0v-65,-102,-183,-165,-342,-165v-253,0,-393,141,-454,338v-41,132,-39,295,1,426v41,134,123,237,243,296","w":1214},"e":{"d":"258,-631v19,-175,115,-299,303,-299v186,0,288,123,305,299r-608,0xm862,-336v-28,134,-119,207,-274,207v-216,0,-330,-130,-330,-348r793,0v6,-248,-84,-449,-245,-548v-110,-68,-306,-77,-434,-17v-179,83,-298,253,-298,510v0,334,163,555,508,555v252,0,412,-134,452,-359r-172,0","w":1099},"f":{"d":"496,-1479v-184,0,-292,84,-293,262r0,158r-178,0r0,154r178,0r0,905r174,0r0,-905r205,0r0,-154r-205,0r0,-147v-12,-130,131,-132,231,-105r0,-151v-27,-10,-76,-18,-112,-17","w":606,"k":{"f":37}},"g":{"d":"553,428v343,0,490,-174,491,-518r0,-969r-163,0v-2,49,4,107,-2,152v-54,-108,-167,-176,-316,-176v-334,0,-489,232,-489,559v0,241,99,410,266,491v59,29,128,43,207,43v152,0,281,-72,330,-190r4,0v9,270,-61,469,-318,469v-136,0,-260,-44,-274,-172r-174,0v18,224,204,311,438,311xm703,-177v-75,46,-213,43,-289,0v-169,-95,-205,-464,-83,-636v48,-68,125,-117,240,-117v263,0,338,270,284,527v-21,100,-74,179,-152,226","w":1175},"h":{"d":"643,-1083v-160,3,-282,63,-334,180r-4,0r0,-559r-174,0r0,1462r174,0r0,-598v6,-205,104,-330,313,-332v132,-1,216,82,216,213r0,717r174,0r0,-696v1,-251,-109,-391,-365,-387"},"i":{"d":"315,-1249r0,-213r-174,0r0,213r174,0xm141,-1059r0,1059r174,0r0,-1059r-174,0","w":454},"j":{"d":"315,-1249r0,-213r-174,0r0,213r174,0xm-27,395v202,36,342,-51,342,-262r0,-1192r-174,0r0,1163v11,130,-50,160,-168,142r0,149","w":454},"k":{"d":"141,-1462r0,1462r174,0r0,-401r164,-152r363,553r221,0r-451,-674r420,-385r-233,0r-484,463r0,-866r-174,0","w":1062},"l":{"d":"141,-1462r0,1462r174,0r0,-1462r-174,0","w":454},"m":{"d":"932,-903v-37,-122,-146,-180,-291,-180v-149,0,-263,60,-342,180r-4,0r0,-156r-164,0r0,1059r174,0r0,-659v19,-151,112,-268,283,-271v147,-3,198,91,198,236r0,694r175,0r0,-659v-2,-165,108,-271,276,-271v150,0,205,87,205,236r0,694r174,0r0,-776v-2,-216,-134,-307,-352,-307v-154,0,-270,76,-332,180","w":1746},"n":{"d":"1008,-696v1,-251,-109,-387,-365,-387v-157,0,-272,64,-344,192r-4,0r0,-168r-164,0r0,1059r174,0r0,-598v6,-205,104,-330,313,-332v132,-1,216,82,216,213r0,717r174,0r0,-696"},"o":{"d":"588,-129v-222,0,-330,-165,-330,-399v0,-234,107,-402,330,-402v222,0,330,169,330,402v0,187,-74,314,-202,372v-40,18,-83,27,-128,27xm106,-746v-44,132,-44,304,0,435v67,198,221,334,482,334v263,0,414,-136,481,-334v73,-215,16,-494,-98,-612v-88,-92,-207,-162,-383,-160v-261,2,-415,138,-482,337","w":1175},"p":{"d":"653,-1083v-155,1,-287,57,-338,168r-4,0r0,-144r-174,0r0,1462r174,0r0,-544r4,0v63,104,186,164,342,164v328,0,484,-223,484,-549v0,-249,-101,-427,-274,-512v-61,-30,-132,-45,-214,-45xm629,-930v275,0,369,269,311,543v-32,148,-119,258,-301,258v-235,0,-334,-169,-334,-401v0,-226,95,-400,324,-400","w":1214},"q":{"d":"586,-129v-226,0,-328,-169,-328,-391v0,-231,85,-406,317,-410v282,-5,379,271,317,547v-33,145,-127,254,-306,254xm347,-23v180,88,487,48,552,-120r4,0r0,546r174,0r0,-1462r-174,0r0,141r-4,0v-65,-102,-183,-165,-342,-165v-253,0,-393,141,-454,338v-41,132,-39,295,1,426v41,134,123,237,243,296","w":1214},"r":{"d":"682,-1083v-213,-3,-311,94,-389,247r-4,0r0,-223r-164,0r0,1059r174,0r0,-471v-2,-274,110,-429,383,-428r0,-184","w":681,"k":{"q":37,"o":37,"n":-37,"g":57,"e":37,"d":37,"c":37,".":188,"-":113,",":188}},"s":{"d":"522,-129v-156,0,-277,-53,-284,-205r-175,0v4,308,300,396,610,341v111,-20,197,-76,250,-157v46,-69,53,-210,10,-286v-94,-167,-363,-163,-550,-235v-57,-22,-113,-54,-113,-124v0,-111,113,-135,226,-135v134,0,234,50,245,178r174,0v-14,-242,-178,-334,-434,-331v-162,2,-293,59,-359,163v-51,81,-42,230,15,297v126,147,426,128,590,234v34,23,51,57,51,102v-3,131,-127,158,-256,158","w":1024},"t":{"d":"373,-1059r0,-317r-174,0r0,317r-181,0r0,154r181,0r0,674v-1,129,32,202,136,222v67,13,167,8,249,9r0,-154v-91,-10,-211,35,-211,-94r0,-657r211,0r0,-154r-211,0","w":645},"u":{"d":"496,23v172,-2,276,-71,344,-191r4,0r0,168r164,0r0,-1059r-174,0r0,598v-5,205,-105,329,-314,332v-132,1,-215,-81,-215,-213r0,-717r-174,0r0,697v-2,252,111,387,365,385"},"v":{"d":"608,0r387,-1059r-182,0r-289,883r-4,0r-297,-883r-194,0r393,1059r186,0","w":1024,"k":{".":152,",":152}},"w":{"d":"1180,0r338,-1059r-181,0r-237,866r-4,0r-222,-866r-190,0r-213,866r-4,0r-240,-866r-192,0r340,1059r188,0r213,-842r4,0r215,842r185,0","w":1552,"k":{".":113,",":113}},"x":{"d":"416,-557r-398,557r211,0r295,-438r295,438r223,0r-409,-571r364,-488r-209,0r-264,371r-254,-371r-223,0","w":1060},"y":{"d":"119,403v60,24,162,28,223,4v112,-43,159,-148,205,-268r461,-1198r-185,0r-297,866r-4,0r-309,-866r-197,0r420,1053v-55,107,-59,271,-215,274v-39,0,-71,-15,-102,-24r0,159","w":1024,"k":{".":152,",":152}},"z":{"d":"45,-133r0,133r893,0r0,-154r-676,0r647,-786r0,-119r-823,0r0,154r598,0","w":983},"{":{"d":"432,-1198v2,-87,13,-176,98,-176r103,0r0,-123v-80,4,-162,-12,-221,17v-84,42,-144,125,-144,251r0,373v-4,128,-53,229,-170,242r0,139v119,10,170,110,170,239r0,371v2,126,59,210,144,251v60,29,141,13,221,17r0,-122r-103,0v-84,-4,-98,-91,-98,-177r0,-372v0,-150,-66,-245,-178,-275r0,-6v105,-35,177,-128,178,-274r0,-375","w":681},"|":{"d":"158,-1610r0,2046r139,0r0,-2046r-139,0","w":454},"}":{"d":"250,104v-2,88,-14,177,-98,177r-103,0r0,122v80,-4,162,12,221,-17v85,-41,144,-125,144,-251r0,-371v0,-105,41,-182,106,-222v20,-12,42,-17,64,-17r0,-139v-118,-12,-170,-113,-170,-242r0,-373v-1,-127,-60,-209,-144,-251v-60,-29,-141,-13,-221,-17r0,123r103,0v86,4,98,91,98,180r0,371v1,149,65,245,178,274r0,6v-104,37,-178,128,-178,275r0,372","w":681},"~":{"d":"387,-522v211,-4,306,205,529,132v81,-26,127,-95,171,-161r-73,-102v-48,61,-79,155,-180,155v-70,0,-150,-58,-209,-82v-90,-37,-206,-90,-319,-50v-79,29,-130,89,-165,161r74,102v35,-70,72,-153,172,-155","w":1228},"\u00a0":{"w":569}}});
/*!
 * The following copyright notice may not be removed under any circumstances.
 * 
 * Copyright:
 * Copyright (c) 1981, 1982, 1983, 1989 and 1993, Linotype Library GmbH or its
 * affiliated Linotype-Hell companies. All rights reserved.
 * 
 * The digitally encoded machine readable software for producing the Typefaces
 * licensed to you is now the property of Heidelberger Druckmaschinen AG and its
 * licensors, and may not be reproduced, used, displayed, modified, disclosed or
 * transferred without the express written approval of Heidelberger Druckmaschinen
 * AG.
 * 
 * Copyright (c) 1988, 1990, 1993 Adobe Systems Incorporated. All Rights Reserved.
 * 
 * Trademark:
 * "Helvetica Neue" is a trademark of Heidelberger Druckmaschinen AG, which may be
 * registered in certain jurisdictions, exclusivly licensed through Linotype
 * Library GmbH, a wholly owned subsidiary of Heidelberger Druckmaschinen AG.
 * 
 * Description:
 * Helvetica (Latin for Swiss) has the objective and functional style which was
 * associated with Swiss typography in the 1950s and 1960s. It is perfect for
 * international correspondence: no ornament, no emotion, just clear presentation
 * of information. Helvetica is still one of the best selling sans-serif fonts.
 * 
 * Vendor URL:
 * http://www.LinotypeLibrary.com/
 */
Cufon.registerFont({"w":1138,"face":{"font-family":"Helvetica Neue","font-weight":700,"font-stretch":"normal","units-per-em":"2048","panose-1":"2 0 8 3 0 0 0 9 0 4","ascent":"1638","descent":"-410","x-height":"27","bbox":"-96 -1655 1927 436","underline-thickness":"102.4","underline-position":"-153.6","unicode-range":"U+0020-U+007E"},"glyphs":{" ":{"w":569},"!":{"d":"125,-315r0,315r321,0r0,-315r-321,0xm436,-1069r0,-393r-303,0r0,393r78,631r145,0","w":569},"\"":{"d":"174,-1462r0,657r219,0r0,-657r-219,0xm555,-1462r0,657r219,0r0,-657r-219,0","w":948},"#":{"d":"498,-844r196,0r-35,254r-198,0xm238,-406r-58,406r199,0r57,-406r197,0r-55,406r198,0r55,-406r179,0r0,-184r-152,0r35,-254r178,0r0,-184r-151,0r55,-406r-199,0r-55,406r-199,0r58,-406r-199,0r-57,406r-195,0r0,184r170,0r-37,254r-194,0r0,184r170,0"},"$":{"d":"508,-205v-124,-25,-225,-115,-219,-270r-289,0v26,316,196,483,508,508r0,174r121,0r0,-174v187,-10,316,-85,408,-178v110,-113,140,-340,50,-496v-80,-138,-259,-212,-458,-254r0,-362v96,-1,172,96,170,196r291,0v-20,-276,-199,-404,-461,-436r0,-158r-121,0r0,158v-204,16,-361,103,-435,254v-26,53,-40,114,-40,184v0,299,240,363,475,426r0,428xm629,-598v132,42,221,55,221,192v0,130,-102,184,-221,201r0,-393xm508,-924v-110,-28,-184,-51,-184,-163v0,-113,75,-165,184,-170r0,333"},"%":{"d":"1550,-125v-120,0,-131,-128,-131,-248v1,-121,17,-243,140,-243v114,0,127,133,127,245v0,118,-17,246,-136,246xm1559,-770v-239,0,-349,157,-349,395v0,241,94,402,338,402v239,0,346,-156,346,-394v0,-243,-92,-403,-335,-403xm1368,-1479r-848,1522r178,0r844,-1522r-174,0xm494,-817v-145,0,-138,-175,-128,-316v6,-91,38,-176,136,-176v115,0,127,142,127,258v0,117,-19,234,-135,234xm838,-1049v0,-242,-88,-415,-336,-413v-241,2,-348,165,-348,405v0,241,95,394,338,393v239,-2,346,-150,346,-385","w":2048},"&":{"d":"539,27v190,-2,304,-71,411,-172r119,145r356,0r-297,-346v77,-95,126,-215,142,-361r-252,0v-10,65,-25,124,-53,175r-189,-232v131,-74,260,-173,260,-364v0,-237,-164,-351,-401,-351v-168,0,-289,81,-349,197v-21,41,-32,86,-32,137v1,145,71,222,139,311v-160,85,-327,187,-327,424v0,221,119,350,287,408v58,20,120,29,186,29xm797,-340v-70,81,-184,162,-325,114v-91,-31,-165,-145,-113,-259v35,-78,108,-126,188,-160xm649,-1284v69,0,134,67,133,139v-2,117,-76,158,-149,209v-43,-63,-115,-116,-115,-219v0,-73,61,-129,131,-129","w":1402},"'":{"d":"176,-1462r0,657r219,0r0,-657r-219,0","w":569},"(":{"d":"397,-569v0,-365,82,-670,224,-928r-244,0v-161,240,-271,563,-271,948v0,366,119,671,271,920r241,0v-141,-268,-221,-567,-221,-940","w":606},")":{"d":"209,-553v0,364,-85,665,-221,924r241,0v163,-236,271,-559,271,-944v0,-366,-119,-676,-271,-924r-239,0v137,268,219,572,219,944","w":606},"*":{"d":"496,-1206r0,-256r-164,0r0,256r-232,-90r-55,157r238,80r-152,201r137,100r144,-211r151,211r135,-100r-151,-201r241,-80r-55,-157","w":833},"+":{"d":"725,-627r0,-407r-219,0r0,407r-408,0r0,219r408,0r0,408r219,0r0,-408r408,0r0,-219r-408,0","w":1228},",":{"d":"272,0v1,105,-62,168,-145,190r0,148v178,-34,319,-134,319,-338r0,-315r-321,0r0,315r147,0","w":569},"-":{"d":"109,-684r0,250r616,0r0,-250r-616,0","w":833},".":{"d":"123,-315r0,315r321,0r0,-315r-321,0","w":569},"\/":{"d":"549,-1497r-569,1530r231,0r571,-1530r-233,0","w":759},"0":{"d":"335,-812v0,-163,32,-315,133,-384v51,-35,150,-36,200,0v150,104,147,373,133,622v-10,175,-48,363,-234,363v-252,0,-232,-341,-232,-601xm85,-1074v-54,180,-53,531,0,710v70,235,203,391,482,391v405,0,527,-318,529,-750v1,-351,-89,-603,-325,-702v-123,-52,-281,-50,-405,0v-144,58,-230,181,-281,351"},"1":{"d":"571,-1434v-31,202,-186,289,-419,285r0,219r360,0r0,930r291,0r0,-1434r-232,0"},"2":{"d":"582,-1212v128,-2,221,88,215,221v-8,199,-178,259,-301,350v-211,155,-453,279,-453,641r1053,0r0,-250r-678,0v166,-239,510,-300,635,-577v47,-104,46,-272,-5,-375v-78,-156,-228,-260,-452,-260v-270,0,-425,144,-492,351v-22,70,-31,146,-28,228r278,0v6,-171,54,-326,228,-329"},"3":{"d":"772,-1032v-5,153,-147,188,-305,178r0,205v183,-4,332,24,332,213v0,136,-103,227,-234,225v-171,-2,-241,-121,-252,-283r-276,0v-1,260,119,416,312,486v124,45,291,47,421,4v187,-62,332,-197,332,-438v0,-171,-106,-296,-254,-326r0,-4v125,-33,201,-145,201,-293v0,-209,-146,-320,-310,-372v-203,-65,-425,2,-527,112v-79,86,-134,204,-140,358r276,0v-3,-146,75,-256,221,-256v108,0,207,74,203,191"},"4":{"d":"639,-1069r0,498r-377,0r371,-498r6,0xm639,-332r0,332r276,0r0,-332r191,0r0,-239r-191,0r0,-863r-260,0r-622,836r0,266r606,0"},"5":{"d":"659,-975v-130,0,-208,39,-280,111r-4,-4r57,-326r592,0r0,-240r-801,0r-141,793r262,0v55,-73,102,-113,219,-115v195,-3,292,184,231,372v-31,96,-105,171,-231,173v-135,2,-224,-89,-235,-215r-291,0v7,236,146,369,333,425v129,39,283,42,404,-8v183,-76,328,-231,328,-478v0,-222,-99,-375,-254,-449v-55,-26,-118,-39,-189,-39"},"6":{"d":"370,-380v-52,-179,28,-363,216,-363v259,0,280,417,93,510v-55,27,-138,29,-192,0v-56,-30,-98,-82,-117,-147xm602,-1243v105,-2,175,89,193,178r276,0v-35,-248,-192,-392,-465,-397v-215,-4,-346,109,-434,242v-162,243,-174,757,-16,1013v84,136,219,236,438,234v246,-3,394,-136,466,-317v71,-178,27,-418,-75,-525v-73,-77,-192,-148,-330,-148v-159,0,-251,57,-323,160r-4,-4v8,-157,51,-311,144,-390v36,-30,78,-46,130,-46"},"7":{"d":"1059,-1184r0,-250r-979,0r0,271r680,0v-248,299,-442,689,-481,1163r311,0v13,-366,120,-695,269,-942v58,-96,125,-176,200,-242"},"8":{"d":"571,-856v-115,0,-223,-68,-219,-188v4,-131,90,-196,219,-199v139,-3,211,72,215,199v4,122,-95,189,-215,188xm842,-776v161,-45,259,-233,184,-421v-64,-161,-220,-265,-455,-265v-206,0,-361,85,-440,221v-29,49,-43,106,-43,170v2,152,81,262,211,295r0,4v-162,36,-271,160,-270,352v2,243,151,366,343,421v204,58,447,11,570,-85v94,-73,169,-178,168,-338v-1,-188,-106,-317,-268,-350r0,-4xm573,-190v-151,0,-244,-92,-254,-244v-14,-215,285,-294,427,-164v41,38,73,91,73,166v0,151,-96,242,-246,242"},"9":{"d":"784,-956v0,156,-74,266,-231,266v-150,0,-219,-119,-219,-271v0,-147,75,-262,219,-262v152,0,231,115,231,267xm537,-190v-105,1,-175,-90,-193,-179r-276,0v36,245,191,396,464,396v320,0,469,-220,533,-482v65,-266,30,-592,-82,-773v-85,-137,-216,-238,-438,-234v-245,4,-394,136,-466,318v-24,63,-36,132,-36,206v0,277,172,467,440,467v159,0,252,-57,324,-160r4,4v-11,155,-49,311,-143,390v-35,30,-78,47,-131,47"},":":{"d":"446,-725r0,-315r-321,0r0,315r321,0xm125,-315r0,315r321,0r0,-315r-321,0","w":569},";":{"d":"446,-725r0,-315r-321,0r0,315r321,0xm272,0v1,105,-62,168,-145,190r0,148v178,-34,319,-134,319,-338r0,-315r-321,0r0,315r147,0","w":569},"<":{"d":"1135,-817r0,-236r-1041,414r0,242r1041,411r0,-233r-752,-299","w":1228},"=":{"d":"1133,-188r0,-220r-1035,0r0,220r1035,0xm1133,-627r0,-219r-1035,0r0,219r1035,0","w":1228},">":{"d":"94,-219r0,233r1041,-411r0,-242r-1041,-414r0,236r752,299","w":1228},"?":{"d":"395,-315r0,315r322,0r0,-315r-322,0xm578,-1257v114,0,174,64,174,184v0,123,-81,165,-152,221v-108,85,-191,203,-176,414r276,0v-4,-78,7,-138,40,-180v67,-86,172,-130,244,-213v73,-84,123,-255,64,-399v-69,-168,-235,-269,-485,-267v-242,2,-389,126,-460,303v-24,61,-36,129,-37,203r301,0v3,-153,59,-266,211,-266"},"@":{"d":"1163,-453v-58,0,-28,-96,-18,-135r129,-528r-168,0r-33,110v-52,-148,-278,-179,-423,-98v-153,86,-263,251,-263,477v0,159,86,268,198,323v127,62,293,14,345,-91r4,0v15,121,159,143,279,83v190,-94,352,-270,352,-560v0,-314,-203,-493,-445,-580v-183,-65,-396,-61,-569,14v-267,116,-477,341,-477,707v0,367,210,596,481,706v211,86,470,76,664,-27v109,-58,198,-139,268,-245r-172,0v-132,147,-445,220,-683,125v-214,-86,-362,-264,-362,-555v0,-284,137,-471,341,-560v208,-91,508,-33,633,84v92,85,163,202,161,374v-2,159,-59,285,-155,349v-28,19,-58,27,-87,27xm756,-471v-138,0,-192,-155,-142,-287v38,-98,107,-192,236,-196v90,-3,162,79,158,174v-5,128,-65,229,-151,280v-31,19,-64,29,-101,29","w":1638},"A":{"d":"510,-565r190,-537r5,0r184,537r-379,0xm541,-1462r-553,1462r323,0r115,-326r547,0r110,326r334,0r-547,-1462r-329,0","w":1402,"k":{"y":37,"w":37,"v":37,"Y":152,"W":49,"V":94,"T":188}},"B":{"d":"985,-1044v0,121,-82,174,-197,174r-325,0r0,-342r301,0v128,0,221,38,221,168xm1296,-1100v2,-277,-191,-361,-467,-362r-688,0r0,1462r709,0v222,-4,394,-80,473,-232v29,-54,43,-118,43,-192v0,-197,-102,-326,-268,-371v121,-58,197,-141,198,-305xm1044,-442v0,143,-98,192,-237,192r-344,0r0,-401r350,0v142,1,231,61,231,209","w":1441},"C":{"d":"797,-1227v174,0,288,103,319,256r311,0v-31,-259,-184,-419,-402,-491v-168,-55,-381,-43,-530,24v-255,115,-417,355,-417,713v0,352,164,587,417,699v154,68,383,80,549,18v226,-83,368,-274,396,-555r-312,0v-23,185,-127,330,-331,327v-283,-4,-398,-211,-398,-489v0,-283,110,-502,398,-502","w":1517},"D":{"d":"1114,-709v-2,266,-113,439,-364,439r-287,0r0,-922r229,0v306,-2,424,179,422,483xm141,-1462r0,1462r631,0v345,-2,538,-179,623,-444v58,-181,53,-446,-10,-613v-92,-246,-289,-405,-613,-405r-631,0","w":1517},"E":{"d":"141,-1462r0,1462r1110,0r0,-270r-788,0r0,-359r708,0r0,-250r-708,0r0,-313r772,0r0,-270r-1094,0","w":1327},"F":{"d":"141,-1462r0,1462r322,0r0,-604r612,0r0,-250r-612,0r0,-338r706,0r0,-270r-1028,0","w":1214,"k":{"A":113,".":322,",":322}},"G":{"d":"797,33v181,0,309,-74,401,-199r33,166r205,0r0,-791r-615,0r0,240r324,0v-19,199,-131,318,-348,315v-283,-4,-398,-211,-398,-489v0,-283,110,-502,398,-502v169,0,277,96,309,246r307,0v-27,-257,-186,-411,-398,-482v-167,-56,-373,-41,-520,25v-255,115,-417,355,-417,713v0,352,163,589,417,699v89,39,190,59,302,59","w":1554},"H":{"d":"141,-1462r0,1462r322,0r0,-631r592,0r0,631r321,0r0,-1462r-321,0r0,561r-592,0r0,-561r-322,0","w":1517},"I":{"d":"141,-1462r0,1462r322,0r0,-1462r-322,0","w":604},"J":{"d":"506,-236v-171,0,-193,-137,-187,-309r-290,0v-1,127,-1,249,41,333v75,153,224,242,440,245v334,4,487,-174,487,-494r0,-1001r-321,0r0,987v3,137,-26,239,-170,239"},"K":{"d":"141,-1462r0,1462r322,0r0,-471r184,-186r440,657r404,0r-627,-885r572,-577r-402,0r-571,606r0,-606r-322,0","w":1478},"L":{"d":"141,-1462r0,1462r1035,0r0,-270r-713,0r0,-1192r-322,0","w":1214,"k":{"y":76,"Y":227,"W":113,"V":188,"T":188}},"M":{"d":"141,-1462r0,1462r301,0r0,-1026r4,0r359,1026r248,0r358,-1036r4,0r0,1036r301,0r0,-1462r-452,0r-324,1005r-4,0r-342,-1005r-453,0","w":1857},"N":{"d":"141,-1462r0,1462r301,0r0,-979r4,0r609,979r321,0r0,-1462r-301,0r0,981r-4,0r-610,-981r-320,0","w":1517},"O":{"d":"797,-236v-283,0,-398,-211,-398,-489v0,-283,110,-502,398,-502v287,0,397,219,397,502v0,277,-115,489,-397,489xm127,-1029v-66,182,-66,420,0,602v99,270,312,460,670,460v359,0,570,-191,669,-460v67,-182,66,-420,0,-602v-99,-272,-306,-468,-669,-468v-361,0,-572,196,-670,468","w":1593},"P":{"d":"995,-993v0,170,-115,219,-282,219r-250,0r0,-438r250,0v166,-1,282,49,282,219xm141,-1462r0,1462r322,0r0,-524v198,-6,429,20,571,-40v167,-70,273,-209,273,-429v0,-304,-188,-469,-506,-469r-660,0","w":1366,"k":{"A":152,".":367,",":367}},"Q":{"d":"797,-1227v287,0,391,219,397,502v3,146,-32,255,-90,336r-166,-152r-150,160r138,125v-20,23,-86,20,-129,20v-283,0,-398,-211,-398,-489v0,-283,110,-502,398,-502xm1325,-186v113,-129,191,-310,191,-539v0,-356,-163,-598,-416,-713v-172,-78,-433,-78,-605,0v-255,115,-417,355,-417,713v0,352,164,587,417,699v192,85,489,77,656,-25r207,186r149,-155","w":1593},"R":{"d":"1036,-1010v0,149,-73,208,-221,209r-352,0r0,-411r352,0v145,1,221,57,221,202xm1126,-692v151,-58,232,-175,232,-367v0,-193,-108,-312,-251,-372v-53,-22,-111,-31,-177,-31r-789,0r0,1462r322,0r0,-571r321,0v170,1,219,72,244,221v19,112,13,258,51,350r322,0v-92,-133,-27,-408,-113,-558v-35,-62,-84,-110,-162,-130r0,-4","w":1478,"k":{"Y":76,"W":37,"V":37,"T":37}},"S":{"d":"684,-215v-188,0,-321,-79,-324,-270r-311,0v0,281,165,426,388,488v244,68,552,16,688,-102v89,-77,155,-183,155,-335v0,-432,-486,-400,-790,-529v-57,-24,-80,-48,-80,-118v0,-121,100,-164,221,-166v170,-2,280,58,289,221r311,0v-7,-338,-251,-471,-586,-471v-231,0,-410,94,-499,247v-56,97,-62,265,-10,366v116,225,449,236,695,329v73,27,138,67,138,158v0,143,-141,182,-285,182","w":1329},"T":{"d":"465,-1192r0,1192r321,0r0,-1192r439,0r0,-270r-1198,0r0,270r438,0","w":1251,"k":{"y":227,"w":227,"u":188,"s":227,"r":188,"o":227,"e":227,"c":227,"a":227,"A":188,";":227,":":227,".":227,"-":264,",":227}},"U":{"d":"758,33v388,0,624,-190,624,-586r0,-909r-321,0r0,909v-4,223,-73,315,-303,317v-214,1,-301,-109,-301,-317r0,-909r-322,0r0,909v-3,398,229,586,623,586","w":1517},"V":{"d":"821,0r486,-1462r-332,0r-330,1028r-4,0r-326,-1028r-329,0r473,1462r362,0","w":1290,"k":{"y":37,"u":76,"r":76,"o":113,"i":37,"e":113,"a":113,"A":94,";":94,":":94,".":264,"-":113,",":264}},"W":{"d":"1534,0r393,-1462r-315,0r-240,1007r-4,0r-250,-1007r-301,0r-254,995r-4,0r-231,-995r-322,0r387,1462r326,0r244,-995r4,0r247,995r320,0","w":1933,"k":{"u":37,"r":37,"o":117,"e":117,"a":76,"A":49,";":37,":":37,".":152,",":152}},"X":{"d":"500,-766r-510,766r360,0r326,-506r319,506r383,0r-510,-764r469,-698r-352,0r-297,467r-287,-467r-372,0","w":1366},"Y":{"d":"520,-569r0,569r322,0r0,-561r542,-901r-358,0r-340,577r-342,-577r-360,0","w":1366,"k":{"v":113,"u":152,"q":188,"p":152,"o":227,"i":76,"e":227,"a":188,"A":152,";":188,":":188,".":285,"-":227,",":285}},"Z":{"d":"47,-254r0,254r1233,0r0,-270r-805,0r785,-938r0,-254r-1151,0r0,270r722,0","w":1327},"[":{"d":"139,-1497r0,1868r541,0r0,-230r-250,0r0,-1409r250,0r0,-229r-541,0","w":681},"\\":{"d":"782,33r-571,-1530r-231,0r569,1530r233,0","w":759},"]":{"d":"543,371r0,-1868r-541,0r0,229r250,0r0,1409r-250,0r0,230r541,0","w":681},"^":{"d":"477,-1434r-352,789r240,0r249,-563r250,563r240,0r-352,-789r-275,0","w":1228},"_":{"d":"0,152r0,102r1024,0r0,-102r-1024,0","w":1024},"`":{"d":"223,-1481r197,291r-203,0r-313,-291r319,0","w":530},"a":{"d":"1098,0v-31,-48,-36,-152,-37,-236r0,-550v-4,-246,-220,-301,-465,-301v-272,0,-478,95,-498,354r291,0v9,-112,75,-159,193,-160v112,0,189,29,188,143v-2,106,-116,111,-217,123v-244,29,-490,61,-487,338v2,219,145,316,360,316v149,0,277,-42,356,-129v3,37,11,71,21,102r295,0xm535,-166v-102,-1,-179,-33,-179,-135v0,-207,285,-126,414,-217r0,108v-1,150,-71,246,-235,244","w":1175},"b":{"d":"391,-528v0,-184,65,-340,248,-340v185,0,248,156,248,340v0,183,-65,338,-248,338v-181,0,-248,-155,-248,-338xm897,-1055v-180,-80,-414,-10,-491,125r-5,0r0,-532r-290,0r0,1462r276,0r0,-135r4,0v69,150,322,207,506,129v179,-76,281,-259,281,-524v0,-266,-102,-446,-281,-525","w":1251},"c":{"d":"610,-190v-216,-3,-270,-240,-229,-454v23,-120,91,-224,235,-224v124,0,196,60,215,182r285,0v-14,-210,-144,-326,-316,-377v-132,-39,-297,-31,-411,19v-193,84,-311,262,-311,530v0,257,127,424,316,501v185,75,434,41,564,-71v88,-76,145,-181,164,-322r-280,0v-19,127,-89,218,-232,216","w":1175},"d":{"d":"371,-408v-49,-218,12,-463,241,-460v188,3,250,147,250,336v0,190,-60,342,-250,342v-143,0,-214,-99,-241,-218xm541,27v154,0,260,-56,321,-162r4,0r0,135r277,0r0,-1462r-291,0r0,532r-4,0v-56,-94,-174,-157,-313,-157v-247,0,-384,148,-440,343v-87,305,21,624,237,725v61,29,130,46,209,46","w":1251},"e":{"d":"350,-643v14,-133,89,-226,242,-225v155,1,204,88,231,225r-473,0xm840,-328v-22,72,-125,141,-230,138v-174,-5,-253,-91,-260,-269r764,0v14,-279,-93,-478,-278,-576v-124,-66,-323,-68,-456,-9v-189,84,-321,252,-321,516v0,264,123,437,316,515v165,67,399,48,532,-42v84,-57,148,-146,189,-273r-256,0","w":1175},"f":{"d":"528,-1462v-221,-5,-351,119,-354,321r0,82r-174,0r0,195r174,0r0,864r291,0r0,-864r201,0r0,-195r-201,0v-4,-107,2,-184,110,-184v37,0,73,2,107,6r0,-217","w":681,"k":{"f":37}},"g":{"d":"852,-543v0,169,-79,293,-248,293v-210,0,-267,-228,-222,-431v23,-105,92,-187,222,-187v188,0,248,139,248,325xm618,205v-114,-3,-195,-43,-217,-146r-288,0v24,237,218,333,467,340v220,7,363,-64,456,-169v65,-73,92,-183,92,-298r0,-991r-276,0r0,141r-4,0v-62,-111,-157,-169,-316,-169v-236,0,-365,143,-424,326v-64,196,-21,454,76,574v74,91,183,157,346,156v142,-1,266,-62,318,-164r4,0r0,140v2,153,-75,264,-234,260","w":1251},"h":{"d":"717,-1087v-137,3,-252,72,-309,176r-7,0r0,-551r-290,0r0,1462r290,0r0,-555v3,-196,48,-303,226,-303v153,0,186,99,186,260r0,598r291,0r0,-651v2,-278,-102,-442,-387,-436","w":1214},"i":{"d":"410,-1223r0,-239r-291,0r0,239r291,0xm119,-1059r0,1059r291,0r0,-1059r-291,0","w":528},"j":{"d":"428,-1223r0,-239r-291,0r0,239r291,0xm137,37v9,98,-98,103,-174,86r0,239v27,5,58,9,92,9v245,3,373,-77,373,-320r0,-1110r-291,0r0,1096","w":569},"k":{"d":"137,-1462r0,1462r291,0r0,-365r113,-108r290,473r353,0r-445,-670r400,-389r-344,0r-367,381r0,-784r-291,0","w":1175},"l":{"d":"119,-1462r0,1462r291,0r0,-1462r-291,0","w":528},"m":{"d":"721,-1087v-155,0,-255,74,-324,172r-4,0r0,-144r-274,0r0,1059r291,0r0,-614v-1,-148,68,-236,196,-244v159,-10,176,112,176,264r0,594r291,0r0,-590v1,-151,41,-268,195,-268v152,0,178,107,178,258r0,600r291,0r0,-709v-1,-254,-136,-376,-387,-378v-150,-1,-259,88,-320,176v-49,-120,-156,-176,-309,-176","w":1855},"n":{"d":"717,-1087v-146,2,-265,70,-324,176r-6,0r0,-148r-276,0r0,1059r290,0r0,-555v3,-196,48,-303,226,-303v153,0,186,99,186,260r0,598r291,0r0,-651v2,-278,-102,-442,-387,-436","w":1214},"o":{"d":"625,-190v-232,2,-286,-237,-244,-463v23,-124,95,-215,244,-215v193,0,258,150,258,340v0,189,-66,336,-258,338xm117,-759v-52,133,-52,328,0,460v77,197,241,326,508,326v267,0,434,-129,510,-326v52,-132,52,-327,0,-460v-77,-198,-242,-328,-510,-328v-268,0,-432,130,-508,328","w":1251},"p":{"d":"884,-651v45,221,-10,462,-239,461v-228,-1,-284,-239,-242,-463v23,-122,93,-215,240,-215v146,0,216,96,241,217xm707,-1087v-149,1,-256,60,-316,163r-4,0r0,-135r-276,0r0,1430r290,0r0,-502r5,0v63,94,171,158,317,158v246,0,377,-148,436,-340v65,-212,14,-476,-88,-602v-79,-98,-191,-172,-364,-172","w":1251},"q":{"d":"608,-190v-189,0,-252,-152,-252,-338v0,-189,67,-340,258,-340v185,0,248,160,248,344v0,189,-65,334,-254,334xm361,-1v188,68,411,7,487,-132r4,0r0,504r291,0r0,-1430r-277,0r0,135r-4,0v-56,-108,-172,-163,-321,-163v-254,0,-387,155,-447,354v-44,146,-35,346,15,470v51,126,133,219,252,262","w":1251},"r":{"d":"729,-1087v-174,6,-281,99,-338,225r-4,0r0,-197r-276,0r0,1059r290,0r0,-477v2,-204,80,-340,287,-340v34,0,77,4,105,10r0,-270v-23,-7,-45,-10,-64,-10","w":796,"k":{"q":37,"o":37,"n":-37,"g":57,"e":37,"d":37,"c":37,".":188,"-":113,",":188}},"s":{"d":"559,-166v-126,0,-219,-53,-223,-178r-277,0v9,327,346,415,675,353v176,-33,306,-138,306,-349v0,-293,-335,-276,-562,-351v-53,-17,-103,-42,-103,-104v0,-83,80,-98,162,-98v107,0,194,34,198,143r277,0v-22,-244,-206,-337,-467,-337v-257,0,-459,79,-461,339v-2,291,387,266,579,349v57,25,87,54,87,98v0,100,-92,135,-191,135","w":1099},"t":{"d":"602,-217v-100,0,-123,-23,-123,-123r0,-524r213,0r0,-195r-213,0r0,-317r-291,0r0,317r-176,0r0,195r176,0r0,624v-11,260,259,267,504,240r0,-225v-28,6,-57,8,-90,8","w":720},"u":{"d":"498,27v145,-4,264,-67,323,-174r6,0r0,147r277,0r0,-1059r-291,0r0,555v-2,197,-46,303,-225,303v-154,0,-187,-99,-187,-260r0,-598r-290,0r0,651v-4,281,102,440,387,435","w":1214},"v":{"d":"696,0r359,-1059r-289,0r-223,723r-4,0r-224,-723r-305,0r363,1059r323,0","w":1064,"k":{".":152,",":152}},"w":{"d":"1321,0r334,-1059r-299,0r-195,717r-4,0r-180,-717r-283,0r-176,719r-4,0r-195,-719r-307,0r336,1059r301,0r180,-711r5,0r188,711r299,0","w":1667,"k":{".":113,",":113}},"x":{"d":"381,-557r-381,557r326,0r221,-334r221,334r332,0r-391,-563r348,-496r-322,0r-184,277r-186,-277r-332,0","w":1099},"y":{"d":"268,371v214,-3,303,-76,365,-240r442,-1190r-301,0r-231,725r-4,0r-240,-725r-309,0r370,993v36,88,-9,194,-100,197v-59,2,-116,-5,-170,-10r0,239v30,3,60,6,89,8v29,2,59,3,89,3","w":1062,"k":{".":152,",":152}},"z":{"d":"45,-219r0,219r973,0r0,-219r-590,0r551,-621r0,-219r-893,0r0,219r510,0","w":1062},"{":{"d":"461,-1118v-1,-85,24,-149,110,-150r111,0r0,-229v-117,6,-247,-20,-339,17v-95,38,-173,124,-173,259r0,385v-2,116,-80,176,-186,185r0,178v101,9,186,60,186,170r0,397v6,162,104,277,252,277r260,0r0,-230r-111,0v-86,1,-110,-64,-110,-147r0,-328v-3,-138,-85,-206,-203,-225r0,-6v123,-17,203,-93,203,-242r0,-311","w":681},"|":{"d":"119,-1610r0,2046r219,0r0,-2046r-219,0","w":456},"}":{"d":"221,-6v0,83,-24,148,-110,147r-111,0r0,230v117,-7,247,19,339,-18v96,-39,173,-124,173,-259r0,-397v3,-111,85,-162,188,-170r0,-178v-108,-8,-188,-68,-188,-185r0,-385v-2,-135,-79,-217,-173,-259v-29,-12,-56,-17,-79,-17r-260,0r0,229r111,0v86,1,110,64,110,150r0,311v-1,150,79,225,203,242r0,6v-116,17,-203,88,-203,225r0,328","w":681},"~":{"d":"391,-477v215,-8,309,196,530,124v80,-26,125,-97,171,-161r-82,-191v-46,63,-80,148,-181,148v-178,0,-320,-190,-527,-124v-80,25,-130,89,-165,161r82,190v34,-69,74,-143,172,-147","w":1228},"\u00a0":{"w":569}}});
/*!
 * The following copyright notice may not be removed under any circumstances.
 * 
 * Copyright:
 * Copyright (c) 1981, 1982, 1983, 1989 and 1993, Linotype Library GmbH or its
 * affiliated Linotype-Hell companies. All rights reserved.
 * 
 * The digitally encoded machine readable software for producing the Typefaces
 * licensed to you is now the property of Heidelberger Druckmaschinen AG and its
 * licensors, and may not be reproduced, used, displayed, modified, disclosed or
 * transferred without the express written approval of Heidelberger Druckmaschinen
 * AG.
 * 
 * Copyright (c) 1988, 1990, 1993 Adobe Systems Incorporated. All Rights Reserved.
 * 
 * Trademark:
 * "Helvetica Neue" is a trademark of Heidelberger Druckmaschinen AG, which may be
 * registered in certain jurisdictions, exclusivly licensed through Linotype
 * Library GmbH, a wholly owned subsidiary of Heidelberger Druckmaschinen AG.
 * 
 * Description:
 * Helvetica (Latin for Swiss) has the objective and functional style which was
 * associated with Swiss typography in the 1950s and 1960s. It is perfect for
 * international correspondence: no ornament, no emotion, just clear presentation
 * of information. Helvetica is still one of the best selling sans-serif fonts.
 * 
 * Vendor URL:
 * http://www.LinotypeLibrary.com/
 */
Cufon.registerFont({"w":1138,"face":{"font-family":"Helvetica Neue","font-weight":400,"font-style":"italic","font-stretch":"normal","units-per-em":"2048","panose-1":"2 0 5 3 0 0 0 9 0 4","ascent":"1638","descent":"-410","x-height":"23","bbox":"-260 -1626 2013 436","underline-thickness":"102.4","underline-position":"-153.6","slope":"-12","unicode-range":"U+0020-U+007E"},"glyphs":{" ":{"w":569},"!":{"d":"420,-1006r96,-456r-190,0r-97,456r-88,631r95,0xm49,-227r-49,227r227,0r49,-227r-227,0","w":530},"\"":{"d":"586,-1462r0,528r139,0r0,-528r-139,0xm299,-1462r0,528r139,0r0,-528r-139,0","w":872},"#":{"d":"473,-868r250,0r-43,307r-250,0xm268,-422r-59,422r141,0r60,-422r252,0r-60,422r141,0r60,-422r190,0r19,-139r-191,0r43,-307r187,0r18,-140r-186,0r59,-419r-141,0r-60,419r-249,0r59,-419r-141,0r-60,419r-209,0r-18,140r207,0r-43,307r-199,0r-18,139r198,0"},"$":{"d":"-18,-479v-14,289,116,465,370,502r-37,174r109,0r35,-164v254,29,445,-77,542,-240v37,-61,56,-133,56,-215v0,-187,-104,-310,-312,-369r-110,-38r100,-504v122,41,184,134,178,303r185,0v13,-263,-136,-394,-332,-455r29,-141r-109,0r-27,129v-233,-17,-399,88,-482,245v-29,57,-44,119,-44,189v1,245,174,320,363,379r-111,551v-157,-33,-231,-148,-221,-346r-182,0xm600,-659v136,45,278,67,272,256v-6,169,-134,255,-277,284v-43,9,-79,7,-106,0xm629,-1343r-99,487v-97,-38,-216,-94,-213,-227v4,-181,137,-252,312,-260"},"%":{"d":"162,-930v-3,185,113,297,295,297v146,0,235,-81,294,-174v56,-90,89,-215,89,-348v0,-198,-100,-297,-299,-297v-215,0,-309,172,-357,347v-17,61,-22,119,-22,175xm1352,-88v-229,0,-170,-309,-104,-446v35,-73,91,-147,192,-148v100,0,149,58,149,174v0,154,-39,305,-125,379v-30,27,-67,41,-112,41xm1051,-272v0,186,113,298,295,295v217,-3,315,-163,361,-340v16,-61,22,-122,22,-181v0,-198,-100,-297,-299,-297v-214,0,-309,172,-357,348v-16,61,-22,119,-22,175xm1319,-1485r-891,1540r131,0r891,-1540r-131,0xm463,-745v-229,0,-171,-309,-104,-446v36,-73,91,-147,192,-148v100,0,149,58,149,174v0,154,-40,304,-125,379v-30,27,-67,41,-112,41","w":1896},"&":{"d":"596,-889v-40,-70,-92,-135,-92,-239v0,-112,81,-181,188,-181v89,0,168,61,162,152v-11,153,-155,202,-258,268xm451,23v188,0,311,-79,417,-175r90,152r199,0r-174,-266v102,-123,169,-234,211,-424r-168,0v-14,106,-77,225,-129,297r-229,-377v127,-69,258,-147,326,-276v23,-42,34,-87,34,-138v0,-236,-256,-327,-480,-255v-126,40,-215,136,-218,300v-2,137,69,237,121,324v-145,75,-295,155,-371,299v-47,88,-48,230,-5,321v61,133,188,218,376,218xm469,-129v-143,0,-252,-76,-252,-217v0,-202,174,-269,309,-346r260,426v-96,76,-163,137,-317,137","w":1290},"'":{"d":"291,-1462r0,528r139,0r0,-528r-139,0","w":569},"(":{"d":"72,-348v0,289,73,546,166,751r114,0v-72,-203,-106,-420,-106,-677v0,-556,241,-904,497,-1223r-143,0v-259,303,-528,607,-528,1149","w":530},")":{"d":"258,-815v0,551,-236,907,-496,1218r144,0v254,-308,526,-603,526,-1144v0,-292,-76,-545,-166,-756r-114,0v71,204,106,426,106,682","w":530},"*":{"d":"506,-1231r51,-231r-111,0r-45,215r-196,-101r-51,95r194,98r-158,172r76,76r160,-178r96,211r101,-48r-101,-204r219,-29r-10,-98","w":720},"+":{"d":"684,-588r0,-448r-139,0r0,448r-447,0r0,139r447,0r0,449r139,0r0,-449r446,0r0,-139r-446,0","w":1228},",":{"d":"80,-227r-49,227r114,0v-26,93,-51,186,-155,201r-21,98v274,-16,283,-292,338,-526r-227,0","w":569},"-":{"d":"86,-651r-33,164r594,0r33,-164r-594,0","w":796},".":{"d":"80,-227r-49,227r227,0r49,-227r-227,0","w":569},"\/":{"d":"569,-1497r-604,1530r148,0r606,-1530r-150,0","w":681},"0":{"d":"471,-129v-289,-1,-255,-434,-192,-676v47,-178,118,-357,251,-449v42,-29,90,-44,142,-44v226,-4,235,221,221,444v-17,277,-101,550,-279,680v-42,30,-90,45,-143,45xm115,-921v-118,365,-112,955,338,944v174,-4,289,-83,374,-181v152,-175,250,-440,250,-745v0,-194,-36,-332,-100,-420v-98,-135,-329,-164,-496,-84v-188,90,-299,278,-366,486"},"1":{"d":"752,-1452v-84,151,-246,242,-469,250r-29,139v146,0,250,-12,375,-41r-236,1104r185,0r309,-1452r-135,0"},"2":{"d":"641,-1298v150,-1,246,90,244,243v-2,162,-96,234,-189,307v-273,213,-670,299,-706,748r923,0r33,-154r-756,0v96,-212,325,-293,515,-412v137,-86,267,-184,333,-338v40,-94,40,-230,0,-323v-60,-138,-185,-225,-376,-225v-328,0,-487,195,-523,494r185,0v10,-149,76,-261,186,-313v38,-18,82,-27,131,-27"},"3":{"d":"870,-1098v0,226,-176,282,-401,271r-31,139v200,-2,366,35,361,239v-5,205,-131,316,-336,320v-200,4,-282,-121,-277,-320r-184,0v-6,313,160,472,457,472v259,0,419,-134,492,-319v76,-195,15,-403,-156,-462v142,-47,255,-151,260,-332v6,-250,-171,-362,-420,-362v-303,0,-446,186,-490,448r185,0v20,-185,110,-291,295,-294v147,-2,245,48,245,200"},"4":{"d":"629,-340r-74,340r174,0r74,-340r192,0r31,-154r-192,0r200,-958r-147,0r-860,940r-33,172r635,0xm193,-494r600,-657r4,0r-138,657r-466,0"},"5":{"d":"764,-923v-132,-60,-337,-33,-430,46r-4,-4r114,-393r596,0r31,-153r-735,0r-225,765r155,0v42,-79,145,-139,258,-141v188,-1,290,106,289,293v-1,174,-77,294,-201,351v-44,20,-94,30,-151,30v-175,0,-262,-87,-262,-260r-185,0v-3,263,176,412,437,412v261,0,431,-129,507,-319v71,-177,39,-427,-66,-534v-37,-37,-77,-70,-128,-93"},"6":{"d":"707,-1298v156,-1,221,74,225,223r184,0v-4,-236,-141,-379,-381,-377v-427,1,-560,325,-643,680v-22,94,-33,202,-33,307v0,298,137,488,437,488v257,0,409,-133,482,-321v44,-113,51,-263,6,-377v-59,-147,-181,-259,-380,-259v-136,0,-260,53,-317,146r-4,0v50,-177,112,-369,251,-461v48,-32,105,-49,173,-49xm563,-780v220,-7,311,207,247,419v-40,131,-131,225,-298,232v-230,9,-314,-220,-248,-431v40,-126,134,-215,299,-220"},"7":{"d":"397,0v164,-492,422,-958,758,-1282r25,-145r-936,0r-35,153r756,0v-334,353,-607,769,-766,1274r198,0"},"8":{"d":"803,-766v145,-31,262,-156,260,-326v-2,-184,-113,-286,-254,-335v-165,-57,-369,-7,-464,75v-74,64,-132,156,-132,289v0,124,87,229,180,268r0,4v-200,35,-352,174,-348,404v4,282,199,410,477,410v220,0,370,-108,446,-261v27,-55,40,-115,40,-182v0,-165,-75,-291,-205,-342r0,-4xm823,-426v0,185,-133,298,-313,297v-164,-1,-281,-89,-281,-260v0,-193,136,-299,326,-299v166,0,268,102,268,262xm643,-842v-142,-2,-246,-65,-246,-215v0,-145,104,-241,250,-241v147,0,232,74,232,221v0,137,-99,237,-236,235"},"9":{"d":"403,-129v-146,2,-208,-76,-210,-217r-185,0v-2,253,148,369,398,369v311,0,439,-180,536,-400v69,-156,121,-377,121,-588v0,-302,-142,-487,-447,-487v-250,0,-399,143,-470,329v-43,113,-51,259,-6,373v58,149,180,261,378,261v136,0,263,-52,320,-144r4,4v-55,174,-121,361,-262,452v-49,31,-107,48,-177,48xm879,-1001v0,210,-107,350,-318,358v-220,9,-312,-204,-247,-413v40,-128,120,-239,284,-242v187,-4,281,116,281,297"},":":{"d":"432,-831r47,-228r-229,0r-47,228r229,0xm76,-227r-45,227r229,0r47,-227r-231,0","w":569},";":{"d":"430,-831r49,-228r-227,0r-49,228r227,0xm80,-227r-49,227r114,0v-26,93,-51,186,-155,201r-21,98v274,-16,283,-292,338,-526r-227,0","w":569},"<":{"d":"1135,-913r0,-140r-1041,471r0,127r1041,469r0,-137r-871,-395","w":1228},"=":{"d":"98,-381r0,139r1032,0r0,-139r-1032,0xm1130,-655r0,-140r-1032,0r0,140r1032,0","w":1228},">":{"d":"94,-123r0,137r1041,-469r0,-127r-1041,-471r0,140r871,395","w":1228},"?":{"d":"346,-227r-49,227r227,0r49,-227r-227,0xm1096,-1141v0,-234,-191,-338,-424,-338v-232,0,-376,124,-451,289v-27,59,-41,123,-45,191r174,0v23,-188,121,-326,326,-326v140,0,240,69,235,215v-7,214,-200,277,-318,379v-101,88,-169,198,-192,356r170,0v12,-70,32,-130,70,-176v157,-189,455,-244,455,-590"},"@":{"d":"1366,-326v-102,134,-289,248,-508,248v-298,0,-488,-175,-583,-393v-67,-154,-68,-354,-2,-510v93,-221,275,-403,575,-403v253,0,423,130,509,309v54,112,61,256,19,385v-34,105,-87,200,-158,262v-33,29,-67,43,-98,43v-75,0,-41,-117,-26,-168r172,-582r-129,0r-47,129v-37,-105,-111,-168,-230,-168v-159,0,-271,90,-349,185v-114,138,-197,467,-51,627v47,52,118,93,212,94v111,1,198,-77,254,-138r6,0v2,82,54,134,131,134v217,0,353,-178,431,-352v66,-148,64,-354,-7,-497v-108,-221,-325,-376,-641,-376v-357,0,-584,207,-700,464v-82,181,-79,417,-1,600v79,187,221,324,407,406v207,92,502,67,672,-33v111,-65,207,-153,271,-266r-129,0xm709,-408v-106,0,-181,-91,-177,-198v6,-170,88,-311,196,-386v56,-39,130,-60,195,-26v58,30,103,88,103,174v0,166,-90,313,-192,392v-38,29,-80,44,-125,44","w":1638},"A":{"d":"768,-1462r-879,1462r215,0r256,-440r617,0r67,440r201,0r-264,-1462r-213,0xm449,-604r391,-686r4,0r108,686r-503,0","w":1366,"k":{"y":37,"w":37,"v":37,"Y":152,"W":49,"V":94,"T":188}},"B":{"d":"834,-1298v152,1,286,28,286,186v0,186,-103,278,-311,278r-434,0r98,-464r361,0xm1315,-1112v0,-243,-143,-350,-408,-350r-588,0r-305,1462r723,0v233,-4,400,-102,478,-264v27,-56,40,-119,40,-189v2,-160,-92,-268,-219,-303r0,-4v171,-34,279,-160,279,-352xm760,-670v172,-1,302,43,301,217v-2,210,-151,289,-354,289r-471,0r106,-506r418,0","w":1402},"C":{"d":"78,-606v-3,402,226,639,627,639v374,0,576,-215,647,-527r-195,0v-58,215,-193,365,-452,365v-296,0,-433,-184,-433,-477v0,-312,132,-546,341,-663v76,-43,166,-64,268,-64v214,0,368,118,362,342r195,0v-7,-340,-220,-506,-557,-506v-404,0,-638,244,-748,552v-38,107,-55,220,-55,339","w":1478},"D":{"d":"791,-1298v277,-2,403,147,403,415v0,312,-135,539,-345,657v-151,85,-385,56,-609,62r239,-1134r312,0xm1389,-903v0,-348,-196,-559,-553,-559r-512,0r-310,1462r561,0v407,-6,641,-221,754,-529v40,-111,60,-236,60,-374","w":1441},"E":{"d":"324,-1462r-310,1462r1018,0r37,-164r-823,0r106,-506r760,0r33,-164r-758,0r98,-464r813,0r33,-164r-1007,0","w":1251},"F":{"d":"319,-1462r-305,1462r195,0r139,-670r676,0r35,-164r-676,0r96,-464r768,0r35,-164r-963,0","w":1175,"k":{"A":113,".":322,",":322}},"G":{"d":"705,33v183,-1,340,-70,436,-178r12,145r123,0r160,-770r-637,0r-33,164r467,0v-69,266,-198,477,-528,477v-296,0,-433,-184,-433,-477v0,-312,134,-543,341,-663v148,-86,419,-84,544,15v66,53,117,130,117,246r194,0v-7,-344,-245,-489,-587,-489v-404,0,-638,244,-748,552v-38,107,-55,220,-55,339v-3,402,226,642,627,639","w":1554},"H":{"d":"322,-1462r-308,1462r195,0r141,-670r766,0r-141,670r194,0r308,-1462r-195,0r-131,628r-766,0r133,-628r-196,0","w":1478},"I":{"d":"322,-1462r-308,1462r195,0r307,-1462r-194,0","w":530},"J":{"d":"-12,-367v-36,285,139,397,399,400v292,3,408,-153,457,-393r231,-1102r-192,0r-213,1001v-36,165,-81,332,-279,332v-135,0,-218,-60,-215,-199v1,-55,10,-103,21,-151r-197,0v-5,40,-8,77,-12,112","w":1062},"K":{"d":"324,-1462r-310,1462r195,0r104,-494r293,-247r400,741r215,0r-469,-860r704,-602r-260,0r-827,725r-4,-4r153,-721r-194,0","w":1366},"L":{"d":"322,-1462r-308,1462r969,0r35,-164r-772,0r270,-1298r-194,0","k":{"y":76,"Y":227,"W":113,"V":188,"T":188}},"M":{"d":"322,-1462r-308,1462r187,0r256,-1280r4,0r190,1280r187,0r745,-1280r4,0r-299,1280r187,0r309,-1462r-271,0r-722,1257r-5,0r-194,-1257r-270,0","w":1781},"N":{"d":"324,-1462r-310,1462r189,0r248,-1202r4,0r518,1202r209,0r309,-1462r-188,0r-244,1210r-4,0r-523,-1210r-208,0","w":1478},"O":{"d":"705,-129v-296,0,-433,-184,-433,-477v0,-312,133,-544,341,-663v118,-67,316,-90,447,-26v150,73,236,225,236,445v0,306,-129,542,-335,657v-74,42,-159,64,-256,64xm78,-606v-3,402,226,645,627,639v398,-6,625,-247,732,-551v64,-182,78,-404,12,-586v-83,-229,-265,-393,-568,-393v-404,0,-638,244,-748,552v-38,107,-55,220,-55,339","w":1554},"P":{"d":"1135,-1059v0,184,-126,297,-324,297r-440,0r112,-536r412,0v155,2,240,81,240,239xm1329,-1059v5,-274,-157,-404,-434,-403r-576,0r-305,1462r195,0r127,-598v240,-8,531,28,703,-46v168,-72,286,-201,290,-415","w":1327,"k":{"A":152,".":367,",":367}},"Q":{"d":"705,-129v-296,-4,-433,-184,-433,-477v0,-312,133,-544,341,-663v118,-67,315,-86,447,-26v189,86,272,336,221,611v-33,180,-111,328,-228,426r-162,-158r-111,117r133,127v-61,29,-130,43,-208,43xm78,-606v-5,402,226,641,627,639v127,0,239,-26,339,-78r203,195r111,-115r-178,-170v182,-148,311,-407,311,-715v0,-299,-140,-502,-355,-597v-177,-78,-425,-59,-591,23v-281,139,-462,416,-467,818","w":1554},"R":{"d":"1368,-1090v0,-278,-206,-372,-481,-372r-563,0r-310,1462r195,0r131,-625r510,0v148,8,174,146,141,312v-23,116,-29,224,-4,313r203,0v-86,-159,54,-396,-24,-574v-25,-57,-66,-99,-128,-118r0,-4v199,-35,330,-173,330,-394xm1174,-1077v0,197,-142,288,-361,289r-438,0r108,-510r404,0v166,1,287,53,287,221","w":1402,"k":{"Y":76,"W":37,"V":37,"T":37}},"S":{"d":"727,-1333v216,-7,342,85,336,303r194,0v8,-251,-131,-381,-324,-439v-200,-60,-445,-15,-569,78v-91,68,-169,167,-169,318v0,355,364,356,626,455v87,33,160,88,160,208v0,201,-165,278,-367,281v-246,4,-401,-96,-389,-350r-194,0v-24,369,223,512,575,512v234,0,420,-95,517,-245v59,-91,66,-258,23,-363v-91,-222,-392,-225,-612,-316v-82,-34,-145,-90,-145,-203v0,-174,164,-233,338,-239","w":1327},"T":{"d":"1300,-1298r37,-164r-1179,0r-35,164r491,0r-274,1298r195,0r274,-1298r491,0","w":1175,"k":{"y":227,"w":227,"u":188,"s":227,"r":188,"o":227,"e":227,"c":227,"a":227,"A":188,";":227,":":227,".":227,"-":264,",":227}},"U":{"d":"1309,-586r182,-876r-195,0r-184,876v-53,256,-130,457,-446,457v-278,0,-410,-128,-347,-424r193,-909r-195,0r-182,860v-86,429,115,640,531,635v344,-4,541,-166,606,-457v12,-51,25,-105,37,-162","w":1478},"V":{"d":"590,0r825,-1462r-207,0r-694,1272r-4,0r-150,-1272r-198,0r209,1462r219,0","w":1251,"k":{"y":37,"u":76,"r":76,"o":113,"i":37,"e":113,"a":113,"A":94,";":94,":":94,".":264,"-":113,",":264}},"W":{"d":"1341,0r672,-1462r-201,0r-532,1235r-4,0r-82,-1235r-221,0r-561,1231r-4,0r-52,-1231r-192,0r92,1462r209,0r577,-1262r5,0r92,1262r202,0","w":1896,"k":{"u":37,"r":37,"o":117,"e":117,"a":76,"A":49,";":37,":":37,".":152,",":152}},"X":{"d":"545,-764r-633,764r221,0r500,-618r295,618r200,0r-370,-737r602,-725r-219,0r-469,577r-271,-577r-208,0","w":1251},"Y":{"d":"520,-588r-125,588r191,0r127,-588r708,-874r-225,0r-555,708r-299,-708r-207,0","w":1251,"k":{"v":113,"u":152,"q":188,"p":152,"o":227,"i":76,"e":227,"a":188,"A":152,";":188,":":188,".":285,"-":227,",":285}},"Z":{"d":"-41,-162r-35,162r1159,0r35,-164r-934,0r1106,-1132r35,-166r-1067,0r-41,164r838,0","w":1251},"[":{"d":"334,-1497r-391,1900r385,0r28,-133r-221,0r336,-1634r221,0r29,-133r-387,0","w":530},"\\":{"d":"719,33r-606,-1530r-148,0r604,1530r150,0","w":681},"]":{"d":"125,403r393,-1900r-387,0r-29,133r222,0r-334,1634r-221,0r-29,133r385,0","w":530},"^":{"d":"549,-1427r-447,886r146,0r364,-737r371,737r143,0r-446,-886r-131,0","w":1228},"_":{"d":"0,152r0,102r1024,0r0,-102r-1024,0","w":1024},"`":{"d":"500,-1204r-138,-293r-206,0r206,293r138,0","w":454},"a":{"d":"954,-813v-2,-214,-172,-270,-387,-270v-255,0,-421,119,-458,344r174,0v23,-132,133,-191,284,-191v109,0,209,28,213,139v6,157,-124,154,-266,168v-264,24,-535,54,-532,349v2,204,121,295,321,297v179,2,277,-52,354,-152r5,4v-18,115,79,170,191,140v21,-5,38,-10,52,-15r27,-129v-46,22,-107,21,-107,-51v0,-49,19,-110,29,-152r89,-384v8,-35,11,-67,11,-97xm344,-129v-94,0,-194,-49,-190,-147v11,-269,394,-153,575,-265r4,0v-28,102,-37,194,-92,273v-64,91,-159,139,-297,139","w":1062},"b":{"d":"688,-1083v-147,2,-252,69,-323,159r-5,-4r113,-534r-174,0r-307,1462r153,0r39,-197r4,0v42,140,178,220,357,220v191,0,319,-95,413,-201v148,-168,211,-587,43,-778v-68,-77,-168,-129,-313,-127xm688,-930v305,-2,276,449,143,629v-63,85,-148,172,-286,172v-167,1,-293,-97,-289,-264v5,-217,92,-396,236,-485v55,-34,120,-52,196,-52","w":1214},"c":{"d":"629,-930v135,-1,224,73,223,207r174,0v-6,-243,-153,-360,-397,-360v-300,0,-470,178,-548,407v-26,78,-38,159,-38,244v0,288,147,456,436,455v265,-2,428,-145,484,-369r-175,0v-45,122,-149,218,-309,217v-185,-2,-262,-119,-262,-303v0,-208,95,-372,235,-453v51,-30,110,-45,177,-45","w":1099},"d":{"d":"451,23v177,0,260,-57,350,-175r4,0r-37,152r164,0r309,-1462r-172,0r-113,565r-4,0v-52,-203,-392,-230,-578,-126v-198,111,-339,322,-339,613v0,273,145,433,416,433xm481,-129v-186,0,-272,-104,-272,-281v0,-215,95,-386,237,-472v52,-32,113,-48,183,-48v167,0,266,116,266,275v0,211,-100,386,-238,475v-52,34,-110,51,-176,51","w":1214},"e":{"d":"774,-332v-45,152,-218,247,-407,186v-98,-32,-172,-107,-172,-239v0,-31,2,-62,6,-92r796,0v7,-34,18,-91,17,-137v-2,-300,-140,-477,-449,-469v-270,7,-423,187,-500,404v-63,177,-64,434,48,559v75,84,189,147,356,143v263,-6,425,-135,479,-355r-174,0xm225,-631v53,-166,154,-299,367,-299v176,0,256,119,248,299r-615,0","w":1099},"f":{"d":"616,-1479v-267,-6,-290,212,-342,420r-180,0r-31,154r181,0r-197,905r174,0r195,-905r205,0r28,-154r-203,0v36,-125,40,-270,205,-266v28,0,56,5,82,10r29,-147v-42,-14,-92,-16,-146,-17","w":606,"k":{"f":37}},"g":{"d":"395,274v-145,0,-255,-39,-266,-174r-172,0v11,233,182,325,420,328v311,3,459,-162,524,-425v12,-50,27,-102,39,-157r190,-905r-163,0r-33,195v-3,1,-5,-1,-4,-4v-40,-137,-164,-212,-336,-215v-188,-3,-319,98,-405,210v-84,109,-146,267,-146,443v0,266,129,436,397,436v153,0,264,-57,330,-160r4,4v-55,212,-110,424,-379,424xm477,-145v-230,1,-301,-226,-235,-446v35,-118,98,-224,188,-288v46,-34,101,-51,162,-51v178,0,270,107,270,277v0,202,-85,372,-214,458v-49,32,-105,50,-171,50","w":1175},"h":{"d":"729,-1083v-167,1,-302,75,-377,184r-4,-4r125,-559r-174,0r-307,1462r172,0r123,-586v23,-86,59,-166,116,-221v61,-58,154,-122,263,-123v113,-1,202,59,181,184r-22,128r-135,618r174,0r129,-604v16,-64,31,-141,31,-207v0,-192,-98,-273,-295,-272"},"i":{"d":"426,-1249r45,-213r-176,0r-45,213r176,0xm211,-1059r-219,1059r172,0r221,-1059r-174,0","w":454},"j":{"d":"426,-1249r45,-213r-176,0r-45,213r176,0xm-98,240v-30,19,-82,7,-115,-2r-31,153v97,24,222,14,280,-42v39,-37,68,-86,83,-152r266,-1256r-174,0r-229,1110v-20,79,-26,154,-80,189","w":454},"k":{"d":"299,-1462r-307,1462r172,0r80,-377r209,-186r206,563r195,0r-262,-668r461,-391r-228,0r-532,461r-4,-4r182,-860r-172,0","w":985},"l":{"d":"297,-1462r-305,1462r172,0r307,-1462r-174,0","w":454},"m":{"d":"711,-1083v-166,0,-289,85,-369,186r-4,-4r39,-158r-162,0r-223,1059r172,0r119,-555v25,-112,42,-168,112,-240v57,-58,154,-134,260,-135v121,-2,165,86,139,211r-151,719r174,0r117,-547v22,-92,43,-176,98,-237v63,-71,142,-142,266,-146v107,-4,183,80,157,200r-159,730r174,0r154,-739v7,-40,10,-76,10,-107v-2,-172,-128,-237,-295,-237v-158,0,-292,90,-362,190v-25,-131,-121,-190,-266,-190","w":1744},"n":{"d":"729,-1083v-167,1,-302,75,-377,184r-4,0r33,-160r-168,0r-221,1059r172,0r123,-586v23,-86,59,-166,116,-221v61,-58,154,-122,263,-123v113,-1,202,59,181,184r-22,128r-135,618r174,0r129,-604v16,-64,31,-141,31,-207v0,-192,-98,-273,-295,-272"},"o":{"d":"1067,-645v1,-286,-154,-438,-440,-438v-199,0,-340,91,-436,202v-119,138,-207,414,-125,640v58,161,197,264,415,264v199,0,337,-90,432,-204v93,-111,153,-275,154,-464xm500,-129v-186,0,-291,-113,-291,-291v0,-209,93,-375,229,-461v51,-33,109,-49,176,-49v185,0,279,114,279,299v0,200,-95,367,-224,453v-48,32,-105,49,-169,49","w":1175},"p":{"d":"690,-1083v-178,0,-260,59,-350,176r-4,0r37,-152r-164,0r-307,1462r170,0r112,-565r4,0v51,204,394,228,579,125v198,-111,339,-321,339,-612v0,-271,-142,-434,-416,-434xm659,-930v187,0,273,105,273,281v0,215,-96,386,-238,472v-52,32,-112,48,-182,48v-166,0,-269,-114,-266,-274v4,-213,99,-386,237,-476v52,-34,110,-51,176,-51","w":1214},"q":{"d":"479,-129v-248,0,-313,-249,-243,-475v37,-119,105,-219,203,-279v50,-31,107,-47,171,-47v168,-1,276,95,273,260v-3,215,-87,396,-224,488v-51,35,-110,53,-180,53xm440,23v148,0,263,-67,334,-158r4,0r-114,538r176,0r309,-1462r-176,0r-35,168r-4,0v-50,-135,-171,-192,-342,-192v-287,0,-444,187,-519,409v-26,78,-38,158,-38,240v0,277,126,457,405,457","w":1214},"r":{"d":"713,-1083v-195,-1,-309,123,-385,252r-4,0r51,-228r-164,0r-219,1059r172,0r100,-469v49,-242,160,-453,469,-428r41,-186v-21,-6,-39,0,-61,0","w":681,"k":{"q":37,"o":37,"n":-37,"g":57,"e":37,"d":37,"c":37,".":188,"-":113,",":188}},"s":{"d":"508,-930v117,-2,229,61,219,182r174,0v-5,-233,-167,-335,-399,-335v-166,0,-295,65,-360,174v-38,64,-46,167,-10,235v82,153,299,180,448,266v45,26,88,55,88,117v0,124,-116,162,-242,162v-153,0,-277,-48,-270,-205r-172,0v-2,262,168,357,426,357v179,0,321,-61,393,-176v42,-67,54,-183,14,-258v-82,-155,-294,-187,-447,-271v-45,-25,-87,-52,-87,-113v0,-112,112,-133,225,-135","w":985},"t":{"d":"487,-160v-77,32,-232,36,-202,-88v3,-11,3,-23,4,-35r131,-622r211,0r33,-154r-211,0r65,-313r-174,0r-65,313r-179,0r-32,154r178,0r-140,657v-5,30,-10,55,-10,88v-3,176,195,184,361,160","w":645},"u":{"d":"326,23v167,0,302,-73,376,-183r5,0r-33,160r168,0r223,-1059r-174,0r-123,586v-34,143,-120,258,-243,315v-132,61,-349,30,-318,-154v7,-42,13,-91,22,-128r136,-619r-175,0r-129,604v-16,64,-30,141,-30,207v0,194,99,271,295,271"},"v":{"d":"424,0r588,-1059r-189,0r-458,881r-5,0r-90,-881r-184,0r152,1059r186,0","w":985,"k":{".":152,",":152}},"w":{"d":"1014,0r547,-1059r-189,0r-401,842r-4,0r-52,-842r-196,0r-381,842r-4,0r-66,-842r-184,0r125,1059r184,0r379,-823r4,0r53,823r185,0","w":1554,"k":{".":113,",":113}},"x":{"d":"360,-561r-493,561r209,0r360,-434r193,434r198,0r-270,-547r455,-512r-211,0r-316,385r-159,-385r-201,0","w":985},"y":{"d":"-127,401v58,32,169,35,236,8v108,-43,171,-135,225,-231r700,-1237r-190,0r-445,842r-4,0r-123,-842r-186,0r186,1059v-56,84,-103,190,-174,257v-46,44,-144,37,-194,3","w":985,"k":{".":152,",":152}},"z":{"d":"-82,-131r-24,131r860,0r28,-154r-632,0r743,-780r27,-125r-805,0r-31,154r569,0","w":909},"{":{"d":"352,-268v37,-127,-15,-256,-121,-275r2,-6v120,-40,208,-136,236,-274r76,-371v15,-76,50,-180,135,-180r102,0r27,-123v-83,3,-161,-11,-225,17v-98,44,-170,129,-195,251r-78,373v-23,101,-74,181,-152,224v-23,12,-45,18,-67,18r-31,139v106,-1,146,120,121,239r-78,371v-32,144,31,268,166,268r144,0r26,-122r-102,0v-83,1,-77,-109,-62,-181","w":681},"|":{"d":"158,-1610r0,2046r139,0r0,-2046r-139,0","w":454},"}":{"d":"270,-823v-35,127,15,256,121,274r-2,6v-118,40,-206,136,-235,275r-76,368v-19,83,-42,181,-133,181r-103,0r-26,122v82,-4,159,12,223,-17v99,-43,169,-130,194,-251r78,-371v24,-98,75,-180,153,-222v23,-12,44,-17,66,-17r31,-139v-107,0,-146,-123,-121,-242r78,-373v32,-144,-30,-268,-166,-268r-143,0r-27,123r103,0v83,-1,76,109,61,180","w":681},"~":{"d":"387,-522v211,-4,306,205,529,132v81,-26,127,-95,171,-161r-73,-102v-48,61,-79,155,-180,155v-70,0,-150,-58,-209,-82v-90,-37,-206,-90,-319,-50v-79,29,-130,89,-165,161r74,102v35,-70,72,-153,172,-155","w":1228},"\u00a0":{"w":569}}});
/*!
 * The following copyright notice may not be removed under any circumstances.
 * 
 * Copyright:
 * Copyright (c) 1981, 1982, 1983, 1989 and 1993, Linotype Library GmbH or its
 * affiliated Linotype-Hell companies. All rights reserved.
 * 
 * The digitally encoded machine readable software for producing the Typefaces
 * licensed to you is now the property of Heidelberger Druckmaschinen AG and its
 * licensors, and may not be reproduced, used, displayed, modified, disclosed or
 * transferred without the express written approval of Heidelberger Druckmaschinen
 * AG.
 * 
 * Copyright (c) 1988, 1990, 1993 Adobe Systems Incorporated. All Rights Reserved.
 * 
 * Trademark:
 * "Helvetica Neue" is a trademark of Heidelberger Druckmaschinen AG, which may be
 * registered in certain jurisdictions, exclusivly licensed through Linotype
 * Library GmbH, a wholly owned subsidiary of Heidelberger Druckmaschinen AG.
 * 
 * Description:
 * Helvetica (Latin for Swiss) has the objective and functional style which was
 * associated with Swiss typography in the 1950s and 1960s. It is perfect for
 * international correspondence: no ornament, no emotion, just clear presentation
 * of information. Helvetica is still one of the best selling sans-serif fonts.
 * 
 * Vendor URL:
 * http://www.LinotypeLibrary.com/
 */
Cufon.registerFont({"w":1138,"face":{"font-family":"Helvetica Neue","font-weight":700,"font-style":"italic","font-stretch":"normal","units-per-em":"2048","panose-1":"2 0 8 3 0 0 0 9 0 4","ascent":"1638","descent":"-410","x-height":"27","bbox":"-268 -1659 2075 436","underline-thickness":"102.4","underline-position":"-153.6","slope":"-12","unicode-range":"U+0020-U+007E"},"glyphs":{" ":{"w":569},"!":{"d":"530,-1065r86,-397r-309,0r-84,397r-51,627r143,0xm59,-315r-65,315r321,0r68,-315r-324,0","w":606},"\"":{"d":"260,-1462r0,657r219,0r0,-657r-219,0xm641,-1462r0,657r219,0r0,-657r-219,0","w":985},"#":{"d":"483,-844r197,0r-35,254r-199,0xm223,-406r-57,406r199,0r57,-406r196,0r-55,406r199,0r55,-406r178,0r21,-184r-172,0r35,-254r178,0r20,-184r-172,0r56,-406r-199,0r-55,406r-199,0r57,-406r-198,0r-58,406r-174,0r-20,184r170,0r-37,254r-174,0r-21,184r170,0"},"$":{"d":"12,-492v-7,325,127,484,406,519r-37,184r100,0r35,-178v244,-3,425,-99,515,-265v54,-100,66,-293,19,-403v-61,-142,-208,-194,-362,-242r68,-362v71,33,125,91,116,203r281,0v17,-270,-136,-398,-348,-447r35,-176r-99,0r-32,162v-241,2,-424,83,-513,244v-52,93,-59,266,-17,367v61,146,211,196,366,249r-82,422v-123,-26,-177,-112,-170,-277r-281,0xm430,-1077v0,-125,102,-178,232,-180r-66,348v-81,-30,-166,-65,-166,-168xm639,-606v80,34,162,76,162,188v0,142,-100,208,-240,213"},"%":{"d":"1829,-459v2,-207,-121,-311,-324,-311v-270,0,-389,207,-395,475v-4,188,105,326,301,322v217,-4,335,-135,390,-303v19,-59,28,-120,28,-183xm1425,-125v-120,1,-114,-129,-97,-242v13,-84,46,-162,95,-211v26,-26,59,-38,99,-38v150,0,94,243,55,346v-26,68,-68,144,-152,145xm1460,-1479r-1102,1522r177,0r1099,-1522r-174,0xm465,-817v-164,0,-107,-254,-65,-359v27,-66,73,-133,161,-133v150,0,94,243,55,346v-26,67,-67,146,-151,146xm868,-1151v2,-206,-120,-311,-323,-311v-210,0,-322,132,-371,299v-17,57,-24,116,-24,176v-1,189,106,328,301,323v217,-5,335,-136,390,-305v19,-59,27,-119,27,-182","w":1972},"&":{"d":"668,-930v-34,-58,-78,-117,-78,-205v0,-95,73,-146,158,-149v102,-4,164,121,107,209v-42,64,-118,110,-187,145xm481,27v181,0,281,-55,393,-142r66,115r320,0r-187,-287v114,-100,199,-245,232,-415r-261,0v-20,81,-54,152,-106,206r-158,-254v121,-63,242,-139,305,-262v40,-79,39,-203,-1,-280v-60,-116,-180,-187,-351,-187v-190,0,-315,85,-374,221v-20,47,-29,100,-29,160v-1,104,59,186,98,258v-155,62,-295,151,-362,300v-44,97,-43,242,4,336v71,140,210,231,411,231xm506,-211v-107,-3,-193,-58,-193,-164v0,-163,130,-208,234,-270r201,326v-62,45,-142,111,-242,108","w":1402},"'":{"d":"225,-1462r0,657r219,0r0,-657r-219,0","w":569},"(":{"d":"324,-166v0,-607,199,-973,469,-1331r-256,0v-256,326,-484,645,-484,1214v0,236,54,481,127,654r221,0v-35,-168,-77,-342,-77,-537","w":606},")":{"d":"240,-958v-1,603,-197,972,-467,1329r254,0v252,-329,483,-644,483,-1213v0,-236,-57,-478,-127,-655r-221,0v35,169,79,344,78,539","w":606},"*":{"d":"592,-1192r49,-262r-168,-8r-35,245r-223,-112r-70,149r222,107r-183,188r119,115r176,-199r113,224r147,-80r-116,-215r245,-37r-28,-162","w":833},"+":{"d":"98,-627r0,219r408,0r0,408r219,0r0,-408r408,0r0,-219r-408,0r0,-407r-219,0r0,407r-408,0","w":1228},",":{"d":"39,-315r-64,315r140,0v-25,115,-61,174,-181,195r-30,145v308,-7,383,-236,427,-505v9,-51,19,-101,31,-150r-323,0","w":569},"-":{"d":"109,-684r-54,250r617,0r53,-250r-616,0","w":833},".":{"d":"41,-315r-66,315r322,0r68,-315r-324,0","w":569},"\/":{"d":"567,-1497r-569,1530r231,0r572,-1530r-234,0","w":796},"0":{"d":"483,-211v-258,0,-210,-326,-170,-539v32,-171,92,-343,209,-431v37,-28,79,-42,127,-42v255,-1,225,322,177,541v-37,169,-93,342,-213,429v-38,28,-81,42,-130,42xm1149,-920v0,-329,-150,-542,-479,-542v-261,0,-408,147,-511,317v-100,165,-165,373,-165,623v0,321,129,549,452,549v270,0,423,-145,532,-316v105,-164,171,-376,171,-631"},"1":{"d":"662,0r303,-1434r-238,0v-81,185,-229,277,-481,285r-47,219r350,0r-197,930r310,0"},"2":{"d":"441,-1124v104,-141,411,-113,411,112v0,107,-63,171,-128,220v-306,229,-769,300,-808,792r1061,0r57,-250r-706,0v78,-86,204,-150,309,-214v174,-106,363,-201,461,-379v57,-105,57,-272,7,-380v-71,-153,-220,-238,-439,-239v-342,-2,-555,214,-576,544r277,0v3,-85,35,-153,74,-206"},"3":{"d":"844,-1044v0,176,-176,196,-363,190r-39,205v168,-10,308,16,308,178v0,162,-121,260,-277,260v-169,0,-253,-109,-233,-281r-275,0v-22,349,153,521,500,519v260,-2,454,-92,543,-269v31,-61,47,-134,47,-219v0,-164,-64,-251,-201,-293r0,-4v149,-28,274,-153,270,-329v-6,-270,-205,-375,-473,-375v-320,0,-518,188,-555,485r277,0v36,-153,97,-246,274,-246v118,0,197,60,197,179"},"4":{"d":"920,-571r182,-863r-283,0r-837,838r-54,264r664,0r-72,332r277,0r71,-332r191,0r51,-239r-190,0xm643,-571r-426,0r539,-551r4,0"},"5":{"d":"819,-945v-144,-60,-349,-27,-432,60r-4,-4r94,-305r610,0r52,-240r-848,0r-250,799r262,0v53,-76,113,-121,229,-121v158,0,245,82,244,244v-2,143,-73,237,-175,279v-156,64,-365,-5,-355,-185r-279,0v7,304,196,445,502,445v281,0,466,-132,553,-334v51,-118,63,-296,12,-419v-42,-102,-116,-178,-215,-219"},"6":{"d":"719,-1243v107,-1,181,74,182,180r281,0v-13,-268,-178,-399,-453,-399v-243,0,-407,118,-517,266v-117,155,-185,379,-185,641v0,357,149,582,508,582v260,0,428,-145,511,-334v50,-116,56,-278,12,-399v-57,-156,-187,-257,-394,-257v-141,0,-254,57,-316,152r-4,-4v48,-149,107,-310,229,-387v41,-26,90,-41,146,-41xm526,-211v-171,0,-262,-186,-200,-353v37,-99,110,-179,243,-179v146,0,228,86,228,241v0,165,-102,291,-271,291"},"7":{"d":"1157,-1184r53,-250r-1017,0r-58,271r705,0v-240,223,-449,531,-592,854v-48,108,-84,211,-109,309r310,0v94,-356,269,-684,474,-941v74,-94,152,-175,234,-243"},"8":{"d":"633,-856v-129,0,-234,-57,-234,-186v0,-133,99,-203,240,-201v133,2,227,59,227,194v0,130,-103,193,-233,193xm1073,-432v0,-164,-92,-281,-223,-322r0,-4v126,-26,218,-106,256,-216v75,-221,-69,-398,-242,-458v-190,-66,-452,-11,-568,81v-86,68,-156,164,-157,309v-1,129,89,223,178,266r0,4v-193,50,-356,142,-356,379v0,216,143,333,317,389v213,68,486,11,615,-89v97,-75,180,-178,180,-339xm782,-432v0,188,-189,285,-374,226v-87,-28,-150,-92,-158,-206v-18,-272,405,-330,510,-123v15,29,22,63,22,103"},"9":{"d":"438,-190v-106,1,-181,-75,-182,-181r-279,0v13,268,176,398,451,398v243,0,406,-117,517,-265v116,-155,185,-379,185,-641v0,-357,-150,-583,-507,-583v-261,0,-431,145,-511,337v-50,118,-58,275,-13,397v57,156,187,257,395,257v141,0,253,-57,315,-152r4,5v-49,149,-107,309,-229,387v-41,27,-90,41,-146,41xm360,-932v0,-195,164,-350,358,-272v80,32,132,109,132,223v0,168,-92,291,-262,291v-146,0,-228,-87,-228,-242"},":":{"d":"449,-725r67,-315r-323,0r-68,315r324,0xm41,-315r-66,315r322,0r68,-315r-324,0","w":569},";":{"d":"193,-1040r-68,315r324,0r67,-315r-323,0xm39,-315r-64,315r140,0v-25,115,-61,174,-181,195r-30,145v308,-7,383,-236,427,-505v9,-51,19,-101,31,-150r-323,0","w":569},"<":{"d":"1135,-817r0,-236r-1041,414r0,242r1041,411r0,-233r-752,-299","w":1228},"=":{"d":"1133,-188r0,-220r-1035,0r0,220r1035,0xm1133,-627r0,-219r-1035,0r0,219r1035,0","w":1228},">":{"d":"94,-219r0,233r1041,-411r0,-242r-1041,-414r0,236r752,299","w":1228},"?":{"d":"319,-315r-67,315r323,0r68,-315r-324,0xm684,-1257v99,0,181,54,178,159v-5,168,-173,212,-275,281v-119,80,-185,186,-208,366r270,0v19,-206,213,-248,342,-348v93,-73,176,-158,176,-319v0,-261,-186,-379,-446,-379v-254,0,-429,103,-517,276v-31,61,-48,133,-52,215r290,0v23,-136,86,-251,242,-251","w":1175},"@":{"d":"1163,-453v-58,0,-28,-96,-18,-135r129,-528r-168,0r-33,110v-52,-148,-278,-179,-423,-98v-153,86,-263,251,-263,477v0,159,86,268,198,323v127,62,293,14,345,-91r4,0v15,121,159,143,279,83v190,-94,352,-270,352,-560v0,-314,-203,-493,-445,-580v-183,-65,-396,-61,-569,14v-267,116,-477,341,-477,707v0,367,210,596,481,706v211,86,470,76,664,-27v109,-58,198,-139,268,-245r-172,0v-132,147,-445,220,-683,125v-214,-86,-362,-264,-362,-555v0,-284,137,-471,341,-560v131,-58,312,-61,454,-13v196,67,336,213,336,471v0,158,-60,284,-153,349v-27,19,-56,27,-85,27xm756,-471v-138,0,-192,-155,-142,-287v38,-98,107,-192,236,-196v90,-3,162,79,158,174v-5,128,-65,229,-151,280v-31,19,-64,29,-101,29","w":1638},"A":{"d":"707,-1462r-863,1462r338,0r185,-326r546,0r48,326r319,0r-244,-1462r-329,0xm494,-565r315,-582r4,0r72,582r-391,0","w":1402,"k":{"y":37,"w":37,"v":37,"Y":152,"W":49,"V":94,"T":188}},"B":{"d":"1067,-1063v0,124,-100,193,-217,193r-365,0r72,-342r340,0v107,1,170,36,170,149xm1389,-1120v8,-281,-196,-342,-476,-342r-614,0r-305,1462r778,0v246,-5,426,-101,513,-270v31,-60,46,-130,46,-209v0,-152,-88,-266,-217,-297r0,-4v172,-27,270,-151,275,-340xm1010,-485v0,152,-104,235,-252,235r-404,0r86,-401r316,0v139,-2,254,27,254,166","w":1478},"C":{"d":"877,-1227v162,1,265,102,262,273r321,0v2,-279,-138,-439,-350,-508v-182,-59,-411,-41,-568,37v-279,139,-461,412,-466,813v-5,415,236,648,649,645v403,-3,565,-243,670,-559r-322,0v-27,127,-109,221,-220,267v-39,16,-80,23,-124,23v-305,7,-379,-306,-303,-590v40,-149,117,-272,237,-344v61,-38,132,-57,214,-57","w":1517},"D":{"d":"809,-1192v222,2,320,131,319,354v-1,258,-114,434,-291,523v-119,60,-295,42,-466,45r196,-922r242,0xm1450,-893v-2,-378,-226,-569,-621,-569r-528,0r-307,1462r610,0v431,-3,684,-213,793,-539v36,-109,53,-227,53,-354","w":1517},"E":{"d":"299,-1462r-305,1462r1126,0r58,-270r-807,0r75,-359r736,0r53,-250r-735,0r65,-313r795,0r55,-270r-1116,0","w":1366},"F":{"d":"301,-1462r-307,1462r319,0r129,-604r625,0r53,-250r-626,0r71,-338r717,0r59,-270r-1040,0","w":1214,"k":{"A":113,".":322,",":322}},"G":{"d":"725,33v169,-2,289,-68,369,-183r4,0r0,150r202,0r168,-791r-620,0r-51,240r338,0v-56,185,-163,315,-406,315v-305,0,-379,-306,-303,-590v40,-149,117,-272,237,-344v61,-38,132,-57,214,-57v181,2,291,69,297,248r321,0v-8,-364,-258,-518,-621,-518v-401,0,-633,242,-743,547v-38,106,-55,219,-55,338v-3,415,236,649,649,645","w":1554},"H":{"d":"301,-1462r-307,1462r321,0r134,-631r591,0r-133,631r324,0r309,-1462r-323,0r-119,561r-592,0r119,-561r-324,0","w":1517},"I":{"d":"301,-1462r-307,1462r321,0r310,-1462r-324,0","w":606},"J":{"d":"-37,-319v4,254,191,352,443,352v332,0,476,-171,534,-449r217,-1046r-323,0r-203,977v-31,130,-59,249,-221,249v-83,0,-161,-49,-158,-137v2,-60,17,-116,29,-172r-291,0v-13,74,-28,141,-27,226"},"K":{"d":"297,-1462r-303,1462r321,0r97,-463r223,-194r334,657r362,0r-448,-860r702,-602r-426,0r-663,612r-4,0r126,-612r-321,0","w":1478},"L":{"d":"299,-1462r-305,1462r1028,0r57,-270r-706,0r250,-1192r-324,0","w":1175,"k":{"y":76,"Y":227,"W":113,"V":188,"T":188}},"M":{"d":"301,-1462r-307,1462r303,0r219,-1163r4,0r142,1163r245,0r619,-1163r4,0r-266,1163r301,0r309,-1462r-449,0r-563,1059r-4,0r-113,-1059r-444,0","w":1857},"N":{"d":"301,-1462r-307,1462r299,0r209,-1026r4,0r401,1026r322,0r309,-1462r-295,0r-209,1040r-4,0r-397,-1040r-332,0","w":1517},"O":{"d":"76,-612v-3,415,236,649,649,645v411,-4,639,-243,745,-559v63,-187,79,-436,8,-615v-89,-228,-292,-356,-604,-356v-401,0,-633,242,-743,547v-38,106,-55,219,-55,338xm729,-236v-305,0,-379,-306,-303,-590v40,-149,117,-272,237,-344v61,-38,132,-57,214,-57v228,0,325,151,325,379v0,251,-104,453,-266,556v-59,38,-128,56,-207,56","w":1593},"P":{"d":"1391,-1036v3,-312,-199,-425,-508,-426r-586,0r-303,1462r319,0r111,-524v215,-7,446,24,614,-35v198,-70,351,-216,353,-477xm1069,-1030v0,170,-98,255,-264,256r-328,0r90,-438v221,8,502,-53,502,182","w":1366,"k":{"A":152,".":367,",":367}},"Q":{"d":"725,33v129,-1,238,-24,328,-68r172,195r172,-144r-156,-174v174,-155,283,-404,283,-712v0,-412,-238,-627,-650,-627v-401,0,-633,242,-743,547v-38,106,-55,219,-55,338v-3,415,236,647,649,645xm877,-1227v228,0,325,151,325,379v0,184,-65,360,-160,465r-129,-145r-172,141r115,129v-42,15,-85,22,-127,22v-305,7,-379,-306,-303,-590v40,-149,117,-272,237,-344v61,-38,132,-57,214,-57","w":1593},"R":{"d":"1112,-1032v-10,272,-347,229,-629,231r86,-411r305,0v140,-2,243,35,238,180xm1434,-1079v6,-274,-160,-383,-437,-383r-698,0r-305,1462r319,0r121,-571r303,0v132,-3,211,43,211,176v0,131,-35,277,-2,395r314,0v-40,-111,-11,-293,-11,-424v0,-131,-38,-227,-151,-258r0,-4v199,-36,331,-170,336,-393","w":1478,"k":{"Y":76,"W":37,"V":37,"T":37}},"S":{"d":"631,-215v-194,0,-327,-69,-316,-270r-305,0v3,376,217,518,608,518v250,0,444,-92,542,-258v57,-96,72,-277,26,-389v-71,-171,-258,-222,-459,-266v-80,-17,-161,-49,-212,-96v-27,-24,-40,-54,-40,-89v0,-137,119,-182,256,-182v158,0,267,59,262,221r305,0v-5,-330,-220,-471,-548,-471v-243,0,-434,87,-529,246v-55,92,-66,263,-19,368v94,209,382,225,590,316v61,27,117,64,117,145v0,149,-130,207,-278,207","w":1327},"T":{"d":"569,-1192r-250,1192r324,0r250,-1192r438,0r58,-270r-1221,0r-57,270r458,0","w":1251,"k":{"y":227,"w":227,"u":188,"s":227,"r":188,"o":227,"e":227,"c":227,"a":227,"A":188,";":227,":":227,".":227,"-":264,",":227}},"U":{"d":"674,-236v-192,0,-303,-98,-263,-288r197,-938r-321,0r-199,953v-21,113,-7,234,40,313v93,156,285,227,525,229v336,3,523,-130,622,-367v33,-81,61,-173,83,-278r178,-850r-322,0r-182,866v-42,205,-102,360,-358,360","w":1517},"V":{"d":"678,0r780,-1462r-334,0r-555,1097r-4,0r-96,-1097r-322,0r168,1462r363,0","w":1290,"k":{"y":37,"u":76,"r":76,"o":113,"i":37,"e":113,"a":113,"A":94,";":94,":":94,".":264,"-":113,",":264}},"W":{"d":"1389,0r686,-1462r-322,0r-446,1067r-4,0r-37,-1067r-308,0r-462,1071r-4,0r-21,-1071r-321,0r100,1462r323,0r455,-1044r4,0r37,1044r320,0","w":1933,"k":{"u":37,"r":37,"o":117,"e":117,"a":76,"A":49,";":37,":":37,".":152,",":152}},"X":{"d":"522,-770r-663,770r387,0r418,-522r229,522r354,0r-362,-756r608,-706r-381,0r-375,483r-207,-483r-350,0","w":1366},"Y":{"d":"475,-567r-117,567r324,0r113,-553r712,-909r-379,0r-454,622r-219,-622r-330,0","w":1327,"k":{"v":113,"u":152,"q":188,"p":152,"o":227,"i":76,"e":227,"a":188,"A":152,";":188,":":188,".":285,"-":227,",":285}},"Z":{"d":"-31,-266r-55,266r1229,0r53,-270r-825,0r985,-934r53,-258r-1155,0r-59,270r749,0","w":1327},"[":{"d":"317,-1497r-391,1868r527,0r49,-230r-258,0r297,-1409r256,0r49,-229r-529,0","w":681},"\\":{"d":"801,33r-572,-1530r-231,0r569,1530r234,0","w":796},"]":{"d":"299,371r393,-1868r-528,0r-49,229r258,0r-297,1409r-254,0r-49,230r526,0","w":681},"^":{"d":"477,-1434r-352,789r240,0r249,-563r250,563r240,0r-352,-789r-275,0","w":1228},"_":{"d":"0,152r0,102r1024,0r0,-102r-1024,0","w":1024},"`":{"d":"541,-1190r-181,-291r-311,0r287,291r205,0","w":530},"a":{"d":"72,-56v141,128,479,97,581,-48r0,104r291,0v-20,-61,-9,-145,4,-205r94,-426v26,-123,42,-240,-17,-322v-121,-169,-539,-171,-726,-59v-92,55,-158,142,-176,275r272,0v15,-101,106,-156,215,-156v98,0,185,30,185,129v0,121,-109,122,-226,135v-51,6,-110,11,-178,19v-228,26,-403,129,-403,360v0,86,34,149,84,194xm550,-187v-98,42,-274,23,-274,-98v0,-233,315,-131,461,-223v-35,133,-67,270,-187,321","w":1175},"b":{"d":"782,-1087v-159,1,-228,53,-313,141r-4,0r108,-516r-290,0r-306,1462r267,0r35,-166r4,0v52,210,382,238,569,135v193,-105,311,-320,311,-606v0,-201,-70,-348,-207,-415v-48,-24,-106,-35,-174,-35xm561,-190v-132,0,-213,-95,-211,-224v3,-174,62,-331,170,-409v40,-29,89,-45,146,-45v267,0,230,363,134,525v-47,80,-118,153,-239,153","w":1251},"c":{"d":"608,-868v130,0,194,47,195,176r291,0v-9,-276,-196,-395,-476,-395v-306,0,-477,175,-558,406v-28,80,-40,165,-40,255v-3,309,172,453,472,453v302,0,466,-172,546,-414r-290,0v-35,106,-100,192,-236,197v-261,10,-222,-356,-135,-523v43,-82,113,-155,231,-155"},"d":{"d":"518,-190v-190,0,-236,-198,-188,-383v27,-105,78,-198,156,-252v40,-29,88,-43,143,-43v269,0,233,360,130,522v-51,80,-120,156,-241,156xm424,27v146,-2,261,-57,317,-162r4,4r-28,131r280,0r310,-1462r-291,0r-117,544r-4,0v-59,-187,-380,-208,-553,-109v-200,114,-319,336,-322,638v-3,254,149,419,404,416","w":1251},"e":{"d":"332,-643v46,-124,121,-223,289,-225v144,-2,196,85,196,225r-485,0xm532,-190v-168,3,-251,-97,-231,-269r780,0v11,-59,17,-114,17,-166v-6,-307,-184,-462,-494,-462v-296,0,-462,183,-543,408v-49,136,-59,316,-7,446v65,165,210,258,438,260v310,2,464,-138,548,-363r-290,0v-46,71,-101,144,-218,146","w":1175},"f":{"d":"862,-1458v-113,-20,-283,-26,-376,10v-152,59,-189,210,-226,389r-174,0r-41,195r172,0r-182,864r291,0r182,-864r209,0r41,-195r-207,0v26,-106,32,-203,172,-196v33,2,65,3,94,6","w":720,"k":{"f":37}},"g":{"d":"442,205v-106,0,-192,-42,-190,-152r-289,0v7,252,202,340,451,346v355,8,521,-160,583,-454r211,-1004r-278,0r-33,162r-4,0v-53,-128,-159,-188,-324,-190v-184,-2,-306,97,-394,203v-140,168,-204,571,-31,749v68,70,166,118,298,119v119,0,216,-50,291,-150r4,4v-55,169,-83,367,-295,367xm522,-236v-247,0,-223,-349,-121,-496v47,-68,114,-131,222,-136v256,-11,239,344,132,498v-49,70,-120,134,-233,134","w":1251},"h":{"d":"817,-1087v-164,1,-278,63,-350,151r-4,0r108,-526r-290,0r-304,1462r289,0r119,-563v39,-153,111,-290,297,-295v63,-2,139,45,139,108v0,31,-13,106,-18,129r-129,621r291,0r157,-761v23,-211,-85,-328,-305,-326","w":1251},"i":{"d":"526,-1223r54,-239r-293,0r-54,239r293,0xm201,-1059r-224,1059r291,0r226,-1059r-293,0","w":530},"j":{"d":"526,-1223r54,-239r-293,0r-54,239r293,0xm-268,360v155,22,335,9,415,-71v62,-62,95,-147,117,-252r232,-1096r-291,0r-221,1054v-16,58,-31,133,-99,136v-37,2,-70,-2,-104,-4","w":530},"k":{"d":"283,-1462r-306,1462r289,0r72,-344r151,-129r175,473r319,0r-272,-657r475,-402r-359,0r-417,395r-4,-4r167,-794r-290,0"},"l":{"d":"287,-1462r-310,1462r289,0r312,-1462r-291,0","w":530},"m":{"d":"817,-1087v-174,0,-293,67,-371,178r-4,0r33,-150r-278,0r-220,1059r289,0r119,-567v25,-111,80,-212,169,-263v31,-18,65,-28,103,-28v69,0,128,48,127,113v0,23,-3,48,-8,75r-139,670r293,0r119,-567v24,-113,81,-212,169,-263v31,-18,65,-28,103,-28v69,0,127,49,127,113v0,23,-3,48,-8,75r-140,670r291,0r152,-720v7,-33,10,-66,10,-99v-6,-184,-138,-268,-321,-268v-168,0,-285,82,-359,184v-21,-125,-117,-184,-256,-184","w":1857},"n":{"d":"566,-833v90,-48,252,-23,255,83v1,31,-13,106,-18,129r-129,621r291,0r157,-761v23,-211,-85,-326,-305,-326v-153,0,-277,59,-371,176r-4,0r33,-148r-278,0r-220,1059r289,0r119,-563v27,-119,84,-218,181,-270","w":1251},"o":{"d":"520,-190v-189,0,-240,-197,-190,-382v40,-147,113,-285,288,-296v278,-17,237,358,139,523v-47,79,-117,155,-237,155xm1122,-639v-3,-306,-190,-448,-493,-448v-305,0,-483,174,-567,404v-29,80,-42,165,-42,255v0,300,192,455,486,455v310,0,490,-171,574,-405v29,-81,42,-168,42,-261","w":1214},"p":{"d":"758,-1087v-147,1,-263,59,-318,163r-4,-4r29,-131r-281,0r-303,1430r289,0r111,-512r6,0v44,108,153,168,297,168v309,0,468,-197,540,-441v24,-83,35,-169,35,-256v2,-254,-146,-420,-401,-417xm551,-190v-269,0,-234,-362,-130,-523v51,-79,120,-153,241,-155v259,-4,234,364,131,526v-50,78,-121,152,-242,152","w":1251},"q":{"d":"526,-190v-274,0,-241,-358,-140,-526v48,-80,122,-152,245,-152v132,0,213,94,211,223v-3,177,-69,332,-178,411v-40,29,-86,44,-138,44xm410,27v143,1,232,-41,299,-111r4,0r-97,455r291,0r301,-1430r-268,0r-35,166r-4,0v-51,-210,-382,-240,-569,-136v-192,108,-312,320,-312,607v0,266,119,446,390,449","w":1251},"r":{"d":"889,-1081v-219,-31,-390,62,-455,217r-4,-4r43,-191r-276,0r-220,1059r289,0r99,-469v38,-204,145,-380,403,-342r61,12","w":796,"k":{"q":37,"o":37,"n":-37,"g":57,"e":37,"d":37,"c":37,".":188,"-":113,",":188}},"s":{"d":"557,-893v108,-1,159,46,164,143r270,0v16,-315,-299,-374,-593,-320v-113,21,-208,80,-266,161v-62,86,-55,272,16,338v113,105,336,112,468,200v20,13,29,41,29,78v-2,98,-87,127,-184,127v-118,0,-220,-42,-209,-178r-268,0v-15,276,186,371,448,371v206,0,377,-62,460,-192v45,-71,58,-196,22,-281v-63,-149,-243,-182,-402,-236v-74,-26,-133,-36,-133,-106v0,-85,87,-104,178,-105","w":1062},"t":{"d":"612,-217v-93,9,-224,28,-200,-91r114,-556r207,0r45,-195r-209,0r66,-321r-291,0r-65,321r-187,0r-45,195r191,0r-129,621v-39,221,145,278,364,256v30,-2,60,-4,90,-7","w":757},"u":{"d":"609,-226v-97,51,-273,24,-254,-111v5,-36,12,-71,18,-101r129,-621r-291,0r-151,709v-45,225,56,377,298,377v153,0,277,-58,371,-174r4,0r-33,147r279,0r221,-1059r-291,0r-118,563v-27,119,-85,219,-182,270","w":1251},"v":{"d":"532,0r580,-1059r-307,0r-375,754r-4,0r-66,-754r-299,0r140,1059r331,0","w":1062,"k":{".":152,",":152}},"w":{"d":"1155,0r553,-1059r-307,0r-340,740r-4,0r-33,-740r-295,0r-326,746r-4,0r-41,-746r-297,0r117,1059r305,0r328,-743r4,0r37,743r303,0","w":1669,"k":{".":113,",":113}},"x":{"d":"647,-551r440,-508r-325,0r-240,305r-116,-305r-312,0r240,492r-490,567r328,0r283,-348r153,348r307,0","w":1062},"y":{"d":"-127,360v139,13,307,21,403,-32v73,-40,118,-101,162,-181r674,-1206r-307,0r-367,758r-4,0r-92,-758r-299,0r188,1049v-44,66,-75,141,-192,141v-38,0,-79,-13,-117,-12","w":1062,"k":{".":152,",":152}},"z":{"d":"-57,-215r-45,215r958,0r47,-219r-584,0r666,-625r45,-215r-889,0r-47,219r510,0","w":1024},"{":{"d":"379,-334v31,-133,-49,-212,-156,-225r0,-6v140,-18,224,-102,254,-242r66,-311v15,-76,48,-150,141,-150r111,0r47,-229r-260,0v-116,9,-201,76,-258,155v-25,35,-42,75,-52,121r-79,385v-26,109,-105,175,-226,185r-37,178v95,4,174,63,152,170r-82,397v-28,156,56,277,193,277r260,0r47,-230r-111,0v-87,7,-94,-71,-78,-147","w":681},"|":{"d":"119,-1610r0,2046r219,0r0,-2046r-219,0","w":454},"}":{"d":"238,-791v-32,130,46,216,155,226r0,6v-138,20,-224,100,-254,242r-65,311v-15,73,-50,147,-140,147r-110,0r-47,230r258,0v161,-20,277,-124,309,-277r80,-383v24,-112,106,-173,227,-184r37,-178v-96,-2,-175,-65,-153,-170r83,-400v30,-154,-58,-276,-194,-276r-260,0r-47,229r110,0v88,-7,94,74,78,150","w":681},"~":{"d":"391,-477v215,-8,309,196,530,124v80,-26,125,-97,171,-161r-82,-191v-46,63,-80,148,-181,148v-178,0,-320,-190,-527,-124v-80,25,-130,89,-165,161r82,190v34,-69,74,-143,172,-147","w":1228},"\u00a0":{"w":569}}});
